2266 100
政府 -0.00091130944 -0.0059843864 0.00024238121 -0.002350345 2.4816823e-06 -0.0018382632 0.004633719 3.8578888e-05 0.0011830756 0.004696343 0.005193541 -0.00164971 -3.3410954e-05 0.00016800153 -0.00044910333 -0.0060030213 0.0016297449 -0.0044693584 -0.0010872415 -0.0028873112 -0.00010109265 0.00052246277 -0.00065728277 -0.0025657173 -0.0023082779 0.0031197986 0.0040196925 0.0005840746 0.0011647146 0.0039021093 0.0013493145 0.0009692244 0.002523206 -0.0038157604 0.0019068386 -0.005755886 -6.4013555e-05 -0.005285739 -0.005653396 0.0032774366 -0.003929947 -0.0025391055 0.0026496863 -0.0031874424 -0.004538343 0.0042861863 0.006334653 -0.0046421923 0.0021778895 -0.004154889 -0.0014772282 0.0014046945 0.00049424305 -0.0036585175 -0.00020658314 0.00022044944 -0.0006568373 0.0023788672 -0.0021784895 0.0048411363 -0.0044602556 -0.0016068037 0.00095691707 0.0033122783 -0.0059784995 0.008074534 -0.005881192 -0.0041414867 -0.004587721 -0.005331612 -0.0013870575 0.0019897097 0.0016225612 0.0073470203 -0.0050771465 0.0068775117 -0.0038577607 0.002733343 0.004567184 -0.004461439 -0.004189379 -0.0014524122 -0.005567988 0.00017234948 0.00056370435 -0.002304213 -0.0011370144 4.3807442e-05 -0.002567087 0.005121475 0.0050320835 -0.0022544488 -0.0065911883 0.0058479193 0.0008885146 0.0031158205 -0.0027658145 -0.0026311993 -0.0025979225 0.0069775293
数据 -0.0040633557 -0.0005646694 -0.0043793772 0.0042744316 0.0029638032 -0.007619231 -0.002732179 -0.0060313386 -0.0010106886 0.0056379144 0.0042622257 -0.0044323467 -0.0010074262 0.001233561 0.00014136982 -0.006298133 0.0010698605 -0.006572933 0.00167629 -0.001988078 -0.0062055453 0.0011661698 -0.0062233345 0.0039364295 -0.002086311 0.0034665146 -0.00319919 0.00061375846 0.0011974237 0.0038962313 0.001704962 -0.00074577343 0.0033425007 -0.00665983 -0.0009821582 0.0031262108 -0.0033855725 -0.003045815 0.0034699177 -0.00092605106 -0.0017476573 -0.0032533817 0.0053972 0.000903169 -0.0068146144 -0.0030269623 0.0022681814 -0.0035259938 0.00013330317 -0.0070426045 -0.007973109 -0.0026578577 0.0038416127 -0.005387182 0.0066748126 0.0048725707 0.0005637038 -0.0038210507 -0.0010578644 -0.0042324783 0.0033240297 0.0021958728 0.007281083 0.004946159 0.0017883282 0.008002914 -0.0015385163 0.001091802 -0.0018823892 -0.0065643094 -0.00014005015 0.0023704288 0.0028079997 0.010175983 -0.0022311339 0.004274866 -0.0011743584 -0.0034847748 -0.0037009881 -0.0026377914 -0.0024418617 -0.0028208676 -0.0015066018 -0.0062345755 -0.00031458263 0.0013243007 0.0028895647 0.006434972 0.000651309 -0.0005414118 0.0038953081 -0.0019586494 -0.005299078 0.005159993 0.0031230296 0.0010593917 0.00029748783 -0.0015958463 -0.0031952634 0.0068571432
信息 0.0019339446 -0.002508811 -0.0049613602 0.0058698333 0.00034799927 -0.0042036693 0.0012522532 0.0026612403 0.0002217336 -0.003224116 0.0016343402 -0.0037021935 0.0038805646 -0.0012708814 -0.005081929 -0.0027334597 0.0024320171 0.0018107443 -0.0062673837 0.0040430943 -0.0016891502 -0.0011063929 -0.003997471 0.0055249925 0.002770205 2.7370393e-06 0.0051205056 0.002063319 0.0011884255 0.004691099 0.002968784 0.0016402416 -0.0029845093 0.0035353366 0.0028930898 -0.005263359 -0.00470431 -0.0016655789 -0.0025346524 0.0003362219 0.0022621718 0.00048473483 -0.0031071762 0.0044532055 -0.0026924748 -0.0037444225 0.0023920592 0.0012603839 -0.002653318 0.0018208008 0.0028733085 0.0035871756 -0.0026498502 -0.003763423 0.0060388898 -0.002932521 -0.0014159374 0.00028872205 -0.0038916762 0.00012811547 -0.0036690973 -0.0029812492 0.003134597 0.0027308664 -0.003820281 0.0028331813 -0.0031933994 -0.0019372521 -0.00500301 -0.001210691 0.0054706642 0.003004027 -0.0004512541 0.0016917832 -0.003925889 0.0017178309 -0.0009184935 -0.0024211004 0.0034607009 -0.0040850663 -0.0013882681 0.0058000805 -0.0029473042 -0.00041642156 0.0028076265 0.0007004134 0.00486497 0.0046560084 -0.0016344793 0.00075216196 0.0046004546 -0.0032701432 0.002590534 0.001222055 -0.005842911 0.0059332526 -0.003031899 -3.1214207e-05 0.00113784 0.00037255607
中 0.0023348047 -0.0012961379 -0.004066851 0.0033405472 -0.004958502 -0.0014569991 0.000813501 -0.0014035798 0.004009133 0.0049540233 0.0038736071 0.0020236522 -0.00013562776 -0.00037767462 -0.0062281974 -0.0027156183 -0.0009191682 -0.0006434548 -0.0010485128 0.004369584 -0.0035588448 -0.0020331529 0.004621924 0.0048852903 -0.0033046405 -0.0023140986 -0.0009668013 -0.0034129072 0.004553906 0.0016413525 -0.0020882208 0.0025692736 -0.0024835332 -0.005632552 -0.0018182806 -0.0048076925 -0.002447221 -0.004965739 -3.1739164e-05 -0.002490355 -0.001431697 0.0018756047 -0.0009734052 0.0020798286 0.0010316047 0.0019905197 0.0045628333 -0.0037376054 -0.0014953644 -0.00018446968 -0.0016495954 0.00094273104 0.0036903417 -0.0038160023 -0.0027624455 0.003252918 0.0010310134 -0.0050220154 -0.0051778993 0.00051494024 -0.0017241833 0.00082017644 -0.0003567055 0.0026739857 -0.004052057 -0.0011392061 0.0040393583 0.0048139747 0.0025621783 -0.0019389704 0.0018196506 -0.0012013939 0.0015264454 0.0031583738 -0.0040847543 0.0014507904 -0.0035754936 -0.0021176678 0.004812784 -0.0020427227 -0.00086986134 0.0056348476 -0.005666293 -0.00023524792 -0.0047750077 -0.004132173 0.0022970673 -0.0032728761 -0.0048557804 -0.0011158866 -0.0020001486 -0.003885045 -0.0013135538 -0.0023738646 0.000351482 0.0076674866 0.0029030459 0.00091016816 -0.0010736095 0.004625146
我国 0.0013530563 -0.0017298624 -0.0044882866 0.0063043153 -0.0021919247 -0.0056556314 0.0006989862 -0.005447856 0.004752264 0.0009890869 -0.0022906265 -0.00046868023 0.00301489 0.00038217715 -0.0026377363 -0.0039082062 0.00057298015 -0.0038328217 0.0024111 0.0023650376 -0.0006795991 -0.0026959486 -0.0013626406 0.0030439217 6.04292e-05 -0.00031517408 0.0014495014 -0.0045240433 -0.002956423 0.005572926 0.003599396 0.0051666503 -0.0052039726 -0.006046379 0.004242078 0.0001979626 0.00039141488 0.0014574206 -0.0025853387 -0.0018589082 0.0012161097 -0.005573261 -0.0012030649 -0.0017753397 0.001674346 -0.00060943625 0.0060633398 0.0033319748 -0.003977488 -0.002364943 -0.0029400385 0.0017935426 0.000544091 -0.0036574453 0.00043212986 -0.0032931524 0.00614964 0.0019126222 0.0016883638 -0.0030887239 -0.0009915114 0.0021297596 0.0048571075 0.0024214364 0.0028846182 0.005926402 -0.003639805 -0.002977779 0.002602487 -0.003013389 0.0036752021 0.003873394 -0.003809553 -0.00057737395 -0.0045479257 0.0028007366 -0.00082611974 -0.0015223926 0.0046096887 -0.0034339882 0.0008016609 0.0053416006 -0.0061129667 0.00058603333 -0.00075567537 0.0031548918 -0.0011752348 0.0069622532 0.0008654712 0.0046265633 -0.0042755287 0.0023418274 0.0015657033 -0.0019988401 0.003284275 0.0051182145 0.0019898475 0.00091799215 -7.304239e-05 0.0007897514
政府数据开放 -0.0014397933 -0.0038697526 -0.0064043915 0.0015338237 0.0010957564 -0.0036249955 0.005086212 0.0006976227 -0.0027097221 0.004489725 0.00080097583 -0.004094158 -0.0040423987 0.00027639317 0.00017822316 -0.00050088635 -0.0023599355 0.0032374954 -0.0060926434 0.001150362 -0.00065248477 -0.0044411225 -0.004894358 0.0035797528 0.002845165 0.0054700687 0.0032687641 -0.003765453 0.0024746289 -0.0023363146 -0.0060418756 -0.0041050394 -0.0021806771 -0.0019118096 0.0010550577 0.0017909282 -0.0036524602 -0.004589698 0.0020358833 -0.0034425661 0.0012794572 -0.0023279001 -0.0044799284 -0.001791864 -0.004919711 5.5531847e-05 -0.0007317779 0.0010181358 0.004573429 0.003922481 -0.0056958357 -0.00047577565 -0.0004235846 -0.00011004309 0.0021062917 0.0016788434 0.005832612 -0.0064704088 0.002772621 0.0024231935 -0.004078883 0.0031520284 0.005350481 -0.0023349398 0.0028290239 0.006588249 -0.0007261162 0.0015136633 -0.0015929007 -0.0013422234 0.0066990526 0.0014871496 -0.0020966006 0.0031488456 0.0025922197 -0.0029577902 0.001328647 0.0004869431 -0.0036562728 0.0018341668 -0.0075288285 0.0025793249 -0.0014752152 0.0027421187 0.0021669925 -0.00036810635 0.00023533477 0.0013531783 -0.00023120308 0.0014855962 -0.0005604331 0.0014195855 0.0030934087 0.003016027 -0.0019937193 0.00579544 -0.0023700641 -0.004516235 0.0033192206 0.0029698748
管理 -0.001241829 -0.0027560424 -0.007275419 0.0029789016 0.00037653768 -0.0061002914 0.00484329 -0.0023662313 0.0055419724 0.0060559874 -0.004120604 -0.0049520945 -0.0019493559 -0.0015716064 0.0013448878 -0.0054191607 -8.712518e-07 -0.0011705621 -0.003915944 -0.0025865238 -0.002211908 0.002551359 0.002114099 0.0063045993 -0.0008167821 0.006247317 -0.0017192506 0.0025234332 0.003632516 -0.00029206605 0.0011125873 0.005990545 -0.0020986537 -5.9150116e-05 -0.0019549485 0.0022011173 0.0030717235 -0.0045347144 -0.0054488713 0.0029964726 0.0026981109 -0.0068585426 0.0043140575 -0.00078609533 0.0005311487 -0.0006596021 -0.0007011295 0.0030773494 0.00024642667 0.0011029175 0.00074090814 0.00053297274 0.0045258813 -0.0040789563 -0.0023446877 0.004351437 -0.00320272 0.0025586402 0.0031915123 0.0049545746 -0.0013470594 0.0015756082 0.0055632344 -0.0012048946 -0.005035672 -0.001162522 -0.0009979003 0.0049146707 0.0010671696 -0.00037537495 0.00041070447 0.0050709033 0.003317536 0.0026211888 -0.0010391278 0.0010118585 0.0031109247 -0.0033093463 0.0032320675 0.0024409024 -0.0010189512 -0.0014000407 -0.004359774 -0.0041781636 -0.004021556 -0.0058049825 0.0045236014 -0.0019497353 0.0026128446 -0.002193443 -0.002653429 -0.005188896 -0.0027368574 0.003609365 -0.0001696057 0.0065958058 0.00027695566 -0.004015242 0.0042162603 0.0016702984
开放 -0.00058862794 0.00024750395 -0.003842798 -0.0029811622 0.002625937 -0.006229445 -0.0030117212 0.0019079002 0.005932446 0.0045951456 -0.001679631 0.002617812 -0.004516986 0.004682571 0.0006725534 -0.0038190072 0.004432372 -0.004060332 0.0013133007 0.0014918253 -0.006216408 0.0028660824 -0.00037221832 0.0033353257 -0.0054387413 0.004497906 0.0054534283 -0.00306979 0.0006511603 0.00036706944 -0.0018817437 0.0042605726 0.00085913745 0.0002717179 0.0006040032 0.0009008912 -0.003938488 -0.004369793 -0.004685643 -0.0025661467 0.0043841805 -0.0015971661 0.0042425445 0.0047735516 -0.0043261014 0.0030763906 0.00071267015 -0.004049633 -0.0016438224 -0.00024025599 -0.0012773217 -0.0018089638 -0.0013118406 0.0029972575 0.005756125 -0.00022379821 0.0016293514 -0.0034334252 0.0024695925 0.0033857473 -0.0008093296 -0.0052464083 0.00054632314 -0.001084045 0.00048498108 0.004668875 -0.0027227288 0.00050341646 0.0013210995 -0.0012235587 0.006735925 -0.004361773 -0.0011270021 0.0049083624 0.0034519292 0.0046152994 0.0026716383 0.002675677 0.0045520365 0.0010750721 -0.00042775786 -0.0019017768 -0.006769419 -0.001181336 0.0020478058 -0.0006482131 0.0016339592 -0.002979799 0.0046871863 -0.00015616528 0.0039047368 -0.003509574 -0.0011333335 0.0016570105 0.0023040683 3.7855618e-05 0.0021988295 0.0021569962 0.00076083187 0.0012368257
平台 0.0020835071 0.0036653755 -0.0021914241 0.005904721 0.003635403 -0.003844542 0.0039880066 -0.0014091736 -0.0024175919 -0.004223231 0.0056059714 -0.006588697 0.002928432 -0.00083090045 -0.0032865338 -0.006677939 -0.0026972871 0.0033216712 -0.003652651 -0.002997872 -0.0026050217 0.0002624547 -0.0024174182 0.0036377236 -0.0004750362 0.00029851007 0.0019557334 0.0033746276 0.0056764376 -0.0005439373 0.001148303 0.0013744164 -4.148244e-05 -0.0011459053 -0.0036673099 -0.001282336 0.0014027993 -0.004459779 -0.0045715277 -0.00091143604 -0.0042615235 -0.0047749304 -0.0011069571 0.004636683 0.0017159213 -0.0017962359 -0.00061590114 0.0012775782 -0.002436974 -0.0018178503 0.0011245451 -0.0060199564 0.0037033076 0.0011326359 0.004914045 4.888425e-05 -0.0032544893 -0.0067428867 -0.0014563845 -0.002592841 0.0012820384 0.004595639 0.0020216107 -3.0698797e-05 -0.0024376854 0.006948445 0.0016366174 -0.0012245966 -0.0040543173 -7.316352e-05 0.004445764 -0.0038133906 0.0054617357 0.0031272233 -0.00013555624 -0.001340163 0.0029432827 -0.0023640944 -0.000118423784 -0.0022069518 -0.003533793 0.0032478338 -0.006765677 -0.0015719031 -0.0054770866 0.00050608284 0.0036322547 -0.0017650799 0.0013405646 0.0069003184 -0.0042964425 -0.005596779 0.00014148618 -3.1521857e-05 -0.0013349653 0.007420684 0.0052952054 -0.004031308 0.0008328793 0.004832946
国家 0.004434601 -0.0046448065 -0.006307452 -0.0034051964 -0.0026329923 0.0013428561 0.00019978425 -0.002063646 -0.0015158043 0.0055807363 -0.0014104447 -0.004243616 0.0026508456 -0.002258676 -0.0032054298 -0.0053031077 -0.00046990675 0.0006836609 0.0031082353 -0.003230971 -0.006978565 0.002091452 0.0009412262 0.002774936 -0.00012568699 -0.0024160887 0.0036604984 -0.00030100867 0.0039628255 -0.0026220677 0.003352272 -0.00061741757 0.00080992386 -0.0045784866 0.004003949 -0.0011486721 -0.0015874421 -0.0023636355 0.004107381 0.003557413 0.001932142 -0.0030181017 0.002712554 -0.0027624944 -0.0045011183 -0.00099326 0.0024067783 0.0024190643 -0.00086553965 -0.0060234396 -0.0061356593 -0.0060145347 0.0019877618 -0.0024457423 -0.00019309924 -0.0003287262 0.0064959317 -0.0037963232 0.0035969727 0.0049198237 2.4147166e-05 -0.0034613663 -0.0027616834 -0.0039323205 0.0023567402 0.0066075493 0.0009907202 -0.005100628 -0.0040540625 -0.0012518469 0.006105229 -0.0009517064 0.00485052 0.0008111956 -0.0024631557 0.0030167182 -0.0040978175 -0.002283996 0.0039873 0.000289531 -0.0016929458 0.0040108818 -0.0008345787 -0.0043712957 -0.0055326032 -0.004682785 0.0043291235 0.005426717 0.002242195 0.0050550434 0.0004488643 -0.0037137782 -0.0052865464 0.0064636664 -0.0017366661 -0.0021594348 -7.746475e-05 0.004491595 -0.0014377559 0.0020569286
部门 0.003277164 0.0042350516 -0.0032350277 -0.0019541052 -0.0033249236 0.00017162622 -0.00026949076 0.0017175911 0.0052229525 -0.0012197024 0.0012594844 -0.0062335436 -0.00022300788 -7.526747e-05 0.003106578 -0.0028290167 -0.0029855699 -0.0046911184 -0.005326019 -0.0014530694 -0.0044189286 -0.0015300828 -0.00040999122 -0.0035525062 -0.0008077723 0.0046042693 0.0014560749 -0.004787843 0.0044203806 0.0047334335 0.0032330947 -0.00167028 -0.00011090681 0.0007711178 0.0062094782 -0.005436733 -0.00037601573 0.0034128304 0.0017159105 -0.0009705049 0.0012953065 -0.0039194487 -0.0032042975 -0.0009367347 0.0020009337 -0.001481134 -0.0037721014 -0.0013821725 -0.00071938173 -0.00012324187 0.0005571128 -0.002233185 -0.0018507864 0.0013976942 0.0027082318 0.00075056707 0.0018024785 0.0032174287 -0.00045450986 -0.004963165 0.00016280591 0.003043699 -0.002030866 0.004656766 -0.0045596836 0.0056299707 -0.0024620122 -0.004820349 -0.003872649 0.00018523223 0.00014439649 -0.0032101066 0.0044952165 0.003948673 -0.0057826014 0.0046324553 0.0025917387 -0.0015458631 0.0048339884 0.0014534147 -0.0068243034 0.0038185108 0.0015479673 -0.003477708 -0.0022729253 -0.005210206 0.0008147841 0.0018357278 -0.004475711 0.001331127 0.004718958 -0.0049592215 0.0037691246 0.005595101 0.0009571364 0.0068137906 -0.0035190661 0.0031028097 -0.0038006436 0.005443862
制定 -0.0020930776 0.0016846352 0.0033576586 0.0017441808 0.0022637893 0.002199701 -0.0017442257 -0.00030831073 0.0032124987 0.00284637 -0.0012760573 -0.0034449124 -0.0017183451 0.000686029 -0.00010349102 -0.0046568117 -0.0027049833 0.0017344098 0.0021130166 -0.002400967 0.00043059766 -0.005843146 0.0028728663 0.004182082 0.0036666174 -0.0031052434 0.0018862125 -0.0016206037 0.0019444177 -0.00071251893 0.0034560408 0.00068983296 -0.0035603496 0.0038366814 -0.0034493504 -0.0044665043 0.0008376428 -0.0013855372 0.0004376837 -0.0012227923 -0.0032174385 0.0013908065 -0.00013974818 0.004170958 -0.0003893261 -0.001499078 0.0010928139 -0.0044157486 -0.003614998 -0.0040089698 -0.0010996787 -0.0038331826 0.0052080643 0.0016664794 0.0053919824 -0.0039440533 0.005332393 0.003153602 -0.0024276145 -0.00029081982 0.00019649425 0.0021019464 -0.00015297426 0.004850234 -0.0017934978 0.0034777764 0.0011544705 -0.0010570042 0.0036924582 0.0036430575 0.0042276056 -0.0038469308 -0.0021772527 0.0037047819 -0.0006687938 -0.0011642224 0.0017795883 0.002325499 -0.00082683685 0.0016182887 -0.006465465 0.0018766414 -0.004112037 0.002661021 -0.00052734517 0.002787074 0.0038645666 0.004694673 -0.00035860174 0.0020162754 -0.0032197083 -0.0034402008 -0.0016030638 0.0011570564 -0.0053541977 0.0020457108 -0.003893682 0.0037953928 -0.00035493475 0.0020932697
相关 0.0015824838 -0.00043902115 -0.007506251 0.002448248 0.00028362565 -0.0025316281 0.0056233825 0.0018465403 -0.0041046194 -0.0006054703 -0.0037999551 -0.00630107 -0.0016825208 -0.0043786475 -0.0037606398 -0.00035552256 -0.0045480137 0.0005141033 -0.00038272943 0.0013344847 0.0031398768 -0.005631175 -0.001534849 -0.0006253061 -0.0038244482 0.006250836 0.0022319462 0.0042838566 -0.002473586 0.0032226956 -0.0046322565 0.00573678 -0.00027326477 0.0038735538 0.0020873235 -0.00064228685 -0.0003510477 0.0017011712 -0.0012325577 -0.0020571933 -0.003316264 -0.004919201 0.0017562616 -0.0032740573 -0.00091951626 0.00273162 0.0021130552 0.004248919 -0.005102059 0.0008237774 -0.003424074 -0.003906292 -0.002431203 -0.0001266081 0.002294642 -0.004818131 0.002306314 -0.0060156845 -0.003393209 -0.004396367 -0.00094725925 -0.0033311609 0.0053040353 0.0050114496 -0.0006890171 0.0010006959 -0.00020836803 -0.003606666 0.000532421 -0.0016710238 0.003492675 -0.0007664006 -0.002230639 0.006680648 0.0032701204 0.002657946 0.0011275392 -0.0056082816 -0.0033634668 -0.005052588 -0.0012332251 0.0012985206 -0.003065297 0.00053603214 0.0027080479 -0.005070292 0.0036323916 0.006573751 0.005348976 0.006640138 0.003474779 -0.0011367791 -0.0036849824 0.0059922407 0.0035452012 -0.00022028844 -0.0012430979 -0.0041299625 -0.0006924413 0.0052249962
研究 -0.004294644 -0.004262971 0.0030531199 -0.0028492473 -0.0030332657 -0.003315486 -0.0034507392 -0.0046352255 -0.0011448959 -0.0031013738 -0.001229426 -0.005037238 0.0048054666 -0.002824788 -0.00018759654 -0.0013883049 -0.0044267774 0.0006445943 -0.0060310788 -0.0011017368 -0.005897294 -0.0050513037 -0.0053750863 -0.001906689 -0.0037477694 0.0028017801 0.004088947 -0.004872053 -0.0023419226 0.0033233424 -0.0005083196 -0.0021775966 0.003074958 -0.0023071896 0.004811826 0.0029637087 0.0015521611 -0.0031750805 0.00079534756 -0.0031237674 0.0022104925 -0.003640872 -0.0016693447 -0.0011068699 -0.006581518 0.00020927974 0.0014335394 0.0014614931 -0.0010758295 0.0038886264 -0.006217823 0.0038261875 0.0047400985 -0.000970645 6.7298366e-05 0.0048632743 0.0025698766 -0.001711258 -1.5424383e-05 -0.0025832697 -0.00015496838 0.0005082588 -0.00064746727 0.0048119696 0.0036002945 -0.00047147082 -0.0016022819 -0.0047539235 -0.0022763242 0.0034303828 0.005931745 -0.0043055625 7.0134935e-05 0.0017422482 -0.0054683825 -0.0038272052 -0.005107914 -0.005734617 0.00020773933 0.0022012177 -0.004686112 -0.0012069596 -0.0010280883 -0.003709405 -0.0054716864 0.0019273857 -0.002931643 0.0032656468 -0.00080378767 0.0046190447 -0.0037883483 -0.005562157 -0.0040100687 -0.002653519 -0.0023825876 0.006938072 0.004779167 0.003290423 -0.0030330748 -0.00065480184
系统 -0.0018519948 -4.9414146e-05 0.0016631808 0.0034349067 -0.0032764168 -0.007148639 0.0022668985 -0.0039836285 -0.0012311733 -0.0037317043 -0.0033320128 -0.0031616269 0.0052283136 -0.00066886964 -0.0039438717 -0.0067129508 -0.002828582 -0.0052906796 -0.0030576654 -0.0003859991 0.0015343088 -0.0059956294 -0.001516057 -0.0011432761 0.0009874416 -0.0032860695 0.0041116923 0.0013997334 0.0052028364 0.0010582542 0.001255789 -0.002859248 -0.0052775107 -0.0058400035 0.0034895586 -0.0042677713 0.0024008912 0.0021007075 0.004369174 -0.0023615866 -0.0049470086 0.002381632 -0.00015686422 -0.00058770855 -0.0028556606 0.0033608119 -0.00031734462 -0.0012430744 -0.0035614597 -0.003024166 -0.004630084 -0.0017658274 0.0051123793 -0.0051941155 0.0032969704 -0.0005915016 -0.0034154868 -0.0055219443 -0.0033943239 -0.00306532 0.0018577558 0.0026009236 0.004410753 0.002160699 -0.0050200885 0.0028829623 0.0008613846 -0.0023177147 -0.004601828 -0.0026130124 0.00476273 0.0008594851 -0.0029346251 0.005122008 -0.0037473585 0.003523113 0.0046523847 -0.0024360374 0.0017901745 0.00063181 -0.0047273804 0.00607854 -0.006091691 0.003278864 0.0015068754 0.0018243517 -0.00032378896 0.0050860997 -0.0038064863 -0.0014931998 0.0022893827 -7.6363714e-05 0.0015881071 0.0032109525 -7.310582e-05 0.002460056 -0.002897736 -0.0051714117 0.0016342319 -0.00032320592
包括 -0.0016185029 -0.00077493995 -0.006892243 -0.0017556825 -0.0042754887 0.0007138898 0.0008559167 -0.004835334 0.0014521829 -0.0015581279 0.004491144 -0.0023905034 -0.0005160174 0.0017527699 0.0007371218 -0.0035566445 -0.0034989465 0.0029980764 4.8566333e-05 -0.004830246 0.0019951186 0.0012904527 0.0005531107 0.0041152285 0.0017205623 0.0064169792 -0.001558926 -0.0042757588 -0.00017160231 0.0010657099 -0.0016150743 -0.00032439118 -0.0046443394 -0.004718317 -0.00095698313 0.003596648 -0.0014094057 0.00273436 -0.0023376106 -0.0020846184 -0.0015987525 0.0023143925 -0.001562272 0.0039754044 0.002036074 -0.004841418 0.005636735 -0.00028761063 -0.0013116661 -0.005254956 0.002228654 -0.005411453 0.0035871752 -0.0041187787 0.002691831 -0.00019115093 0.0063009663 -0.0063403733 -0.0014402077 0.0046194396 -0.00031810862 0.0027944068 -0.0020938201 0.0022515568 -0.0044766716 0.00077729975 -0.0035160633 -0.0036914092 -0.005625016 -0.005128672 0.0038778237 0.003611504 0.0020284015 0.0025355895 0.0023636827 0.00479352 0.00013766886 -0.0044157077 -0.0028115415 -0.0031541258 -0.0034639284 -0.00016926923 -0.007649632 -0.00061581493 -0.003906431 -0.003727245 0.0018306763 0.0020738463 0.003754442 0.00038953827 0.00169241 -0.0051217815 0.0033961583 0.0008682844 -0.0009157902 -0.00060481176 -0.00045157588 -0.005251529 -0.000471756 0.0054134973
政策 -0.00013325416 0.0010425297 -0.0064054993 0.0030603812 0.00453754 0.0021154888 0.0034223222 -0.0024584082 -0.0041761696 0.00041207092 0.0010675726 -0.004513708 0.00059653044 -0.0018237837 -0.00071789266 -0.004724759 0.0037068245 -0.003770674 -0.0005554644 0.004817694 -0.0050512007 0.00083473936 -0.0017779005 -0.0017396354 -0.0006771286 0.0026342615 -0.00312105 -0.0025096594 0.006089911 0.0019403278 -0.00482809 0.002964629 0.00082639226 -0.0021823095 0.0053861653 -0.0031032446 0.0026594214 -0.0030628974 -0.001117064 0.003242972 0.004238755 -0.005128325 -0.004050449 0.0014740806 -0.005522139 0.003971646 0.0020129266 0.0038995477 -0.00042398588 -0.0056996923 -0.0021472047 0.0013200823 0.00012531823 -0.0052294265 0.00024414054 0.00080903305 -0.00015306647 -0.0043079974 0.004657449 -0.0006100426 -0.0028998556 -0.0026493946 0.0030276969 -0.00061216264 0.0037334969 -0.0006297486 0.00025104618 0.00063589006 0.00030789903 0.0014596602 0.005953578 -0.005336896 -0.00028909987 0.0033085945 -0.0058039683 0.0018403319 0.001051563 0.001227458 0.00021322799 -0.0032065485 1.5278662e-05 -0.0026871332 -0.0023262033 -0.0015636474 0.00033273967 -0.0045551863 -0.0029325094 0.003240508 0.003866038 0.0027343775 -0.0020980602 0.00013886834 -6.5896e-05 0.00028466288 0.004410131 0.0056708707 -0.0023431599 0.003369774 0.0045330836 0.005109675
数据开放 0.0019560005 0.0028121043 0.0011454318 -0.0026722192 5.845281e-05 -0.00096089055 0.004484067 -0.004273531 0.004461107 0.0039213207 -0.0005064326 -0.005544493 0.004941157 0.0047269496 -0.00047313204 9.340455e-05 -0.0047720894 -0.0051349425 0.0008346258 -0.0031080847 -0.0049669053 -0.001964133 0.0009842623 0.003899339 0.00031569702 0.0050033657 0.004428477 -0.0027728616 0.005932187 -0.0011458832 -0.0029863059 0.0024532655 -0.0017531973 0.0005609976 0.0018157276 -0.0021776704 0.0020117073 0.0020512259 -0.002887921 -0.0031739718 0.0018490177 0.0006322456 -0.00023741837 0.0040939255 -0.0034460423 -0.0017807026 -0.0019129557 -0.004726198 -0.0016374798 -0.0028293703 -0.0030361032 -0.0030170623 0.0019256115 -0.0046551432 0.0032811987 0.0044729533 0.00059271115 -0.003594033 0.0016969553 0.0018795169 0.0017154053 -0.0037492218 0.004538824 0.004088983 0.003243298 0.0024827116 8.6609056e-05 -0.0015709638 -0.0024497656 -0.0034384965 0.0038234042 -0.002610645 -0.0028234995 0.006351898 -0.0005049167 0.0027800214 0.0041911695 -0.0056818584 0.0034672364 -0.0049006143 -0.0012489913 0.0040510367 -0.00208336 -0.0051178937 -0.0018373786 -0.0047634165 0.004837658 0.005497001 -0.0027533092 0.0045696646 0.00031125924 -0.004426008 -0.003916687 0.0005248437 0.004041512 -0.0011660538 -0.0015945382 -0.00075360195 0.0032637396 0.0014260033
建立 -0.003222682 -0.0035517141 -0.0071801776 0.006398136 -0.0054452983 -0.0061917803 0.0034195562 -0.00021767095 -0.0035347985 0.0050599477 -0.0005740204 0.00084787974 0.0034309882 -0.0012760471 -0.003065696 -0.004943423 -0.005141303 0.00091994624 -0.0010703524 -0.0041670194 -0.0047132443 0.0005564951 -0.004923444 -0.0032271496 -0.00073702465 0.00058129604 -0.0016789696 0.0033327872 0.0011464702 0.0014445342 -0.0036465283 -0.00085222954 0.0027364702 0.0012431688 0.003351372 0.003745501 0.0002746965 0.0005849295 -0.004762063 0.003957027 -0.00020086186 -0.004114979 0.0015218371 0.004151949 -0.00085435004 0.002832444 0.0033305977 0.0023717317 0.0039469963 0.0030186833 0.0017848442 -0.0012689651 -0.003502995 0.00016780863 0.0062039886 0.004518265 -0.0037279262 0.0016154621 0.0048604007 -0.0020039575 0.0025321369 0.0024921023 0.0055437507 0.0014120257 -0.0017738306 0.0026141964 0.00020605791 -0.0008906432 -0.003837742 0.00053990865 -0.00068566005 -0.0011156589 0.002953129 0.002851471 0.0026606251 0.0008833109 0.0018761547 -0.003833135 0.005280191 -0.00022720145 -0.0029936999 0.0005747274 -0.0027078323 -0.0016964437 -0.0039108493 0.0004823811 -0.0027462814 0.0043667206 -0.0008630495 0.0049763112 0.0042883945 -0.006579931 0.0030001032 0.0062352004 -0.0057450854 0.0011774508 0.00430533 0.0011187963 0.0030240829 0.0047625676
发展 0.0004478753 -0.002498329 -0.0059903366 0.0005131046 0.0011490013 -0.006146442 -0.0010702199 -0.0027933302 0.0002412085 0.0012268003 -0.002753915 -0.0053927773 0.0055149277 0.00031605884 0.0018084809 -0.0029242327 0.0011193106 0.0014885222 0.003346517 0.0013089308 -0.001420859 0.0040758285 0.004609724 0.0049508354 -0.003379403 0.0046915477 0.0049216645 -0.003202439 0.0025892102 0.0018469029 -9.288124e-05 0.0056676753 0.0026546693 0.0034032336 0.0039948174 0.00086303725 -0.0031070302 0.0032236502 -0.00044017134 0.00443425 0.0018381005 -0.0026017157 0.004372546 0.001535966 -0.0035256944 -0.0045159142 -0.0009805763 -0.0002430354 -0.002929442 -0.0063073724 -0.002514751 -0.002798214 0.0020591973 -0.0039217994 0.0015436017 -0.0017442009 0.0026337877 -0.0065346723 -0.004493833 -0.00023225643 -0.005312841 0.0008142414 0.004878911 0.00066449906 -0.0006020092 2.541491e-05 -0.005838516 0.0048459233 -0.0021134266 -0.0037779436 -0.00012712128 -0.0032029278 -0.003677464 0.00014953142 -0.0012929669 0.0038684113 0.004137477 0.0010483947 -0.0029593415 0.0014186975 -0.0060653742 0.0022146197 -0.0040844507 0.0041935723 0.0019865988 -0.0005583082 0.002930521 0.0016304791 0.0010261756 0.0066072936 0.0011780456 -0.0024136927 -0.0038576485 0.0025707635 -0.0025666913 0.0065407925 -0.001591882 -0.005277822 -0.001627553 0.0045906436
推进 -0.00022239059 0.0018937405 0.0019621437 -0.0009257023 -0.00044188293 0.0005223144 0.0034866366 -0.0050846296 -0.00048649785 0.0015172727 -0.0009203619 -0.0047584767 0.004701211 0.0014335004 -0.00589906 0.0007269139 0.0008401521 -0.0034107403 -0.0057966476 0.003934294 -0.003933778 0.0030734506 0.0034473566 0.0010818099 -0.0028983406 -0.00017217187 0.003200366 0.000780578 0.0025595534 0.0010096197 -0.0033130853 -0.002982222 0.0036785842 -0.0033998883 0.0035634467 -0.004826296 0.0041149547 -0.0043295613 0.0013301971 0.0011441241 -0.0052128136 -0.0057095513 -0.0014107169 0.0054948167 -0.0024987976 -0.0035446596 -0.0012789224 -0.0027535637 0.00255644 -0.00012658595 0.003630149 0.0022373083 -0.0012310805 -0.0031732025 0.004636078 -0.0041971356 0.0050626826 -0.005822254 0.003767655 -0.0050225547 -0.0013322785 -0.0033266502 0.005455152 0.0010200816 -0.0038132377 0.0013568252 -0.0021378812 0.0034481853 0.0031116542 -0.0029792371 -0.0018370008 0.0049683666 0.0032260923 -0.002105589 0.0012746103 0.0053161 0.00061274087 -0.0060320618 0.004161926 -0.0005179133 -0.0006866503 -0.0020025931 0.00031773376 0.0022640587 -0.0044323737 0.0029843245 0.005582932 -0.0024745555 0.0011547562 0.0033711141 -0.0029175426 -0.0013256827 0.0016534443 0.0047314265 -0.00043869746 0.0062656184 -0.00044564062 0.0044833263 -0.00094978936 -0.00078998663
提出 0.003260965 0.0017392694 0.00089451496 -0.0019583006 0.0016519611 -0.00721152 -0.0021527128 0.001415255 0.001824094 0.0009549932 -0.0040336344 -0.0043639536 -0.0031865176 -0.0028793968 0.0019478479 -0.0026913804 -0.0045082597 -0.005362724 0.0036960132 0.0013767844 0.00015889558 -0.0034566792 -0.00015915732 -0.0015370431 -0.0028678009 0.0001316598 0.0012558206 -0.0051056407 -0.001988133 0.00045360095 -0.0028751346 0.0046907184 -0.0024802783 -0.0036335234 -0.00078059343 -0.001191903 -0.00078215817 -0.0043143746 0.0031562976 -0.0038495567 -0.0010118443 -0.002500379 0.0017771185 0.0014648066 0.00034178895 0.003995325 0.0038173136 -0.0042141285 -0.0013277213 -0.00339199 0.0033556707 -0.0018538935 0.0011599327 -0.00038723394 0.000582468 0.00221998 -0.0008014409 -0.0042203157 -0.0032580758 0.0024293347 0.002201919 -0.0040872954 0.0024858708 0.002817412 -0.0031702032 0.007193309 -0.004261235 -0.0014260792 0.0012634912 0.0022760928 -0.0031762426 0.0007918622 0.0048123235 0.004491917 0.0029631907 -0.0011784383 0.0023962588 0.002398843 0.0051049613 0.0022255562 -0.006114635 0.00047917393 -0.0011651228 -0.0055588004 -0.0031513066 -0.006185274 0.0031916688 0.0017315685 0.0032515756 -0.0031621933 -0.0040637874 -0.0050411774 -0.005796059 0.0044123805 0.0017359336 0.002060701 0.00030729015 -0.0033221138 -0.0019330975 0.0029484322
建设 0.0011969078 -0.0032390044 -0.00445342 -0.0019581104 -0.005715213 -0.0011321923 -0.0032322067 0.00010034966 0.004188297 -0.0018005811 0.005799311 -0.0041582235 0.0005780386 0.00012525987 -0.0020567337 -0.0015972877 0.0049081836 0.0010753969 -0.0016804703 -0.004455475 -0.0052075195 -0.0017894612 -0.0050077904 -0.002051036 0.0027706414 0.0020302392 -0.0037434753 -0.0019749128 -0.0036385623 0.003038616 -0.0036613033 -0.0012445578 0.0040447246 -0.0008603014 0.0048706583 0.0027936304 0.0017026578 0.0014051592 -0.0021916085 0.00066187227 0.0038316676 0.0017630083 0.004237144 0.0013261833 -0.004300126 0.0011385515 -0.0007246849 -0.004753615 -0.0011850893 0.0038699182 -0.003995447 0.0031304855 0.0020985808 0.0019848626 0.0060286187 0.003286038 0.003753183 0.0032400212 0.003630297 0.0026881215 -0.005231497 0.0035624532 0.0010481409 0.0018423931 -0.00477663 -0.0025815633 -0.0021253584 -0.0016939121 0.0037600952 0.0005690901 0.0019213945 0.000906337 0.0036748128 0.003144996 -0.00022497911 -0.003670054 -0.0033132464 -0.0035041568 0.002717553 -0.00063586864 -0.0010658081 0.004356681 0.0020331105 0.00020863685 0.0010902259 -0.0057216194 -0.00072019285 -0.0027316753 0.0049602855 0.0004010257 0.0019566393 -0.0068368344 -0.002831994 0.006252608 -0.00213711 0.0071549807 0.00134622 -0.001007769 -0.004197739 -0.0021046759
大数据 0.0003800275 -0.0028576392 -0.0014905583 0.0056744074 -5.1649437e-07 -0.0075258478 -0.0044097565 0.0043254085 0.0042359396 0.002390001 0.0036136217 0.00014685365 0.0054865214 0.0016735534 -0.001058099 -0.0014344585 0.0017955315 -0.0052855927 -0.006234664 0.0020919596 -0.0011670899 -0.0026090096 -0.0036080643 0.005840866 -0.0021104875 0.0033105183 0.00023479982 -0.00021853803 0.000931694 -0.0008028627 -0.0014853078 0.002442534 -0.0012100171 -0.003368001 -0.0034289078 -0.00028728036 -0.0022380594 -0.000805271 0.003589148 0.0045553357 -0.0044609094 -0.0045731473 -0.0012148193 0.004931047 -0.0044387206 0.0033196276 0.0026008103 0.0026405181 0.003159855 -0.0059386147 0.0015766816 0.000801214 0.0025269943 0.004517465 0.0036674284 -0.003769417 0.0051011224 0.00037827267 -0.003430882 -0.0017572585 0.002345629 -0.00081658317 0.0043932297 0.004603217 0.0036526108 0.0022456842 -0.0031398789 0.00015766536 -0.0017246716 0.0036591887 0.004401571 -0.0032340274 0.0026359442 0.006884704 -0.0045289053 0.0011474683 0.0012650299 0.002188341 -0.0022064275 -0.0011889986 0.00020292333 0.0013814464 -0.0013278646 -0.000575655 -0.00065882714 -0.0030739338 0.0066019497 -0.0025922293 0.001644414 0.0038835257 0.0027992886 -0.0013776056 0.00044800306 0.0043185926 0.0024008707 0.0072009703 0.0025271727 0.0013343566 -0.0009142738 0.002487301
技术 0.001551948 -0.00065078796 -0.0025799538 0.0036856874 0.00429483 -0.0064106425 -0.004045029 -0.002826636 0.0037550994 -0.0020269882 0.00024893892 -0.001692388 0.0027786484 -0.0047569573 -0.0021972435 0.0018960647 0.0034556203 -0.0023856345 -0.004920493 0.00028838846 -0.0010453836 0.00246572 0.001083972 0.0040866197 0.0020184824 -0.0034458241 0.005958487 -0.003117359 0.00083136297 0.00020335433 -0.0035698023 0.0033768201 -0.001956479 -0.0011746667 0.0066423523 -0.0015322805 0.00060377136 -0.004522251 -0.0054103327 0.004801717 -0.00035921254 -0.006347459 0.0031635459 0.001938744 0.0034929009 0.0027080402 0.0026244046 -0.0031086248 -0.0050855624 -0.0036585876 -0.002518514 -0.0018383655 0.004347504 -0.0023642252 0.0013083736 0.0019373795 0.003798772 0.002018936 -0.004711266 -0.0049835467 -0.0060803303 -0.001931448 0.0036350763 -0.00096059754 -0.005135139 0.004142242 -0.004671977 -0.0043029916 0.0013553197 0.0041304054 0.0010769451 -0.0021261184 0.0056242915 0.00095128454 0.004037028 -0.00054472487 0.002168001 -0.0022980717 0.0019526094 -0.0014409123 0.00078650535 -0.0026273588 -0.007879681 -0.0023034005 -0.005565537 -0.0019816782 0.0010309945 0.004863167 -0.0040659984 0.0003759669 0.003839018 -0.0025158317 0.0023858724 0.006012278 0.0013370917 0.0017482955 0.00010256988 -1.9371004e-05 -0.0049375645 0.001957221
工作 0.0023011074 -0.0016781611 0.002642681 0.0019365778 0.0034604373 0.0018827926 0.002700067 -0.00034873607 0.0014248049 -0.0019452138 0.0015515597 -0.00031873473 0.00030450334 -0.002429327 -0.0043668044 -0.0026713682 0.003944549 0.0014520097 -0.002544967 0.0010585535 -0.00547603 -0.00049220386 0.00446117 0.0017433619 -0.0020955086 0.0033495268 -0.004129549 0.0040862705 0.0006207024 0.0029047115 -0.0019963363 0.0020298336 -0.0003230108 -0.0031615538 0.0031713003 0.00021754604 6.205166e-05 0.0025431025 0.0028870995 0.0035698945 0.0012332179 -0.0043874723 0.0023957354 -0.0042979238 -0.0060775345 -0.001562971 -0.0012779704 0.002656197 -0.003373326 -0.0027902003 0.0011963102 0.0036402557 -0.0040108324 0.00038319392 0.0018342306 -0.0032045236 0.00383233 0.0015130467 0.0024732463 0.0013428672 0.000954864 -0.0036468434 -0.0033041637 -0.0022580137 0.004508941 0.0023149727 -0.0039627426 -0.002638213 0.0018740223 0.0024635706 0.005651229 0.0028105562 -0.0014556602 0.00027097744 -0.004139349 0.0004889275 -0.0047883764 0.00019268092 -0.0019613092 -0.000468943 -0.0065216743 0.0016566361 -0.0046206336 0.0046828478 0.004668668 -0.00021703166 0.0034398192 0.004830468 0.0032027941 4.060584e-05 -0.0014885706 0.000985189 0.0032257128 0.0016402677 -0.002399919 -0.00095139124 0.00022859903 -0.0041354587 -0.0040131416 -0.0018521837
开放数据 0.003733879 0.0017118804 0.002842519 0.0049305717 -0.0044012563 -0.0058076694 -0.001586793 -0.0018847145 0.00148448 0.0005107829 -0.00036634362 -0.004031796 -0.0027510566 -0.0033735533 -0.0022137088 -0.0050070025 -0.0048152437 0.0018318336 0.0009803071 0.0013149389 -0.0025969904 -0.005805449 0.0030768418 0.0048997537 -0.0027618762 0.004410609 -0.0023290568 -0.0048063286 -0.00020429882 0.00019826184 -0.0012469495 -0.003358812 0.0020779297 0.0034076818 0.00040208697 0.00011755497 -0.004373182 -0.00013387605 0.00047428164 0.0024464768 -0.0020622658 0.0025722599 0.0014000355 0.0038561434 -0.0038519672 0.0016726262 -0.0037549145 0.0019744372 0.004059794 -0.0034634375 0.00042741557 0.003461892 0.0006002024 0.0047106883 0.0055297534 -0.00088758 0.005031163 -0.0051985863 0.0044318503 -0.00024897698 0.0016435887 -0.005502007 0.0009471274 -0.0024395324 -0.0011417117 0.0034811692 -0.003917581 -0.0011301324 0.0023076977 0.0017993698 0.00027611287 -0.0050499947 0.003238313 0.005131302 0.0025754373 0.0022215373 -0.0031024152 -0.0009321159 0.0016120839 -0.000810155 -0.003203157 0.003876836 0.0016169662 0.002365461 -0.0055670715 -0.0002680585 0.0018193583 0.00231345 0.00230239 -0.0036662817 -0.0034831709 -0.004530894 -0.0040001525 0.0052504903 -0.0018058114 0.0011371555 0.00264325 -0.0020418277 -0.0023166141 0.0037642089
统一 5.0258182e-05 0.0009841508 -0.005851669 0.0021424023 -0.0029084496 0.0013845143 0.00035385275 -0.0028435763 0.00089904986 -0.0018702375 0.004498376 -0.006331955 0.003453876 0.0025243072 0.0026305628 -0.0006730609 0.0048184358 0.0038037072 -8.7101405e-05 -0.0034902336 -0.0048842183 -0.0028470752 0.0046222527 0.004164339 -0.003699768 0.0029411037 -0.003433552 0.0030410218 -0.00032226695 0.001778615 -0.0057904464 -0.0018410535 -0.0047538173 0.0029456464 0.0051199705 -0.0030932745 -0.0034113864 -0.0020576594 -0.0012886539 -0.0023946527 0.00385332 0.001141942 -0.0017151212 -0.00086934166 0.0007292185 0.00067615276 -0.0006152152 -0.0013104487 0.00045244867 0.0024755134 -0.0034471252 -0.004405047 -0.00072237646 -0.005279166 -0.0030024599 0.0045905598 0.00049317186 0.0012152622 0.0037388527 0.00052516756 -0.0048292433 0.0043450063 0.0031425531 -0.001205287 0.00088295614 0.00497316 -0.00492004 -0.00027062555 -0.0046681436 -0.0044337246 0.0061113713 8.83153e-05 -0.00091932336 -0.0006199386 -0.003094616 -0.00333956 -0.005224939 -0.000414039 -0.0046841553 0.0028583382 -0.0057072467 -0.0011436279 -0.0024148147 -0.0001622044 0.004702072 -0.00575358 0.0011006551 -0.0020399755 -0.00029313756 0.00084942696 0.0005339472 -0.005683982 -0.0033932624 0.0056145974 0.0014374924 0.0004717291 -0.0042075105 0.003659136 0.0008688013 0.0039493423
过程 0.00013428062 0.0045353267 -0.0033389188 -0.0017297647 -0.0025047755 -0.004138812 -0.0034243204 -0.005609322 0.0009735772 0.0010854059 0.0042584282 0.0004940443 -0.00033177456 -0.0034816812 -0.005490622 -0.0064668423 0.0026907192 0.0038042201 0.0037384431 -0.00026734915 -0.00223368 -0.0015953376 -0.005375113 -0.003281582 0.0023089447 -0.0024558662 0.00094716816 0.00051221706 0.00482639 -0.0007397513 -0.004463335 -0.0025066836 -0.0037597625 0.0029970794 -0.0035316863 0.0026650778 -0.002872079 -2.6469017e-05 -0.0030563374 -0.0039699106 0.001303231 -0.0045294 -0.0035852669 0.0031052758 -0.0056485804 -0.0026763359 0.00500841 0.0036049525 -0.0030183012 -0.003101344 -0.00030581892 -0.003361299 -0.0045010843 0.0048699025 0.0018074303 0.00022437888 0.0028797279 0.001947008 0.003845121 0.00136467 -0.0041891066 -0.005360983 0.005999215 -0.0027124889 -0.00043443817 0.0061588297 0.004530392 0.0039368677 0.0006745732 0.0014470503 -0.0019832414 0.0047958246 -0.0008413736 0.004212046 -0.0029263068 -0.0015857567 0.0018501583 -0.0033019602 -0.0015138664 0.0034319444 -0.006256997 -8.652874e-05 -0.0039236494 -0.0010942367 0.0039180554 0.0009584437 0.0001329087 0.005530203 0.0021032798 -0.003942323 0.0015441943 -0.0063787117 -6.442875e-05 0.00654919 0.0006843396 0.002125848 -0.001086634 -0.005081889 0.0031992546 0.0040053492
推动 0.0027156726 -0.0031601123 -0.006279715 0.0010496784 -0.0022758562 0.00030472068 -0.0034041388 0.0035944916 -0.003665711 0.0045825727 0.0011754548 -0.0054507614 -0.0033512842 -0.00070452003 -0.00045670397 -9.513656e-06 -0.0017237533 -0.00041094123 -8.7081105e-05 -0.0049565025 0.0029097847 0.00045340235 0.0039144037 0.004325372 0.00079556287 0.0034992949 0.0036899948 -0.005013657 0.0013937032 -0.0042342097 0.0010897181 -0.00039487553 0.0027378106 -0.0006115054 -0.00048120055 -0.00012364122 -0.0030283274 0.0009436386 -0.005175426 -0.0041525112 -0.0024248674 -0.0023085475 0.0037124506 0.004577735 0.0030996134 0.0013330701 0.0031341934 -0.00090396614 0.0035558513 -0.0039650407 -0.0015322214 -0.0027382288 0.00324355 0.0035245225 0.0055474574 0.0026934666 0.0024361238 0.0023793757 0.0028577975 0.003502197 0.0025068133 -0.0009975819 0.0043375506 0.0038212356 -0.0051811775 0.0052809715 0.0025658878 0.0023452316 -0.0038325714 -0.0037281655 0.00263974 0.0021375949 0.00066223217 -0.0018708248 -0.00554539 0.0033820937 0.004275806 0.003971124 0.003055674 0.0045404355 -0.0039534415 -0.0036991725 -0.0014374921 -0.005102168 0.0033642494 -0.004755735 0.005941504 -0.0020717548 -0.0031752628 0.0016848522 -0.0027937882 -0.0031417946 -0.00023973199 0.00030094615 -0.0028600993 -0.0003807564 0.0014720865 -0.0008620924 -0.00043292617 -0.0022547573
社会 0.00469616 0.0033688853 -0.004918243 0.0050444817 0.0027516107 0.00031470662 0.001891276 -0.0010231253 0.0046004592 -0.0015672048 0.0008985485 -0.0033512637 0.0025441616 -0.0010183019 -0.0053218566 -0.0007718539 -0.0003091128 -0.0033906298 0.0011145262 -0.00078479195 -0.004648533 -0.0055056764 0.0016715168 0.0016297091 0.0023800232 0.00256982 -0.0017953943 -0.0019798107 0.005360639 -0.0044261813 -0.002970844 -0.0018913475 -0.0031570578 -0.0028809118 0.0012243715 -0.0014029949 -0.0010589166 -0.0018687572 0.0020877 -0.0015770791 -0.005006771 -0.0009356202 -0.0033656014 0.0023483622 -0.0018342291 -0.003035424 0.0031276126 0.0032180545 0.002847319 4.518271e-05 -0.0001742576 -0.0033995556 0.004289693 0.0007732902 0.00013074011 -0.0028970798 -0.0024370153 -0.004762621 0.004171068 0.005281647 0.0035083143 0.0038935824 0.0016683368 0.0017511391 0.00026314685 0.0050192783 0.003181857 -0.0029869946 -0.0051986706 0.0026986604 0.0027417364 -0.0023535178 0.0021492513 0.006858262 -0.0037362785 0.0019672455 0.0024085594 -0.005179279 0.00029183167 -0.0030838083 -0.0033501103 -0.0030837744 -0.004468884 0.0005367198 0.0026409454 -0.0060585183 0.0017043696 0.0054222234 0.00048883294 -0.0024401508 -0.0018071082 0.000106875515 0.0006855669 0.0065725856 -0.0027072467 0.0061359094 0.00212918 0.0018569845 0.002061631 0.00028691514
英国 -0.00072353403 -0.0050184787 -0.00457454 0.0031708498 0.004554672 0.0013902035 0.0032666612 0.0036537538 -0.0009910159 -0.0017164454 0.0025460245 -0.0058816513 -0.0035069922 -0.0010026364 -0.005147693 -0.0051985467 -0.0025902102 0.0011921248 0.0026576864 -0.0032403604 -0.004774693 -0.0040538707 0.000117906595 0.0021094116 0.0043980074 0.0009958148 -0.0034307595 0.0038599027 0.0024207085 -0.001956621 -0.00045186654 0.0031835584 -0.004913255 0.0038936902 -0.0015623568 -0.0032989809 -0.0040088873 0.0022647635 -0.0044181785 -0.0007348764 -0.0047681998 0.0011151151 0.0035266858 -0.0024622052 -0.00063214486 -0.0018356335 -0.004008483 0.0004009475 0.0025571734 -0.00595053 -0.0019660376 0.0024657 0.0009937437 0.0026997777 -0.00321967 0.004292498 0.0011600759 0.0013191147 -0.0003924917 0.0041216956 0.0042677973 -0.005448831 -0.0026130434 -0.0019639672 0.0046378947 0.0020574182 -0.00045976686 0.003238694 -0.002390727 -0.004276902 -0.0013265458 0.00046849507 0.0010884326 0.0017825342 0.0041863443 -0.0042136726 -0.0034876373 -0.005472141 -0.0038046862 0.0010870972 -0.005919993 0.0017967131 -0.00046084245 0.0016073918 -0.00031925697 -0.0041226447 0.0032701676 0.00026967318 -0.0019278681 0.004254967 -0.0017525847 0.00045456496 0.0003218285 0.00020762494 -0.0035084188 0.00301468 -0.0021641743 0.0013242569 0.0011980969 -0.0030218048
利用 0.0012452152 0.004608288 -0.00568965 -0.0020100155 -0.005523594 -0.0066157063 0.00033616746 -0.0009387287 -0.000307952 0.00019687577 0.0017421704 -0.0037317753 -0.0010536651 0.0022338033 0.0016426587 -0.004837452 -0.0015742361 -0.004558125 -0.004620764 0.0037449521 -0.006094212 0.0027589344 -0.0014179772 -0.0033061164 -0.0055182697 0.0055344687 0.0016961456 0.0013308597 0.004097573 0.0015688548 -0.0058691637 -0.0025780462 -0.0031927424 -0.0025434117 0.0028737525 -0.0026935241 0.004144972 0.00076957844 0.0007303011 0.0030658736 0.0021632942 0.0011231743 -0.00153556 0.004987903 -0.0066569378 -0.0032729849 -0.00030952366 -0.00402049 0.004508444 -0.0029559766 8.978612e-05 -0.0028892267 -0.0014788939 0.00093947107 -0.00045401856 -0.0035696449 -0.0020713736 -0.0057974514 -6.5214204e-05 0.0003851426 -0.0011280422 0.0014836228 -0.00082901824 -0.0035130917 -0.00050920685 -0.00043742644 0.003783923 -0.0027273349 0.0011795376 -0.0016188044 0.0067423955 -0.0035284169 0.0044364943 0.0060550314 0.003091762 -0.0019803296 0.0036078251 0.0012084877 -0.0018495881 -0.004268785 -0.0025875273 -0.0002678763 -0.0010878376 -0.00019786805 0.0009956761 -0.000757466 0.0026499226 -0.0034230964 0.0044536726 -0.0026476146 0.0013950155 -0.003724474 0.0032904875 0.0004589814 0.0010760133 -0.0010408115 0.0021911815 0.00060440355 -0.0051492923 -0.00044406782
分析 0.0024392637 0.0018803227 -0.005748355 -0.0014403882 0.0021001638 -0.0043431916 -0.0021116734 -0.0023095342 0.002155731 0.005015547 -0.0037912352 0.0003066207 0.0017578955 -8.919353e-05 -0.0038586431 0.0003687121 5.996298e-05 -0.0020883186 0.002117845 0.00392841 -0.0060949693 0.00050583074 0.0038049943 0.0034623859 -0.0029659567 0.0018369011 0.0021381518 0.0030209778 -0.0036227608 0.003038926 -0.004444078 -0.0010698268 0.0014844456 -0.0012892309 0.004769025 -0.003710412 -0.00056318863 0.0027171262 0.0045039128 -0.0030766574 -0.0037052445 -0.0052826945 0.005133529 -0.00089966855 0.0008014332 -0.0023597605 0.0011604812 0.002998843 0.003201335 -0.0024729334 -0.0045824703 -0.0005559209 -0.00343109 0.0024244543 0.0048245667 0.00036957162 -0.003130617 0.0030466933 -0.0017138324 0.0037668576 0.0006113163 -0.0017570689 0.0010576425 0.005925241 0.0043920605 -0.0004631448 -0.0044869008 0.0007386063 0.002373568 -0.004213194 0.00046837714 -0.0021217836 -0.0022781468 -0.0002940206 0.004347095 -0.0039791856 -0.0026848542 -0.0014350832 -0.0041405456 -0.0029351446 0.00015968054 0.003836289 -0.0010366497 0.004155521 0.0016826265 -0.0010198668 -0.0017301423 0.00019150625 -0.0010390447 0.0007454468 0.004291762 0.00019318334 -0.005663715 -0.0026669675 -0.0002263689 0.0057154708 0.003186279 0.00088751287 -0.0012313905 -0.0017036452
美国 0.0029565517 0.0031411515 4.39963e-05 -0.003298556 -0.0037915495 -0.0036258246 0.004341817 -0.005220204 0.0022616948 0.004773647 0.0017981112 0.0020227192 -0.0003472082 -0.0014300104 -0.0020726928 0.003002311 -0.003787435 -0.0034863744 -0.0045521175 -0.0018519219 -0.00026370145 0.0017506699 -0.00012585166 -0.00024505175 -0.0022638547 -0.0022742348 1.4532078e-05 0.0038383843 -0.003645672 -0.004442939 -0.00041288577 -0.0024962125 0.00019939462 -0.0045758085 -0.0021387024 -0.0034111252 0.0035280657 -0.0019619595 -0.003692837 -0.0011268683 0.003345867 -0.004436543 0.0034847567 -0.0012938746 0.0016731366 -0.003033416 0.0009858299 -0.001438394 0.0049081855 0.0011249977 -0.0025597448 0.0005098794 0.00038566216 0.0010020948 -0.00072452164 0.004120115 -0.0012498208 -0.0031503206 -0.00014160525 -0.0020303305 0.0041236263 -0.0029827596 -0.0041240663 0.0019078464 -0.002818782 0.0014293969 -0.0030980916 0.00080488285 0.00028908357 -0.0009317565 -0.002850433 -0.0016062601 0.003426863 0.006226337 -0.0055183615 -0.0010666167 -0.0011373642 -0.0018536443 5.871086e-05 -0.002440632 -0.0040382794 -0.0042415992 -0.0058085117 -0.0032887615 0.0036911299 -0.00444976 0.0012567337 0.0007302624 -0.002328933 -0.0023888967 -0.0006976089 -0.0053489204 -0.0008773444 0.0019982683 -0.0056259935 -6.190619e-05 0.00063858775 -0.00049416116 0.0008123821 0.0043309685
提供 0.0034334483 0.0009987337 -0.0018355098 0.0006602384 -0.0023122185 -0.0022821317 0.0043860856 -0.005405905 0.0010127913 0.0025119514 0.0020749236 0.0028466368 -0.0010408425 -0.0004775915 0.0024683056 -0.0036128392 -0.0036572271 -0.0060614585 -0.005136852 0.0018790797 -0.0017829135 0.0030421333 0.0043826904 -0.0023700788 -0.0052868756 0.002021127 -0.0028181328 -0.0037542363 0.00055253884 -0.0015803186 0.0020557854 0.0020595342 -0.0020228622 0.002233062 0.0021673883 -0.0032556662 0.00086947647 0.0013358921 -0.0038541127 0.0029162832 0.0019707114 -0.0010622178 0.0034486973 0.002605405 0.00037416184 0.00066269585 -0.003596303 0.00062332273 -0.0053918078 -0.0052124485 0.0019720993 0.0011793845 0.00414104 -0.0028317333 0.0003131831 -0.00462326 0.006193792 0.0012368009 0.0040517338 -0.004034185 -0.0037200125 0.0046548042 0.00586673 -0.002626694 -0.00097416126 0.005873795 0.004278887 6.8677924e-05 -0.0029598668 0.0020241889 0.0051969993 -0.00011104071 0.004951601 -0.00078627607 -0.00010990675 0.0025158867 -0.0036719732 0.00034915598 -0.0003966999 -0.0035920744 0.0017148292 -0.0015887342 -0.0067957146 -0.0036021767 0.001997443 0.0036872574 0.006356464 0.0042851698 0.005003182 0.0022425533 -0.0018890896 0.0031290927 -0.006049205 0.0037951912 -0.004438628 0.00578184 0.0016519008 -0.0048746965 0.0030273905 0.0013491767
标准 -0.0042142677 0.0016539932 -0.0044561396 0.0056949435 -0.0006890434 -0.0044967793 0.003644162 0.0023736032 0.0030087375 0.0017408595 -0.00038690382 -0.00425981 0.0017378128 0.004490787 0.0023398625 0.0020541106 -0.0005077689 0.0005822291 -0.0048095235 -0.002094045 -0.0061669815 -0.0006821331 -0.004438322 -0.0029476366 0.00092204596 -0.002555849 0.0005531754 -0.0038557674 -0.0013706143 -0.0002078661 -0.0012171121 -0.0022663027 0.004670607 0.0019285893 0.002785429 0.0030147326 -0.0051708757 -0.004619287 0.0010246506 0.0031991797 -0.0030261218 -0.0062039765 0.00202364 -0.0007793844 -0.006232616 -0.0047677695 -0.0007435019 0.0031589575 0.0028316285 -0.001148736 0.0016476769 -0.0047160485 0.0036954633 0.0035993645 0.0027663547 0.004217401 -0.0011319224 -0.0035723113 -0.005432954 0.0013008084 0.0014729579 0.001686455 -0.00064564485 0.0056095356 -0.004040827 0.00030068564 -0.0046839723 -0.0045700464 -0.001380403 0.001371985 0.0016913351 0.003000511 0.004867581 0.0032541156 -0.004715901 0.0013216981 0.0038028446 0.0017074283 -0.0046886834 -0.0032802785 -0.0046918155 0.0051331744 0.0009523227 -0.0021462445 0.0028408924 -0.0031650371 -0.0015131125 0.0043309396 0.001943428 0.002392141 0.005291753 -0.0039548515 -0.0025449689 0.0064360136 0.0043831556 0.0056761615 -0.0012433258 0.0006122529 0.003242852 0.0044635492
缺乏 0.0016124093 0.0037567646 -0.0011748718 0.0016697561 -0.00548323 -0.0043311263 -0.0037841175 -0.005396894 0.0038802344 -0.004046638 0.0010095444 0.0006269421 0.0020991515 0.0013207637 -0.00033041486 0.002041945 -0.0043885866 -0.0031413871 -0.0053579365 -0.0009882721 -0.0064745955 -0.0060404893 -0.00026124806 0.005160913 -0.0039547286 0.0018240826 -4.5401117e-05 -0.0045873756 0.004668637 0.0023110516 -0.005648799 0.002051285 0.004464069 8.3638726e-05 -7.425295e-06 -0.003744145 0.0036080433 0.0025526087 0.0012337957 -0.0035669948 0.00096889975 0.002966187 -0.00083943387 0.004950921 -0.003916362 -0.0009139693 0.0031091424 0.0051838546 -0.0008385487 -0.005210869 -0.00058342394 -0.004426564 -7.71326e-05 -0.0034720101 -0.0040882113 -0.0052594957 -0.002164714 0.004229787 0.0017161331 0.002661819 -0.0028734508 0.002958595 0.0017291846 0.0038458672 -0.00227852 -0.0031604422 -0.0017980973 -0.0026080732 -0.0059806644 0.002088701 0.006485817 0.0033227107 -0.0039425585 0.0038920904 -0.004293709 0.0059421193 0.0030459254 4.5283712e-05 -0.0026026599 -0.0019092025 -0.0022065013 0.005609226 -0.0010924961 -0.0019020493 -0.0035720232 0.0007687473 -0.0031595612 0.0010381249 -0.0021759183 0.0031090137 0.0021137763 -0.0016816969 -0.0036741816 0.0012587027 -0.003663908 0.0017591945 0.0034107575 0.0020493718 -0.0049364446 -0.0012977814
保护 0.0010642627 0.0019868705 0.0028756338 0.0038239534 -0.0008245359 -0.0055699465 0.00013711872 0.0029425696 0.0014678751 0.0039143655 -0.0030173338 0.0011158377 0.0028754808 -0.0030468178 -0.0041295434 -0.0029857247 -0.0032084626 -0.003190852 0.0035367708 -0.0004437252 -0.006619696 -0.004450904 -0.0018096596 0.005612305 -0.0021284446 0.004557214 0.00076153025 -0.0037124653 0.0019091378 0.0040474115 -0.0030526496 0.0006796595 0.004618654 -0.0022990403 -0.0017831528 0.002051811 -0.0017911207 -0.0035979284 0.0040097577 -0.0006199151 0.001343362 0.0013161222 0.0048663 -0.002370321 -0.0034858712 0.0026911187 -0.0034000836 -0.002027067 0.0030433477 0.00040080797 0.0001215466 -0.005812821 -0.0036925043 0.004066434 0.005465875 -0.0012028455 0.0032701055 0.0008607392 -0.0039020334 0.005308509 -0.0011689144 -0.001562908 0.003152576 0.004104536 0.0007124693 -0.002510388 0.004193249 -0.0009642018 0.0025815123 -0.0026664047 -0.0020851898 -0.0044491794 0.0057727094 0.0061868257 -0.00025564103 0.001014826 -0.0012144628 -0.0055730976 0.0002364169 0.0036939147 -0.006200912 -0.0013958303 -0.0047936095 -0.0033211815 0.003131609 -0.0064441105 0.0010568086 0.0014801654 0.0035153194 0.0016347143 -0.00039267298 -0.0025293392 -0.0020564245 0.004430878 0.0020481052 0.0048278724 0.0016228757 0.004625824 -0.0047348137 -0.0014944384
服务 0.0019904224 -0.0027116162 -0.0010212583 0.006181007 -0.0014294364 -0.0010738667 -0.002019757 0.0025947304 0.004903104 -0.00033745487 -0.0011471238 -0.00011368613 0.0049303137 0.001430704 0.00047038865 -0.0051212194 0.0006543127 -0.0015884526 -0.0038924555 0.00015267343 -0.0047311294 -0.005298409 0.0037570756 -0.0035061685 -0.0025420361 -0.002353622 -0.002935532 -0.004750335 -0.003578369 0.0030153443 0.003058148 -0.0016122132 0.00047125804 -0.001158585 0.0031030732 7.637396e-05 -0.005392097 0.0032702177 -0.0048960815 0.0054501565 -0.004608097 -0.001712127 0.0025866735 0.0015741633 0.0009678564 0.003939691 0.0039990717 0.00044438476 0.00096388464 -0.0028775732 0.00071154075 -0.00051677553 -0.002088339 0.0023643167 0.001412229 -0.0035541086 -0.0016085167 -0.0007666776 0.0021575303 -0.0048246947 -0.0013825431 0.0014909721 -0.00045919194 -0.0008689072 0.0036265727 0.001026258 0.0037934324 0.0015612802 -0.0049746004 -0.0047236886 0.0066120895 -0.004742842 0.0024163097 0.0046388237 0.0020730302 -0.0020622818 0.0017133519 -0.004894485 -0.0020715091 0.0019804994 0.0012940629 0.0013295482 0.0020222696 -0.0054067257 0.0044484506 -0.005516123 0.005047899 0.0032597247 -0.0024696344 0.0034389014 0.0040698787 0.0027931759 0.0003622748 0.005133951 0.002908131 0.0071799504 -8.4650725e-05 0.001978907 -0.0047900593 0.0065072672
组织 0.0013276427 -0.0009359427 -0.0010861567 0.0035020816 0.004436894 0.0011466428 -0.0020620374 -0.005386686 0.0018388224 0.005353298 -0.0034116157 -0.0017017457 0.0013520009 0.0016927132 0.0031942273 -0.004314329 -0.002916992 0.0009205876 -0.0033136408 0.0007874867 -0.000102316706 -0.005909759 0.004191262 0.0023996374 -0.0053028725 -0.0014400551 0.0012889347 0.0017761448 -0.0040942114 0.0033611641 0.00039015466 0.0055912733 0.0009604731 -0.005422344 -0.0005325079 -0.0048781536 0.002732163 -4.1422445e-05 0.0025895822 -0.0023763736 0.004026009 0.0021472578 0.00095071323 0.0054476643 -0.0038124304 0.0027371896 0.0011629913 0.0005250789 -0.00073024264 -0.0010936102 -0.00074370776 0.0031241998 -0.0019561823 -0.0034057035 -0.0023514023 -0.0007492026 -0.0013859099 0.002209132 0.0044078385 0.003945278 0.00089517963 0.0017078082 0.004678093 0.005389916 -0.0030343093 -0.00061259244 -0.002690942 0.00039592994 0.0037376517 0.000746203 0.0010271351 0.0011775183 -0.0010054721 0.0011917552 0.0027140873 0.002001204 0.003862559 0.003736764 0.00478171 -0.00041000947 -0.0017353874 0.0039411075 -0.001996583 0.0018016195 -0.0029558595 -0.0059004994 0.0031469748 0.00015080633 0.0046160407 0.0054535335 0.0005884743 -0.0016735937 0.0037581522 0.0008773828 0.0036465905 -6.806278e-05 -0.0047537247 0.0030672122 0.0044755386 0.0052478234
带来 0.0030753552 0.0026724513 -0.000936058 0.0007328797 0.0048055868 -0.0034411582 -0.0013723846 -0.0042176764 0.003060628 0.0018693056 0.0051479624 -0.0025418776 -0.004324252 0.0024138824 -0.006027235 -0.0027997536 -0.0043338416 0.0005951755 -0.00580791 0.0015996324 0.0028258655 -0.004785495 -0.0018601599 0.0057286303 -0.0005479133 -0.003458301 0.00014551119 0.0018944835 -0.0034998818 0.0002986824 -0.0034200326 0.00070714037 -0.0011029907 0.001840101 -0.0018301058 -0.003217472 0.0030268065 -0.0020993475 0.0034319814 0.003299586 -0.0041455696 -0.006533516 0.0023836442 0.00011195164 -0.0038024103 -0.0026512276 0.0051138136 -0.0035893545 -0.0026305846 -0.0010731841 -0.0014152807 -0.0034380541 -0.001876105 0.004467485 0.0005093722 0.0043469435 -0.0039491407 -0.0009710742 0.0024189705 -0.0020718921 0.00083650555 -0.003874798 -0.00017388091 -0.000787123 -0.0030446143 0.006188933 -0.0015935588 0.004832428 0.0029816404 0.0005466414 0.0014686333 0.0009008228 0.0014284773 0.001762379 0.0037452714 0.004221505 -0.0024353687 -0.004372911 0.0055213855 0.0014433085 0.003024085 -0.0003508358 -0.0036861075 -0.0031496992 0.0031172393 -7.293685e-05 0.005679397 -8.045359e-05 0.005361151 0.00013917875 0.0018937289 0.0008374025 0.0007928965 -0.0032490618 -0.004956552 0.0012578276 -0.0022283185 -0.003914032 0.0006917748 0.0028962009
提高 0.0026120436 -0.0023617682 -0.005098252 0.005502212 -0.00022339086 -0.006296798 -0.0021373406 0.0030191261 0.0037031614 -0.0037902445 -0.00070877763 -0.004672146 0.0025567997 0.00013228394 -0.0036887296 0.0025934218 -0.0049732006 0.0025730922 -0.00036385676 0.00073112914 0.0006709467 -0.00391375 -0.001970713 0.0025642083 -0.0036663935 0.004953836 0.0013324668 -0.0047971536 0.0007715346 0.00091174437 -0.0056450544 -0.0030250747 -0.005017189 -0.0033584891 -0.0031988365 -0.00082112546 -0.003815382 -0.001235426 -0.0028392125 0.0029172406 -0.0009822854 -0.005791984 -0.00044367448 0.00088111724 -0.006155296 -0.0012905769 0.0009856111 -1.6409758e-05 -0.003594336 -0.0013256689 0.0013952281 0.00074799225 0.0005670603 -0.0052223373 -0.0027191315 0.0039058481 0.004741033 0.0011743574 -0.002253865 -0.00427209 0.0030830058 0.0015107944 -0.003902061 -0.00045364365 -0.005590338 -0.0014214303 0.002092302 0.0034151848 -0.0009879473 -0.0042922716 0.0047257757 0.001940497 0.0037299546 0.003968035 -0.002939054 -0.0035388381 -0.00065855315 -0.004571693 0.00059922604 -0.0018466417 0.0026184486 -0.0024429057 0.0028495444 -0.0037483852 -0.0043560527 -0.00057636795 0.0010697505 0.004176089 0.0017307126 -0.0015719405 0.0015286708 -0.0058769253 -0.0018113863 0.0046667093 -0.002958075 0.0052109663 0.0017132476 0.0031040285 0.0050739264 -0.0015090499
数据安全 -0.004793487 -0.001434335 -0.0060965093 0.006367054 -0.0032277931 -0.0031707494 -0.0032499707 0.0009875045 0.0010462187 0.0026309788 0.0017007035 0.002025566 -0.0022793824 0.0045981593 -9.4335825e-05 -0.0041054166 0.003572617 0.0019066278 0.0030130087 -0.0018699969 0.0029921748 -0.006025309 0.002518662 0.004935356 0.003711896 0.0054739215 -0.00090693723 -0.0049419887 0.0038443762 9.944032e-05 0.001989859 0.00061542925 -0.0045159585 0.00077839324 -0.0014793465 -0.0014745597 0.0026014156 0.00011022852 0.0014232647 -0.0036094908 -0.001660931 -0.0020782186 -0.0021425576 -0.0045557856 -0.0056630224 -0.002207108 -0.0003138767 -0.002779754 -0.0010121341 -0.0013399856 -0.0016758528 -0.0016120264 -0.003376604 -0.0015903085 0.0055638812 -0.005129868 0.0042269393 -0.0032626288 -1.9361619e-06 0.0031823365 -0.005554028 0.0011729702 0.004802516 -0.0036724117 -0.0049730735 0.0036570127 0.00032203872 -0.00035478608 -0.0032780082 0.002784589 0.0057380875 -0.001346367 -0.00023871014 -0.0022271585 0.0039330404 0.0042588273 -0.0032169186 -0.0018295966 1.7812943e-05 0.0040989993 0.001183005 -0.0031998642 -0.0022400587 0.0033945402 0.0031144382 0.00304109 -0.002314165 -0.003439295 0.0048761033 0.00257849 0.00078794715 0.0026273828 -0.0029769873 -0.0027260275 0.0044377996 0.0036567592 0.0038163066 -0.002888451 0.0006430119 -0.0025541536
政务 0.0024495313 -0.0020409124 0.0011904024 -0.00037490355 0.00062319054 -0.0020918963 -0.004290722 0.004286252 -0.0005389497 0.0015802245 -0.003647641 0.00014593663 -0.0032249186 0.00097167265 0.003378632 0.00021874259 0.0026458586 -0.0034449284 -0.0028493009 -0.0002707155 -0.0034417307 0.0041741957 0.004185708 0.0036150636 -0.0011281505 0.005924819 0.0027440535 0.00017072509 -0.0029238733 0.0028307955 -0.0026894598 0.005354448 0.003613824 0.004461368 0.003951608 -0.00059520383 -0.0010763565 0.003069972 -0.0035285007 -0.0006562555 -0.0030228414 -0.0047405805 0.0048250174 0.0033579892 -0.00569807 0.004824997 -0.0036071395 0.004838137 -0.0015045604 -0.0042050043 -0.005853118 -0.0018544557 -0.0003153257 0.0026571979 -0.0014949495 -0.0011737607 -0.0040811426 -0.0037053039 -0.0002944002 -0.00010252281 -0.0022715654 0.002920133 0.0051541054 -0.0014876027 0.0043534036 0.006809235 0.00090506533 0.0004414957 0.0005737686 0.002879021 0.006092379 0.0052078776 -0.0008553134 -0.0014371364 0.0019517821 -0.0012087562 0.0014883098 -0.00576591 0.0006594149 0.002087785 -0.0008999913 0.005517415 -0.0006562391 -0.0037202032 0.003848439 -0.00024871188 -0.0030446644 -0.00028425662 -0.0026076473 0.0053951615 0.0022471624 0.0012509677 -0.0030909749 0.0013731542 -0.0036285247 0.004528251 -1.23431955e-05 -0.0016448704 -0.0037838274 0.0045448816
计算机网络 7.677863e-05 -0.0032429667 -0.006653886 0.0043985234 -0.00028616018 0.0023293484 -0.004629387 -0.0029560311 -0.0022983414 0.005810085 -0.004303348 0.0017476303 -0.00087555393 0.002631236 0.00059625757 -0.0065002707 0.0009458765 -0.0059740907 -0.0039382656 -0.003205692 -0.0040699067 -0.002908288 0.0010700582 0.002096536 -0.002675671 0.0029025134 -0.0008204988 0.0011664606 0.0009745833 0.004886301 -0.00056262 -0.00014487709 -0.0045815534 -0.0017992229 0.0049451436 0.0020369638 -0.0031653505 -0.002536551 -0.0052140667 0.00476859 -5.743988e-05 -0.0010442899 0.0036704377 -0.002942812 0.0030088888 0.0011067861 -0.00327731 -0.0033973954 0.003393811 -0.00328166 -0.00030501216 0.002315563 -0.0011948337 -0.0020799427 0.00035583964 0.0045066243 0.00015852677 -0.0035805218 -0.0053541083 0.00091117923 0.002279218 -0.004556083 0.004944369 0.0012636232 -0.00095022627 0.0017189004 -0.0029806218 -0.0017539788 0.0020315466 0.0030709566 -0.0018591663 0.003164704 -0.00044849463 -0.0001542977 0.0014862145 -0.0016771666 -0.0038020648 0.0024743616 -0.0006429597 -0.0039157737 -0.0068824757 -0.0021710945 -0.0033386073 -0.00020172147 0.004318368 -0.0010404048 0.0005584461 -0.0006462509 -0.0022861958 -0.0036465302 -0.002517218 0.001270423 -0.0062811757 -0.002171618 -0.0051512397 0.0008336407 -0.0004446332 0.002802327 0.0009361065 -0.0016447202
方式 0.0033138515 0.0015306851 -0.0035715783 0.0040112967 -0.00046215538 -0.0067584235 0.0054119374 0.0038510913 0.00492097 -0.0020953885 0.0035404637 -0.005913518 -0.0009333857 0.0006423506 0.0011162551 -0.0002491515 -0.0038689773 -0.00029563336 0.0018483078 0.0033747123 -0.0026766632 -0.0048034065 0.0025238872 -0.002957064 0.0036340775 -0.0030669798 -0.0004364975 -0.004054198 0.0058766482 -0.003345216 -0.0058744918 0.003914764 0.004446357 -0.004451868 -0.0013571365 -0.0004385227 -0.0039878944 -0.0045751166 -0.002160983 0.00046329416 0.0016406698 0.0033427926 -0.0046220478 -0.0016430282 -0.003315188 0.0010451393 0.0014630423 0.00509012 0.0017410596 -0.0026798197 -0.0013476604 -0.0057361475 -0.0040143062 -0.0022169962 0.00010622654 -0.0035494806 0.006119147 -0.0027558075 -0.0023376364 -0.0014012508 0.00097643834 -0.0022680152 0.00036542013 0.004375904 0.002898655 0.0068672956 -0.00058919645 -0.0043743043 0.0030611523 -0.0016167528 0.0013047212 -0.00015323979 0.0014169047 0.0044304044 -0.0049306285 0.00078049354 -0.0045444625 -0.003990576 0.001647368 0.004548423 -0.0053858827 -0.0038883237 -0.002729944 0.00050882506 -0.0048511173 0.003322134 -0.0014334056 -0.00058711524 0.0018513495 -7.2443756e-05 -0.00011955609 -0.003391351 -0.004576733 0.0025608456 -0.002311264 0.005493022 0.0025260497 -0.0008052751 -0.0036019806 0.0014797886
完善 0.0019501527 0.00083205325 0.0010208084 0.0036814916 0.0005478528 -0.0041539012 -0.0005533119 -0.0054765632 -0.0017679355 0.0035993569 -0.0011922433 0.0037660683 0.0005194643 -0.0014186748 -0.0057728915 -0.0038712774 0.003756136 0.0019820048 0.0013255185 -0.00048652018 -0.0013675842 -0.0048866444 -0.0046171304 -0.0022491305 -0.0011961361 0.003061924 0.0048369006 -0.0011891135 0.0050898534 -0.0036349134 -0.0015507061 0.001265179 -0.00021540193 -0.004875869 0.0027017747 -0.0012604471 -0.0034750819 0.0015270531 -0.00072250684 -0.0045029633 -0.0029438306 -0.0023335959 0.0021547389 0.0023028653 -0.0032791784 0.0035932802 0.0015379338 -0.0031038814 0.0022000798 0.0009365118 -0.0047876406 -0.0029546465 -0.0039950283 0.0044411654 -0.004006167 0.0039877445 -0.0023390492 -0.003310306 -0.0019267775 0.00024408518 -0.0023990145 0.0034762041 0.0009340805 -0.003582238 0.0034041593 0.0008967495 0.00084331376 0.004008366 0.0008543221 0.00029897146 0.005232521 0.002566432 0.0036168718 0.003085391 0.0007049147 -0.0010995938 -0.003194981 -0.005577672 0.0033071167 0.0046996945 -0.0059925723 0.00049144356 -0.004943577 0.0010170569 -0.0023107564 -0.0054322192 -0.004270685 -0.0018118444 0.0039587226 0.0051188576 -0.002803996 -0.0004908066 0.00261828 -0.0002609114 -0.004684709 -0.003403408 0.004066432 0.0028686076 0.0015206607 7.28325e-05
提升 -0.0024512974 0.0013161016 0.0015945681 -0.004144602 -0.0029616426 -0.0033663053 0.0054434617 0.0046813623 0.00399484 0.0011189308 -0.0010911039 0.0024018544 -0.004230259 -0.002190631 -0.001470107 -0.0032390924 0.0025745444 0.0019133226 -0.0036887918 -0.0016222643 -0.006168747 0.00093727116 0.0013150619 0.0034432795 -0.0029723884 0.0018762165 -0.002441155 -0.0051670102 0.003472252 0.00035047432 -0.0012737374 -0.0042744614 0.0030416462 0.0011128137 0.002782643 -0.002169914 0.00011119644 -0.001221794 -0.0014592042 0.00223416 -0.0024705243 -0.0031073042 0.0001204814 -0.0047723628 -0.0034619607 -0.0011758528 -0.001538291 0.0045544435 0.003824452 -0.0050080423 -0.0043841163 -0.0030249567 -0.002311917 0.004664784 0.00040162043 0.00018656134 -0.0002676752 -0.000729693 -0.0006984629 -0.0036775675 -0.0008288832 -0.004645179 0.0058722314 0.00015200068 -0.004837569 0.0031292757 -0.0023913365 -4.454614e-05 0.00162167 -0.0016997779 0.0038468945 -0.0015169034 0.0023456549 -0.0027674602 -0.0055261515 0.0050996207 -0.0022232507 0.0020403208 -3.6388377e-05 0.0028671524 -0.0055661206 0.005400268 -0.0045097084 -0.0049165525 -0.0038646047 -0.0012802382 0.0018757978 0.004370559 -0.00226496 -0.000957972 0.00061227934 -0.0037646974 0.0011648874 -0.0037134602 0.00064568565 -0.0024804315 0.0012140876 -0.0037591527 0.002415103 0.0034581337
保障 -0.0024301321 -0.0036652738 -0.0044806646 0.004569797 -0.00032390867 0.0013528469 0.0020802326 0.0044660172 0.0030907446 0.0052208304 0.0020888175 -0.005052336 -0.00047095268 0.00021733512 -0.0032327292 0.0009089458 0.0005504924 -0.0048702266 -0.0005972468 0.004196078 0.0013461346 0.0027663275 -0.0028657096 0.0019105261 -0.0007417081 -0.0011577521 -0.0015932599 0.00050237577 -0.0012322048 -0.0020218256 -0.00329395 0.0048083905 -0.0024466435 0.0038446276 0.0050708055 -3.759559e-05 0.0036181756 -0.003350873 0.0045494772 0.0022152294 -0.00054686645 0.0029890207 0.00013944702 0.0011015538 -0.002841886 -0.0001935475 0.005310102 0.0032012456 -0.0042546922 -0.00038580073 -0.0021252972 -0.00075118867 0.0007619707 -0.0015713153 -0.0017258801 0.0049262536 0.0052495725 -0.0029687777 0.0015806641 0.0030723782 -0.0032855785 3.4695902e-05 0.0045735324 -0.001533812 0.0011500074 0.005445403 0.0042009642 0.003884424 -2.7350477e-05 -0.0054443697 0.004980989 0.00168992 0.0032272295 0.006772496 0.0035417553 0.00032571374 -0.0037271609 0.0009620249 -0.00039681935 0.0039189085 -0.0031748547 0.0004401116 0.0031519253 0.002532182 -0.0015449532 -0.00026992874 0.0051258756 -0.0030218111 0.0005701074 0.005993674 -0.004647952 -0.0016477762 -0.005491248 -0.0035307335 0.0018041623 -0.0015098308 -0.00043077403 -0.00023143357 -0.0017957205 -0.0019757045
法律 0.0026893667 -0.004709591 -0.0001557113 -0.0010838396 -0.0024946905 -0.0053334064 -0.0018329065 -5.596298e-05 0.0041120737 -0.0024927596 0.0019298737 0.0024008271 0.0018434091 0.0012409678 -1.0562331e-05 -0.0059837303 -0.004661995 0.0001468876 0.00072984176 -0.0050514936 -0.00051023305 0.003180341 0.0009406061 0.0016973912 -0.004943617 0.0044070524 0.0043012677 -0.004325012 0.0013859243 0.0023146335 -0.0046305493 0.00062937854 -0.002576677 -0.0022570372 0.0053856475 -0.00271588 0.0043566264 -0.0024658076 -0.002671502 -0.0039608534 -0.0024744645 -0.0041179913 0.004677652 0.0055086976 -0.00087720895 0.0031857917 0.00029111502 0.0013103184 -0.0027935426 -0.0027912136 0.0009704458 0.0012800032 0.004946707 0.004919669 -0.0005696106 -0.002598446 -0.0027397205 -0.0038196666 -0.0033997495 0.0029761742 -0.0054500015 -0.00095033535 -0.00039104003 -0.0017063934 0.0026922566 0.0059529105 -0.0056401477 9.371573e-05 -0.0011991771 0.003533753 0.005662152 -0.0049683666 -0.00068008807 0.0033390704 -0.00075526215 0.0030803985 -0.0022737589 -0.0027610927 -0.0018431697 -0.005079407 0.0015188761 0.0036624805 -0.005334836 0.00015955548 0.0010893155 -0.0015081319 -0.002152195 0.0037180933 -0.0015785195 0.0016903615 -0.0003332308 -0.0055595837 0.0034804638 0.0016348102 -0.00212338 -0.0021963385 0.0052948245 -0.005196501 -0.0013196267 0.0054922765
公民 0.00467376 -0.0020854296 -0.0043179365 0.0023490356 -0.0037757827 -0.00092809985 -0.0025959082 -0.004041 0.0048633916 0.0052296617 -0.0011861124 0.0029019592 0.0027423003 0.004030313 0.0039570313 -0.0061566974 0.0018680171 0.0019425848 -0.0041859196 0.0007748342 -0.0030974923 -0.000109886765 -0.00033230457 0.0013898223 -0.002394455 -0.0041150837 -0.0031523285 0.0038102472 0.0003997693 0.0028379038 -0.0037957372 0.00496542 -0.00436334 0.0043005813 0.0017498289 0.0003521032 -0.0002563247 0.0028500601 0.0038357994 0.0015854173 0.0030663507 -0.0056724446 -0.0012709636 -0.0024052288 0.0007423919 -0.0046101855 0.002687469 -0.002936094 0.0007162737 -0.0008529696 -0.004031797 -0.0056523127 0.0017970937 -0.0032258122 -0.0004184128 -0.00026337025 0.00016116245 -0.00079599355 -0.0005711716 0.0048049446 0.0014163331 -0.0023661612 -0.0011408709 0.0055312985 -0.0005082514 -0.0019501492 0.0006519411 -0.0004635995 -0.00063036097 -0.005547808 -0.0021057173 -0.0042783953 0.0038282534 -0.001330615 -0.0044523673 -0.00053097017 0.0013942707 0.0009501056 0.00028901373 -0.0013163985 -0.0051825545 -0.0019584103 -0.0011532229 0.0021657234 0.0035017747 -0.00068540714 -0.0014647788 0.0026232863 0.003191356 0.00436721 -0.003760215 -0.0012775654 0.0003023185 -0.0012471401 0.0040821466 -0.0005214469 0.0015779632 8.3012994e-05 -0.003402528 -0.0007871336
政府数据开放平台 0.0019412261 -0.0054393047 -0.0020942497 -0.0029075928 -0.0031674632 -0.004968296 0.002464575 0.00074005616 -0.002012158 0.00010790309 0.0013957218 -0.0038818244 -0.0024036337 -4.086212e-05 0.0010152397 -0.0029458806 0.0041751284 -0.0015872869 -0.0011904439 0.0036939848 -0.0033774737 -0.0027586694 -0.0024064214 0.0002873387 -0.0036401423 -0.0012841969 0.0014048022 -0.0039150044 0.004212246 -0.0030706984 -5.8533337e-06 0.0011835982 0.0017548316 0.0026011409 0.0057759173 -0.0031245328 0.0017762891 0.0011804294 -0.0037976212 0.0008027774 0.004649269 -0.0045772158 -0.0040599275 0.0024090302 -0.0025764399 -0.0039477795 0.0028957287 0.0041351374 0.0010106264 -0.0033725868 -0.00025758464 -0.00059620704 -0.0019716385 0.0022320289 -0.004141936 -0.0038801832 -0.002169656 0.0024297922 -0.0017587873 0.0008377423 -0.0057109343 0.002652398 0.0013062791 0.003586341 -0.0005357115 0.0056536724 0.002480195 0.0012214957 -0.00093297684 -0.0050982805 -0.0040713893 -0.0018832829 0.0037095745 0.005098258 -0.0034819955 0.004498002 -0.0046754056 0.0035401615 0.0012648336 -0.0027018462 0.0036253869 -0.0033869285 -0.0055524884 0.0020221816 -0.0046608564 -0.0010469325 -0.000616791 0.0057133194 -0.001605754 8.8931556e-05 0.0006742194 -0.0063231313 0.0040329816 -0.0034146623 -0.005652303 0.003549799 0.0039262725 -0.0024062302 -0.0023105154 0.0012119643
云 -0.002005825 -0.0054898844 0.0019951342 0.005163015 -0.0033459384 -0.0007592932 -0.0009776661 0.0036113942 0.002211097 -0.001057939 -0.00083827024 0.0037868759 -0.0032094407 -0.003549544 -0.006062343 -0.0019746323 0.0019277774 -0.004683331 0.0029111675 0.0044185715 -0.0056304517 -0.0021611887 -0.0042945463 -0.00026667322 -0.00040560792 -0.0022103062 0.0032573312 -0.0006362528 0.0042252745 -0.0017680507 -0.00044639217 -0.0037309746 -0.0028262434 -0.005797451 0.002476788 0.00060049637 -0.00057948404 -0.003250835 0.001209725 -0.0017754615 -0.0018880144 -0.000629344 -0.003997065 0.003436588 0.0021942565 0.003994014 -0.0010597275 -0.00074759766 -0.004838871 0.0012679423 0.0033998264 -0.0035249896 0.005084207 0.0029575631 0.0032782566 -0.0040183715 -0.0015140541 0.0023657647 0.0025649078 -0.004718297 -0.004946145 0.004853651 0.0046362854 0.0027721464 -0.0036048507 -0.000781415 -0.0039871936 -0.003023881 -0.0038092795 -0.0031687862 0.004200265 -0.0050628637 0.002430106 -0.0005505565 -0.0017701219 0.004121173 -0.0020129164 0.0034990017 0.00045897797 -0.00095796573 -0.0017497691 0.0032376098 -0.00163685 -0.0048467135 -0.0049545616 0.0007241403 0.004726762 0.003968605 0.0002132629 0.0005826332 -0.0020548468 -0.0014788507 -0.005504179 -0.0036648717 -0.0019872414 0.0067125647 0.0045489306 0.004610234 0.0011911681 0.0030951824
机构 0.00018371383 0.0044042757 -0.00025527473 0.0056238393 -0.0043700174 -0.006537213 0.001041785 -0.005396566 0.002706384 -0.0046867304 -0.0003623909 -0.0049300534 0.0019131398 0.0028048905 0.0007018527 0.0031160219 -0.003783825 0.00038253478 0.002800357 0.00049429055 0.0011018455 0.0005517045 -0.004811445 0.005086474 0.0020735662 0.006174487 -0.0027113054 -0.0043270504 4.6732675e-05 -9.953116e-05 -0.0012030236 -0.0023784356 -0.004258154 -0.000564252 0.0016685316 0.0039443322 0.001957774 0.0009654427 0.00040999043 0.004536349 0.0037871022 0.0018544951 -0.0013490082 -0.00049176614 -0.0037194141 -0.0011927857 0.0055641597 -0.0007993337 -0.0041767317 0.0026035921 -0.0032262646 0.0028126666 -0.0025584153 0.0023884135 0.003215282 0.0009251625 0.004258451 0.0015175123 -0.002805369 0.0023989687 0.0024856385 -0.0006079049 -0.0019084701 -0.00051410554 -0.000983976 0.0012558767 -0.005690006 -0.00067897886 0.004174273 0.0034665042 -5.8766687e-05 0.003400571 -0.0014888158 -0.00028122618 -0.0029123216 -0.00019829322 -0.0028145453 0.002645897 -0.0044881837 -0.0050893323 -0.0017447356 0.0036339122 2.6870792e-05 -0.0025947501 0.002146092 0.0038587064 -0.0015389338 0.0039369324 -0.0004131469 0.0057021105 0.0028027608 0.00254949 0.0008981319 0.0022070443 -0.005614142 -0.002804176 0.0034494745 0.0027799804 -0.0038689608 -0.0028782825
实施 0.0019206193 0.0028825877 -0.003714426 -0.0016196916 -0.0011843687 -0.00056560256 0.0012425868 -0.0003721147 -0.0016485691 0.004443771 -0.0025323536 -0.00097188546 -0.0028225945 0.0034166623 -0.0007624635 -0.005882825 0.0047267377 0.00020487723 0.0012834031 0.0011514641 -0.0022895827 0.004216208 0.00097262085 1.5271007e-05 0.0043247133 -0.0018333192 -0.00029401632 -0.0018268947 0.0057755383 0.005019828 -0.0047559193 0.003758051 0.003967631 -0.005664892 0.0025431379 0.0036528644 0.0029626824 0.004055201 0.0037456069 0.0039102025 -0.0010809869 -0.00462774 -0.003367579 0.0018935091 -0.0018784484 -0.001235269 0.002546244 0.0050542974 0.0046783537 -0.0031364607 0.0014480393 -0.004925171 0.005141956 0.00052943587 -0.00084695616 0.004208812 0.0018434267 -0.00033291554 -0.0025089378 0.0042254105 -0.0040365984 -0.0009430977 0.0038903248 0.0021336458 0.0039128275 0.0019108609 0.0011041744 -0.004700757 0.00087528984 0.0038432565 0.0058992514 0.0048563313 0.002551146 -0.0019621225 0.0017576972 0.004606231 -0.0004297399 -0.0036531219 0.004233488 -0.0048034773 0.00040037217 0.0024545155 -0.0029257461 -0.0041012997 -0.0040033474 -0.0029245107 0.0012484312 0.0054248953 0.005148207 -0.00073228317 -0.00068484613 0.003362031 0.004033243 0.003240238 0.0029099905 -0.001033734 -0.0022554628 -0.0016707941 -0.0008635571 0.0056645526
授权 0.0034346646 0.0021755663 0.0009829279 -0.0029921795 0.0026295828 -0.0011867457 0.0051298514 -0.0005902672 0.0009435895 -0.00023117238 0.0012972037 5.4997923e-05 -0.0003849044 -0.0012625642 -0.0056793285 -0.00042638788 -2.2899667e-05 0.0025657697 -0.0019196024 0.003759449 0.0039222953 0.002872366 -0.0032255324 -0.0018408943 -0.0020486827 -0.003069057 -0.0036046961 0.004399659 0.005370939 0.0025515154 -0.004225001 -0.0017330619 0.0015203614 -0.0038228687 0.0025005552 -0.00053633767 -0.001696322 -0.0033028934 -0.0015702303 0.0053613447 -0.00010206095 0.0025163693 -0.0028716074 0.0037001648 0.0029635334 0.0034750153 0.00069730484 -0.00051239296 0.0013781022 -0.0024240233 -0.0049953805 0.0020095904 -0.004190198 -0.0009104709 0.002257473 -0.0034654783 0.0029300281 -0.00019490728 0.0028938348 -0.003751729 -0.004185351 -0.00039213558 0.0023634178 0.0019026942 0.0019863504 0.0030776802 0.001373198 0.00024669975 -0.0046951664 -0.0035161746 -0.0007071593 -0.0046181288 -0.0022162895 0.0041874824 0.0019096319 0.0012436978 0.001051732 -0.0056884945 0.004104863 -0.0002210926 0.0031743264 0.0046887365 0.00081839936 -0.00017335534 0.003759713 -0.0026157608 0.005734955 0.0010803554 -0.0048592137 0.0028001738 0.0010023789 0.0005589471 0.0023489879 0.003968121 0.003597287 -0.0021199882 -0.003636605 0.0037114816 -0.0025442163 -0.0035292655
应 0.0036967837 0.0019195449 -0.0019946168 -0.0015038988 0.0010988156 -0.0027371966 0.0035914776 6.682225e-05 -0.001546689 0.001698067 0.0016565187 -0.003811696 -0.0040411786 0.0029073695 -0.0019743484 -0.0052002016 -0.0034317223 0.0028223426 -0.0007840998 -0.0037745868 -0.0013647444 -0.00024228034 -0.0008832893 0.0011641814 -0.003616824 0.0018618896 0.004956796 -0.0038816165 -0.0026720215 0.0016568716 0.0039853137 0.0037562607 0.0008367452 0.0011844819 0.0049911602 -0.0057234587 0.0006497772 -0.005140818 0.0026267683 -0.0010510015 0.00028256577 -0.0017027063 0.0048807105 0.0053657773 -0.0037365116 -0.0013848522 0.0031864673 -0.0016241386 0.004591235 0.0031981114 0.00040099196 0.0041338564 -0.0025876702 0.0006360063 0.0045560673 0.0044350717 0.0042320224 0.0021872083 -0.00071332866 -0.002090898 0.0019727035 -0.004086147 0.0033216232 -0.0027399717 0.004564125 0.0013223435 -0.005710127 0.002316359 -0.0032249892 0.0018403742 -0.0026114453 0.0039524194 0.005731798 0.0023116998 0.00038171496 0.0048869513 0.0029725346 -0.0016546921 0.003195308 0.0012852902 -0.006333609 -0.004235774 -0.004083134 -0.0018960324 0.0022561725 -0.0053604986 0.004157133 0.0040721246 -0.0011163962 0.0021246374 -0.0019668634 -0.004482819 -0.0026667991 -0.0020216461 0.004181437 0.00016533105 -0.0046567675 0.00023394104 0.0032292418 0.0060215117
数据共享 -0.0033349788 -0.0043906067 -0.0021390023 -0.0033432173 0.0013725853 -0.00066308305 0.0019447115 -0.0030082525 0.0034507692 -0.00066930405 -0.0032598944 -0.003990644 0.0051455325 0.003270103 -0.0041986764 -0.00175463 0.0014869664 0.0048783408 0.00094119954 0.0034919116 -0.00062000455 -0.0032974845 -0.0032070247 0.003219078 0.00052034156 -0.0018478833 -0.0028111055 0.0019002155 -0.0005667228 0.0016400093 -0.0024333082 0.0016061718 0.0007631275 0.0004827294 -0.00086253125 -0.003747478 0.002656817 -0.0033717968 0.0041827867 -0.00019372132 0.0019519685 -0.0019052594 0.0054141646 -0.0041548386 -0.002218003 0.001839774 0.0022759913 0.002606489 -0.003074263 -0.0009097866 0.0019806123 -0.003366324 0.0012695502 0.00066011655 0.0043711495 -0.004506262 -0.004211983 0.0018784523 -0.0036453267 -0.005037711 -0.00025203035 0.0021149968 0.0024993478 0.0029179393 -0.002854018 0.0015412798 -0.0001229333 0.0040915837 -0.00080405053 0.0043808403 -0.0015301758 -0.0019601882 0.0039294744 0.002841742 -0.0023300399 5.7406646e-06 0.0011808514 -0.0009097129 -0.0002634762 -0.0024939 -0.001682883 -0.0044379793 -0.0047328915 -0.0013801013 0.0049084304 -0.004265437 0.0013957625 0.005308451 -0.0046385666 0.004202695 9.077957e-05 -7.179374e-05 0.0005894198 0.0020064048 0.0003120016 -0.0036317387 -0.0038066106 0.0035065243 0.004294964 -0.0012656815
企业 -0.00082398986 -0.0027438642 0.00010436524 -0.0010704781 0.0018503688 0.001690568 0.0024450235 -0.0013528643 0.0055286274 -0.0025568015 -0.0043182084 0.00056385866 -0.0021996934 -0.00010266471 0.0005206412 -0.005730203 0.0034357558 0.0020697028 -0.003010065 -0.0025959164 -0.0030244375 -0.0036056854 0.0014246688 -0.0018815809 0.0030589858 -0.0035009342 0.0052388236 -0.0014992398 -0.0036739823 0.00022544884 -0.004732594 0.0024202354 0.0029399446 0.00019824915 0.004596937 -0.000621908 -0.0047146734 0.0012284731 0.0004704959 -0.0020655626 -0.0017034437 0.0030434637 -0.0020598357 0.00049256155 -0.0055775624 -0.0038473236 0.005397951 0.0011986402 0.004624208 0.00395435 -0.0027765036 -0.0021611983 0.0019096907 -0.0019293985 0.0036629583 -0.001659821 0.0012210044 -0.0061124875 -0.0043396973 -0.00049771304 -0.002120224 -0.0024042095 0.0030492484 0.002497249 -0.0021460587 0.0036753458 -0.0016307442 0.0019930464 0.0012829812 0.00033306898 0.0007731692 -0.0035611345 -0.0015694741 0.005605954 -0.0035023391 -0.00038458474 -0.0037778749 0.002363802 0.0026188546 -0.0022253534 0.0018670767 -0.002690056 -0.0011633253 -0.0037883811 -0.00078551954 0.00023140195 -0.00365874 0.005983057 0.0025175973 -0.003536901 0.0009487059 -0.0022006778 0.002897549 0.0040345998 -0.0030421196 0.0018702003 0.002145664 0.00075463264 -0.0004656044 0.0059777093
共享数据 0.0049195653 -0.0005908377 0.003469604 -0.0036493703 -0.0018820334 -0.0020474112 0.0020679906 -0.005706222 -0.00022667761 0.004666703 -0.0021819773 0.0022317339 -0.0012439868 -0.0012771287 -0.0055475333 -0.00070415 -0.0016357447 8.365413e-05 0.0011135536 0.0049995393 0.002815053 -0.0047602872 -0.004319349 0.0052096965 8.954792e-05 0.0044253427 -0.0005141078 -0.0039095264 -0.0009956491 -0.0016659871 0.0035907112 -0.0028712058 -0.0046610665 0.0012841306 0.00024119926 0.003591883 -0.004697601 -0.0013052456 -0.001182441 0.0014098604 0.0033611374 -0.0048102336 0.0008011555 0.004999411 0.00015000248 -0.0026220786 0.0056600743 -0.0015067845 0.0020460594 -0.0044181817 -0.0025905697 -0.004025215 0.0026579986 0.00016018303 0.005138078 -0.00015554791 -0.000596713 -0.0056399084 0.002442607 -0.0031811388 -0.002879875 0.0033279476 0.0037760453 0.00047881348 0.0011619349 0.007018857 -0.0038008103 0.0024115767 0.00090533204 0.0006506425 0.00043753532 -0.00084409356 0.0050020115 0.007117351 0.0003789038 0.002749396 -0.00036709558 -0.004880975 -0.0009926978 -0.0024640325 -0.002236158 0.0036399157 -0.0023198733 0.0011905315 0.0048522153 0.0036288963 -0.00073763425 0.000507558 0.0012039717 -0.0022702366 0.0038144332 0.00037622493 -0.0026204064 0.0065863454 -0.0040176413 0.0028398272 0.0049404674 0.004337662 -0.004392452 -0.0023962804
政府数据 -0.003380932 0.0024471032 -0.0026095158 -0.0011925682 -0.00017927134 -0.0025825647 0.004940627 -0.0049707755 0.0034513604 0.003202336 -0.000264872 0.00320632 -0.0022533329 0.0006918102 -0.0016450768 0.0023336732 -0.0020952136 0.0029437384 -0.005116819 0.0010092934 -0.0028474897 0.003073655 -0.001160744 -0.0030021933 -0.0045688483 -0.0002020242 9.6879485e-05 -0.0011032674 0.0032719546 -0.0036696785 0.0012451956 0.0052842814 -0.0003522833 0.004434781 0.0030370448 -0.0024130254 -0.0030062678 -0.00096008705 0.00411799 0.0016172101 -0.0012045376 0.0012589653 -0.0044875424 -0.0014982291 -0.00092260377 0.00058040046 -0.002471165 -0.0018307705 0.004659578 0.0040988093 0.0005903101 0.00045032444 -0.0040765996 -0.0042217965 -0.002584279 -0.004244459 0.00073177234 -0.0053379294 0.0027812351 0.00062765024 0.0009056752 0.0017246159 0.002182699 3.0665764e-05 -0.0051149004 0.0062401965 -0.001118145 0.00012965755 0.0017761922 -0.003303714 -0.002352387 -0.002562668 -0.0017447633 -0.00054088194 -0.0042900355 0.00048559243 -0.004673557 -0.0048538432 0.00094906054 0.0039023883 0.0029029315 -0.0019451788 -0.0028259503 -0.00078324735 -0.0009887337 0.0023611253 0.005662097 0.0055118343 0.0015175602 -0.0017921854 -0.0010132067 0.0013976096 -1.6703345e-05 -6.837606e-05 -0.005020979 0.0034484216 0.003992545 0.0029869773 -0.004962597 0.0011737656
科学 0.004965314 -0.003110491 0.003553078 0.0054186042 0.0036557917 -0.001344177 -0.0021678174 -0.0011159943 0.0041070343 -0.0010667312 0.0007905548 0.0033836826 0.0013233782 -0.004660048 -0.003345065 0.003211201 0.00053538656 -0.0054300074 -0.0017577533 -0.002558425 -0.0035890273 -0.00479333 -0.002919276 -0.0022686785 0.0031154663 0.0053112954 0.0023437724 0.003901106 0.004383438 0.002179814 0.0023006909 0.004445907 -0.00013663036 0.0023276077 -0.0015799537 0.0012203304 0.0013926533 -0.0047343164 -0.0019367962 -0.0024838864 0.0030119447 -0.0012358348 -0.00093122985 0.0022619301 0.00088050374 0.00065973774 0.0034484656 0.005240722 -0.004182564 -0.005694129 -0.0014484489 0.0016633457 0.0050440645 -5.8672835e-05 0.0053675137 0.0035715846 0.0033136597 -0.0029892162 0.0014168512 0.003750927 -0.0014367818 0.0022883883 -6.840337e-05 -0.000499854 0.001561426 0.006393462 -0.0025232644 0.0019488905 0.0006560793 0.0013044372 0.005677992 0.0050593284 -0.002978507 0.00096001127 0.0032479882 0.0055057895 -0.0021368873 -3.0986517e-05 -0.00025841212 -0.0027746786 -0.002453062 0.004504597 -0.006362557 -0.0027317894 0.003768712 0.0034050774 0.00076916046 0.0027319747 -0.00092428515 -0.0010695388 0.002799362 -0.0024831842 0.0038244491 0.002698399 0.0023067507 0.005525921 -0.002980774 0.0047386843 -0.0003296577 -0.0009973582
发布 0.004352753 0.0024059815 0.0018299621 0.004915629 -0.003237276 -0.0017383698 0.00300125 0.00058877206 -0.00097159814 0.0039426475 0.005057747 -0.0006529154 0.00032391632 -0.002565986 -0.004925844 -0.00024664926 -0.0014093354 0.0034992592 0.0018264722 -0.0019476215 0.0029076976 0.0019419267 8.8601504e-05 0.002681014 0.0026311113 0.0051179198 0.0029473049 0.0045465785 -0.0030510963 0.0020036944 -0.005396167 -0.0025846125 -0.002138891 0.0010321505 -0.0036516755 -0.0005246131 0.0016042402 -0.0020440405 0.0041541187 -0.004512368 -0.0050135064 -0.0021969164 0.0045251218 -0.0016245468 -0.0033401449 0.0040225484 -0.0031883908 0.0026029693 -0.0044911043 -0.0034039374 0.0011544537 -0.0035876653 -0.004424927 -0.00085831794 -0.003563943 0.0044252984 -0.004155591 0.0033022396 -0.000982849 -0.0029341707 -0.0035680924 0.0036125835 0.0053009526 0.003555257 -0.0018287217 0.0036122939 0.0038901116 -0.0035626332 -0.0053624692 0.0019788067 -0.0010908559 -0.00083026424 0.004688895 0.0045388504 -0.0042067003 -0.0016999785 0.003732427 -0.0010667153 0.00034707933 0.0019525739 -0.002905055 0.0043732696 -0.005087754 0.0044195172 0.00242324 -0.002497068 -0.0030414313 0.0032790327 -0.0025748159 -0.0003072347 0.0037159869 -0.0017713548 -0.0029866472 -0.0028671825 -0.0039873384 0.00451521 -0.004718275 -0.0038207967 -0.0029274349 0.00035893836
导致 0.002911492 8.2134175e-05 0.0020274215 -0.0010756154 0.0035553216 0.0010365463 0.004548005 0.0019305842 0.0011076832 0.004471255 -0.0023609444 -0.004029454 -6.891093e-05 0.0015783507 -0.0013491317 -0.00046345827 -0.005053957 0.0034123126 -0.0009468043 -0.0047504534 0.0026702196 -0.0025453775 -0.0048033507 0.0005633661 0.0013277896 0.0034611896 0.0022176486 -0.0029168734 0.0007494696 -0.0013477626 0.0029871936 0.0044725663 0.004650475 -0.0015540923 -0.002049132 -0.0009986697 0.0038620075 0.00084335293 0.0020960714 0.0031550983 0.004335402 -0.0041006384 -0.0010598424 0.002400812 -0.0033612468 0.004926024 0.0018008886 0.00063620345 0.004860227 -0.0029785465 -0.0027916117 0.0007554215 0.0016834469 -0.0019018984 -0.0021500692 -0.004127834 -0.0038849383 -0.0009828501 -0.0028039543 -0.00233214 0.0035423615 -0.0039621987 -0.0041887974 -0.00220788 0.0011391701 0.0013202961 -0.0038902862 0.005081453 -0.00057483057 -0.0042822897 0.0025833983 -0.0028056684 -0.0045848507 -0.003172946 -0.005721627 -0.0021132377 -0.00367041 -0.00422626 -0.002732247 -0.0021231964 0.0004522847 0.0042365 -0.005107734 0.003805912 0.0023820263 0.0016938188 0.0027763606 0.0057650325 -0.0011705144 -0.0023866629 -0.0006355394 -0.000987884 -0.0050883763 0.00011412536 -0.00368212 0.0031471953 0.0025069837 1.8406596e-05 0.004196566 0.0055640624
共享 -0.00040036894 -0.0045623654 0.0026442078 0.0018432399 0.0038731731 -0.0038486756 -0.0018749022 -0.0034035721 0.0023317162 0.0017273267 0.0023700178 0.002903024 0.0025260227 0.0020641137 -0.0048862323 0.00059858634 0.0041003926 -0.0039431932 -0.0031378272 8.8769586e-05 0.003339464 -0.004642107 -0.0021140238 -0.0018071783 -0.00081398577 -0.0017978658 0.00091377273 0.0024987936 0.0013144647 0.0009173232 -0.0022344305 -0.002981874 0.0039040914 0.0006268784 -0.0042023063 -0.0042483485 -0.004178287 0.0010627712 -0.0036246008 0.0010637458 -0.0036699083 -3.240338e-05 -0.0024959543 -0.0043042195 0.003294931 5.5100143e-05 0.0010186095 -0.0029457614 0.0030854582 0.0025171957 -0.0043054745 -0.002375617 -0.0047635883 0.0032279275 -0.0011882862 -0.0014054033 -0.0013216266 -0.004725657 0.00014569006 -0.0018077729 -0.00036994353 -0.0035745993 0.0017578418 -0.0022298282 -0.0035481458 0.0016928202 -0.000106275926 -0.00017310408 -0.00062259694 0.0036933513 0.0049438304 -0.002592221 0.0035607878 0.0012114341 0.0019355328 -0.00063082075 -0.0042143725 -0.00014503686 0.0020428745 -0.0053231935 0.0006567076 0.0005539865 -0.0052127233 -0.00020398332 -0.00059799914 -0.0013724007 -0.0028096163 0.00025004245 0.0035364924 0.0007741374 0.0009720276 -0.0059682745 0.0037541676 0.002401091 0.002041139 0.0033880803 0.0038680045 0.002683813 -0.003431752 0.0030068345
报告 -0.0020316495 -0.0032619706 -0.0005932901 0.0043479963 0.00222385 -0.000885628 -0.0034320247 0.003626881 -0.003032022 -0.002487929 -0.0030838905 -0.0029626368 0.00024652365 0.0016234658 0.0024024176 -0.0015005984 0.001698422 -0.0053135916 -0.0022964983 -0.0016109874 -0.0054485076 -0.0013511952 -0.002965056 0.0009239591 -0.0024241228 0.006101992 -0.0020655473 -0.0023513974 0.0033752557 -0.0031988428 -0.0020565533 0.0045671696 -0.0026504742 -0.004759853 0.0050215176 -0.004087722 0.00463116 -0.0034275712 0.00091757876 0.004242229 -0.0037546537 0.0009398364 0.0038703682 -0.0025516895 -0.005865633 -0.0029523817 0.0034371212 -0.00040038157 -0.003925404 -0.0053048483 -0.004946825 -0.0046027303 0.003590526 0.0019943449 0.00036613678 0.004448515 0.0044962824 -0.0018842199 -0.004847109 -5.896624e-05 -0.0036898202 0.0003161106 -0.0016007341 0.0021738142 -0.0047465516 0.004674108 -0.00090550515 -0.004156236 0.0016650251 7.2924304e-05 0.0029285252 -0.0030261253 0.001305487 0.005869285 -0.003801598 0.0014328207 0.001587848 0.003221906 -0.0020459387 -0.0007401823 -0.0052938694 -0.0035023252 -0.0023242412 -2.317345e-05 -0.0022878065 -0.0013377063 -0.0025095139 0.0056706863 0.005040294 0.003645211 0.0026932412 -0.0038055168 -0.0050711734 0.0026596473 0.0035768952 -0.00018742774 -0.0034247625 0.0049820957 0.0025011143 0.004677714
单位 -0.0049842596 0.0010385313 -0.005325075 0.0041376613 -0.0051630526 -0.0051657734 -0.0048387167 0.0036336787 0.00033583245 0.0013450801 -0.0014495437 0.0035610471 0.0020625738 -0.001968311 0.0038093014 -0.0062130634 -0.0041551637 0.0019118527 -0.004382526 -0.0024217125 -0.002518884 0.0028283817 -0.0056776963 0.0047578397 -0.0039073317 0.0042088977 0.0027943973 0.004838916 -0.0019912522 -0.002726107 -0.0026328752 0.0043078023 -0.0008815735 0.0004016194 -0.0022889704 0.00435765 -0.0018415079 -0.0038909079 -0.0007322366 -0.004710769 0.0003299121 -0.004970531 0.0052217096 0.0010193825 -0.0033754841 0.0038413235 0.004581584 -0.0049723545 -0.0027618143 0.003365275 -0.003272867 0.0014061069 0.0017799942 -0.0052445615 0.0061004297 -0.0027829886 0.004054936 -0.005911749 -0.001861071 0.0016517326 0.00044553244 0.0023263865 -0.0036218718 -0.0019121517 -0.0021226841 -0.00032547608 -0.005437372 -0.004931902 -0.0031420789 0.00015766005 0.0052281483 -0.0020243882 0.0031156526 0.005453827 0.0047598374 0.0030143557 0.0019200887 -0.004770002 0.0034695999 0.00039886963 -0.0059758825 -0.00031483092 -0.0031368847 -0.0017362201 -0.0028126691 -0.0043529086 0.004892788 -0.0039699795 0.0047600376 0.00019623437 0.0039622188 -0.0056792 0.0020026488 -0.0011100114 -0.00024159113 0.00568143 0.004339075 -0.0021683902 -0.0027564932 0.002964131
价值 -0.004006443 -0.0015826075 -0.00077599543 -0.00091633265 -0.00073848944 -0.0004947018 -0.0023726402 -0.0035044826 -0.0016093053 0.0038474572 0.00047751257 -0.002136572 -0.0012625019 0.0031460908 -0.0012348939 -0.0002968476 0.003313177 -0.00084509596 0.0023493902 0.0027159613 -0.0016577059 -0.005180332 -0.0020855786 -0.0039420333 -0.0027657237 -0.00058165134 0.0050730254 -0.0020897132 -0.00030540128 0.00014157653 -3.5808254e-05 -0.0022880696 -0.004841246 0.0022980848 -0.0003677852 0.0004349742 0.0041149445 -0.00063891005 0.004047194 -0.0031963356 0.0009958807 0.0015142155 0.0028613082 -0.004697951 -0.0045253723 -0.00055977836 -0.0038428707 -0.00029306684 -5.595293e-05 -0.004549842 0.00066123344 -0.0021741102 -0.0026879187 -0.0018492481 0.0013044717 -0.00021590039 -0.003406735 0.0025037806 -0.0033744327 -0.0025426857 0.004546045 0.000110580215 0.0012446654 0.0025042247 -0.000201151 0.0048046163 -0.0029851242 -0.0041018017 -0.003954374 -0.005602585 0.002249757 0.0031210214 0.0033000684 0.006650495 -0.00085342827 0.003968767 0.0041480316 0.0027657917 6.279157e-05 0.0019983316 0.0026950918 0.00493098 0.0021915457 0.0013124902 -0.0012755892 0.00096119836 0.0014169634 0.002151877 -0.00030596735 -0.000121083904 0.0013079409 -0.0026610463 -0.00081718265 0.0043486445 -0.0050193453 -0.0009029117 0.0011250444 0.004340877 -0.0046566823 0.0035560147
加快 -0.003791122 -0.0033804032 0.0021466257 0.0035066337 -0.0013250306 -0.006235377 0.0016992723 0.0014627277 -0.0023595963 0.00061362167 -0.0020636683 -0.0043877773 0.0041821613 0.004122547 -0.00021806113 -0.0010190248 0.0046876995 0.0013462714 -0.00032716917 0.0016044637 -0.0037462744 -0.0021754869 0.0041635777 0.0058680573 0.0018592775 0.0008963007 0.00516337 0.0005811068 0.0043068537 0.0022624088 -0.0059313932 -0.002260215 -0.0010973734 -0.0031308194 0.00509745 0.0022877571 -0.0007457387 -0.0053398903 -0.00042948136 0.0011965663 0.004046254 0.0029637755 0.0013156981 -0.000112789334 -0.0015618114 0.004887768 0.005576589 0.0024421662 -0.0002957344 0.002362247 0.0025071192 -0.0002697625 0.00051485427 -0.0031292944 0.00526798 -0.00102804 -0.003818256 -0.005192467 0.0038650422 0.00034194614 -0.001675061 0.002655376 -0.002375443 0.00550444 -0.0028344006 0.0020613824 -0.003556748 0.00020355955 -0.0009996083 -0.005656341 0.0041563814 0.0029519428 -0.0037237094 0.0018601846 -0.00022424442 -0.0018705341 0.0018027979 -0.0037620224 -0.00047373085 -0.0030676776 0.0014101177 0.004812648 -0.0054714847 0.003547639 -0.0029638866 0.0012986982 0.0029518509 0.0024720544 -0.003971129 -0.0023381975 -0.0038926569 -0.002829562 -0.0046127583 -0.003019855 -0.0016552131 -0.00088429055 0.00017855426 -0.004678955 0.0006753695 0.0008461267
地方 -0.00093477976 -0.0038458847 0.0013279958 -0.0027072495 -0.0046570385 0.00039518342 0.002073854 0.0043948586 1.8350473e-05 -0.0040871836 0.0022392133 -0.00074979756 -0.00286713 -0.0019872368 -0.0032615082 -0.0027955843 0.0052522086 -0.00441655 -0.0042864415 0.004236272 -0.003704502 -0.0033543815 -0.0027005775 -0.003686485 -0.005362005 0.0013683941 -0.0037593176 0.003163486 0.00033909196 -0.001133141 0.0021591254 -0.0022871767 -0.0028071846 -0.0014772655 -0.003669993 -0.0014294237 0.00085747393 0.0019792777 -0.0012666363 0.0038841637 0.0029467633 -0.00017250841 0.0024005438 -0.00037821825 0.002260894 0.0052061086 0.00040772522 -0.0025165377 0.004712371 0.003333676 0.0029298656 0.00340695 0.0015042496 -0.0017481392 -0.0033929886 0.0017642035 -0.0018678494 0.0019010495 0.00074345036 -0.0033120273 0.0024548324 0.00024062156 -0.00012735046 0.0046644425 -0.0006921216 0.0028747008 0.004488361 -0.00013321136 -0.005088926 -0.0055995495 -0.002813266 -0.0005743609 -0.0026633446 -0.0016498311 0.004150323 0.0015906692 -0.0015562071 -0.0036867792 -0.0018000713 -0.0031117303 -0.0026679444 0.0031002774 -0.0023063903 -0.0041087894 -0.0019300425 -0.005564152 -0.0032853938 0.004901928 -0.0026602894 0.004730069 0.0038391934 -0.0038140316 0.0023381766 -0.00392614 0.0006603723 -0.0022709137 0.0012939684 -0.00031347276 -0.0016987857 0.005700825
压力 0.0030993042 0.0049256827 0.0036803908 -0.004109582 0.004421594 -0.0061911372 -0.0021557081 -0.0017989399 0.004793517 -0.0006293874 0.0043819933 0.0027003791 6.223236e-05 -0.00023996436 0.00071197795 -0.0012766034 -0.0028692356 -0.0046180966 0.0014976254 -0.004083858 -0.00061595655 -0.0027714989 0.0014653639 -0.00321293 0.0022975302 -0.0011812869 0.0053774067 -0.0037032797 -0.0014557339 -0.0046255393 -0.0034206328 0.0029097805 -0.0016097076 -0.0056091896 -0.0016531568 -0.00057113223 0.0014196294 0.0026785135 0.0020543577 -0.0033090396 -0.0018594996 -0.0038005696 0.00049064687 0.00015995756 0.0011919781 0.004356794 0.0026332298 0.00029206346 -0.0026951612 0.0025480932 0.0017944595 -0.005209312 0.0032579158 -0.0011653305 0.0011352603 -4.1547835e-05 0.0028381615 0.00022993049 0.0048935497 0.0027759757 0.0019426133 0.0012873788 0.0028441132 -0.0012112602 -0.0008545274 0.0016421336 0.00076490385 0.0005100446 0.0005159009 -0.0031760654 0.00113115 0.0044285385 0.0018280011 0.004296051 -0.0025630754 -0.0035266264 0.002113832 -0.0037901972 0.002664955 -0.002388055 -0.0061840955 0.003658001 0.00092122494 0.0010829268 -0.004570734 -0.004662299 0.0038195613 -0.0034693072 -0.0007712245 -0.00055313605 0.0007296978 -0.0048090983 -0.0026153068 -0.0012695431 2.6046639e-05 0.002267596 -0.00253949 0.0009847771 0.0031876285 -0.000107009575
整合 0.0030899688 -8.8026034e-05 -0.005305021 0.00017876728 4.1497155e-05 0.0010475179 0.0025278665 0.0004955463 -0.002106865 0.0052409195 0.0030502612 0.00035527692 0.0026713284 -0.0037843664 -0.0007488464 0.00031535554 0.0050308625 -0.004380846 0.0018200624 -0.004260107 -0.0040069623 0.00270241 -0.0020556524 0.003104837 -0.004119432 0.0053580026 -0.0019061116 -0.0020350646 0.0012446186 0.0033359178 -0.0015326765 0.0025805368 0.0007725873 -0.0030769224 0.0030011712 -0.0035779423 0.0019563201 0.004317618 0.00041422073 -0.0024448999 -0.0030823734 -0.0019363562 0.0043622344 -0.0005009645 -0.00069446804 0.001710177 0.0020577605 0.004980272 -0.00014711703 -0.0034521692 0.0035027706 -0.0009821175 -0.0012710578 0.003873475 0.004518116 -5.3865257e-05 -0.0036627997 0.0023154332 -0.000584673 -0.004189914 -0.0038754328 -0.0048974724 -0.0033203352 0.0040901043 0.0013379147 -0.0017145589 -0.004731476 0.0019483952 0.003118653 -0.0027374243 -0.0025046223 -0.0005409958 -0.0015641516 0.0020202508 -0.0014961426 -0.0030683887 -0.0025499673 -0.00096952746 0.0013899833 -0.002049209 -0.0008351872 0.0049760574 -0.0057441117 -0.0032832227 -0.004663795 -0.005624795 0.0036304384 0.005060295 0.00051007065 0.002816868 -0.0048186723 0.0020268452 -0.004585802 -3.985487e-05 0.0022202125 0.004838696 0.0010398627 0.00092047517 0.0021350095 -0.0037761347
风险 0.0013494565 0.00028943585 0.0007433193 0.0050914246 0.0019582047 0.0016314582 -0.0028844408 0.0015381393 -0.001410127 -0.004566398 0.0017113041 -0.0035136673 -0.0027346702 0.00067636056 0.0041137557 -0.0026739317 0.0032839552 -0.004375751 0.0021891058 0.0042739864 -0.004832939 -0.004628846 -0.0034543641 -0.0033014507 -0.0009417565 0.0012883334 0.0039453055 -0.0029945509 0.00021755081 0.0039433436 -0.0050656865 0.002376799 0.0015315699 -0.0045670727 -0.0025157996 -0.004310224 -0.0014695268 0.0014306227 0.0029286458 0.0012443397 0.00016345845 -0.0012514183 0.0021249359 0.0035637333 -0.0031999913 0.0002887079 0.0055032005 0.0046221754 0.0028656828 -0.0014000928 -0.0032835384 -0.0021536606 0.0035063657 -0.00497899 0.0057248995 -0.0033454404 0.0025882858 -0.0017871181 -0.0012657433 -0.004654468 0.004606374 -0.0026257336 0.0046758614 0.0033157999 0.0019384519 -0.0001716578 -0.0016377824 0.003804461 0.003392017 -0.004610398 0.005992836 0.003375745 0.0018358332 0.006212246 -0.005007394 0.004865678 -0.002133963 0.0039897813 -0.0018226847 -0.0022199263 -0.0017070505 8.9683985e-05 -0.0025947674 -0.0050072833 0.0018075529 0.0017689796 -0.003005622 0.002871419 -0.0037292792 -0.0026904147 0.001781137 -0.0062013096 -0.0011728758 0.0024538368 0.0046156556 0.00038541202 0.0017176996 0.0018615265 -0.00027460768 -0.000311263
