225 100
政府 -0.0060162605 -0.002815662 -0.00078878494 -0.004391531 0.0034389284 0.0034935388 0.0039533274 0.006222836 0.0010642648 -0.002799636 -0.0022578817 0.001695073 0.0040544923 0.0011778935 -0.0022378673 0.001199712 -0.0027587516 0.0021963061 -0.00050509005 0.0064761746 0.004548387 0.00039097614 0.0009807987 -0.0027979426 -0.004949154 -0.008031518 -0.003605742 -0.0046485323 -0.0004442646 -0.002216677 0.002002786 0.006851778 0.00019720668 -0.0040924447 0.0043450906 -0.0042230687 -0.0030814954 -0.00019503113 -0.00083126785 -0.0037861082 0.0061301137 -0.004615306 0.0016569884 -0.004693444 0.00086691545 -0.0057914527 0.0005341269 -0.0039503877 -0.0024323815 -0.0074235066 0.0020673757 -0.0007735802 -0.003700855 0.0049800766 -0.0036057085 -0.003921061 0.00077587605 -0.00059339707 0.0026224195 0.0022025395 -0.0027320997 0.0046968856 0.001012636 0.0037993062 0.006852323 0.0035578485 -0.0006541409 0.004611728 0.001073675 -0.004709745 -0.007309302 0.00416646 0.0023062276 -0.004265151 0.00022056991 0.0007902582 0.0005179308 0.0035621389 0.001326337 1.7036047e-05 -0.0004552682 -0.0009942952 -0.0037635847 -0.0017622835 0.001754126 -0.0042896387 -0.0040223445 0.0007715964 0.0021476224 0.005302051 -0.0012714567 0.0005347992 0.0057687075 0.0059726755 -0.0042780847 0.0009831145 0.00029706673 -0.0070036342 -4.512592e-05 0.0036402845
数据 -0.002662948 0.0014262031 0.0046496284 -0.00093153515 -0.0014480827 0.0044639558 -0.0006888061 -0.0005400228 -0.0024632516 -9.9762954e-05 0.0013265151 0.002180274 0.0063234777 -0.0068338267 -0.0031866876 -0.0056082485 -0.0010281644 0.001745259 -0.005880533 0.0039002907 0.0050076526 0.00026798132 0.0017910235 -0.005910674 0.0033326098 -0.0077791973 -0.005411937 0.0030947716 0.002095087 0.004672745 8.904791e-05 6.547412e-05 -0.003410906 0.0040222015 0.00492313 -0.0068607638 -0.0015435845 -0.004005618 -0.003848356 -0.004904415 0.00023165299 0.0017103306 -0.0037564575 0.0012261184 0.0005520698 -0.00048523577 -0.00063462195 0.0027598457 -5.2583167e-05 -0.0056734 -0.0008827401 -0.00090386806 -0.006197565 0.005444526 -9.690725e-07 0.00375131 0.0011247558 -0.0016363013 0.0040596393 -0.0021932265 -0.0005918947 -0.0029172604 -0.004605418 -0.0039919233 -0.0017522163 0.0013069048 0.0040143924 0.003089204 0.0002481549 -0.0038837353 -0.00336505 0.0003371644 -0.0030850994 -0.0024428992 0.0021837777 -0.0044937087 -0.0035641463 1.2859814e-05 -0.0014430747 -0.0013065663 -0.0019561383 -0.0059337327 -0.0034198212 0.001991415 0.004017892 0.0038372993 0.0012206247 0.0010233718 0.00062646397 -0.0005071033 -0.003798177 -0.0020706465 0.0059041334 0.0008788801 0.000471137 0.0014275191 0.0010493217 -0.0016548908 0.001719099 -0.0025045467
信息 -0.004760203 0.0012619343 0.0037001274 -0.0003204494 0.0047990363 0.003659711 -0.003519504 0.0026214926 0.0014552341 0.0014239353 -0.0026227103 -0.003978214 0.0033939292 0.00014015644 0.0025646596 0.0017697252 0.0036966351 0.0044440334 -0.0019695906 0.0022864337 -0.0010524989 -0.0015478362 -0.0045367843 -0.0055918708 -0.0044774613 -0.0063078916 -0.0049604257 0.0005736954 0.0030893371 -0.0014130636 0.002843399 -0.0017659926 -0.004327711 0.0026672706 0.0019963796 0.0001717525 0.0019609758 -0.0035904709 -0.002075366 -0.0018681107 -0.0011458067 -0.0007863617 0.002621682 0.00038195524 0.002351298 -0.004559566 0.0040645 -0.0008100565 -0.0027221825 0.00089046225 0.00031068202 -0.005010811 0.0017227213 0.0020634588 0.005427332 0.0049861623 0.0047991173 0.0042712353 9.409467e-05 -0.0017443807 0.0051387143 -0.0016661003 -0.0037100099 0.0025291175 -0.0030207636 -0.00084794476 0.00031235398 0.0017833661 -0.0029794842 -0.0024520876 -0.0040673343 0.0026866938 0.0031208608 -0.0025680168 0.00027031446 0.00010123594 -0.0050531467 0.003007711 -0.00091433304 0.0009396058 -0.0013283951 -0.0045264345 -0.0034807248 -6.259135e-05 0.0031411867 -0.0026852218 0.004526122 0.0016904158 0.0010187471 0.004091898 0.0036018149 4.1139892e-06 0.0049200845 0.004177955 -0.0027195555 -0.0028633452 -0.0021246604 0.0005824636 -0.003435669 0.0043165246
中 -0.0039040332 -0.0020056288 0.0010165097 0.00070789753 0.00010354664 0.00020015647 -0.0031019424 -0.0017577336 0.0027091235 -0.0016705671 0.0013807368 0.0020313608 0.0055104955 0.0025483104 -0.0035712314 -0.004983433 0.005586262 0.0071595777 0.002135685 0.001153985 0.0045524794 -0.0012115667 0.00038847522 0.0023260578 -0.0029616302 0.0008277767 -0.000857575 -0.0015085356 0.008163992 0.0008076704 0.0058254786 0.005148712 0.0035504445 0.0016508697 0.00068531086 0.0013846528 0.0008476376 0.004577394 -0.0036393201 0.0014677151 -0.0031652926 0.0010907158 -0.0002228492 -0.0035802124 0.003093812 -0.003169324 -0.004770981 -0.0027692306 -0.0032097076 -0.0023178493 -0.002857286 0.0025685825 0.00086942164 0.003805581 -0.0016909493 -0.0017488195 0.0032887901 0.002286282 0.0030267774 -0.0021900053 0.002449155 0.00439623 0.002221527 0.0043286863 0.003656131 0.0055833505 -0.0011054002 0.0035281528 0.004309967 -0.004196293 -0.0035002697 0.003442974 0.0001643647 -0.0062484434 -0.004466171 -0.0022402338 0.0019462003 -0.0011536455 0.003036578 0.003671397 0.0014197623 0.003041404 0.0027060611 -0.0038911197 0.0057383827 -0.0028013655 -7.434765e-05 0.0030386827 -0.0006644483 0.0044508507 -0.001750037 0.0006589561 0.0036585182 -0.0029622063 -0.0053071687 0.0023799038 -0.0047160466 -0.0073099965 -0.001083252 0.0037084506
我国 -0.0035853595 0.0020843404 0.003206779 -0.0039914073 0.005712998 0.0022877732 0.0017972509 8.380538e-05 -0.00378243 -0.0044040917 0.0016778688 0.0027943868 0.0026016992 -0.0035067357 0.0038008518 -0.00047269155 -0.0012634544 0.0014879635 -0.005255586 0.005146703 -0.002738626 -0.002367323 -0.0030572638 -0.00052614545 -0.0035196356 -0.004750266 -0.0047014337 -0.0058508343 -0.00035001617 0.0009698925 -0.0018934236 0.00071339065 0.0010621455 -0.0054719076 0.0034016946 -0.0057726647 0.0038661372 -0.0003157253 -0.0005260586 -0.0015027389 -0.0016581189 -0.0029246898 -0.00067488354 -0.00050580513 0.0003645329 0.00248094 0.0018368801 -0.0034694173 -0.0010988292 -0.005778378 0.0022587806 0.0025262432 0.0009905245 0.0042566457 0.0054368232 0.0002555635 9.877435e-05 0.0014006136 -0.0014172498 -0.0013980014 -0.0005302759 0.0024141727 0.00039431185 -0.0015124836 0.00065920537 -0.0023641302 0.004316517 0.0037229413 0.0046530934 0.0034676765 -0.004786558 0.00051228533 0.0016198417 0.0025725309 0.0012110288 -0.0048425267 -0.0019141292 0.0017692635 -0.006056008 0.00034263675 -0.005386377 0.0024932015 0.0022725668 -0.0033861368 0.002716936 0.0041173794 -0.0005930866 -0.0022592177 0.0029800031 -0.0034010329 0.0010801364 -0.0029408538 -0.0029622768 0.0042560385 -0.00095902727 9.484791e-05 -0.0015697251 0.00030724378 0.0014670274 -0.0037902505
政府数据开放 -0.0018098063 -0.0049253297 -3.1169824e-05 -0.00021650261 0.004934807 0.0052067637 0.00026437832 0.00041728522 0.002977833 0.0002057302 -0.0001097272 0.0006734169 0.0014445867 -0.0024310544 0.0024159376 -0.0030928736 -0.0039481604 0.0014386274 -0.0029824472 -0.0018033024 -0.0019208296 0.001958991 -0.0006568178 0.003578452 0.0037525818 -0.006432271 0.00031033045 0.0010678205 -0.0016072551 8.688094e-05 -0.0018529772 0.0044540055 -0.0053585568 -0.003599527 -0.0024525537 -0.0013198626 -0.0006411926 0.0012637161 -0.0036056642 -0.0043640416 -0.0038007775 0.0029665676 -0.0008208512 0.0030666303 0.0051545245 -0.0051388466 -0.003742422 0.0037610745 0.0011120755 -0.004398101 -0.00055427256 -0.0016817624 -0.0007224717 -0.0028833242 0.0043137036 0.002085473 -0.003309445 -0.00022584196 0.00017305736 -0.0020429767 0.0033388478 0.0062127234 -0.0022163773 -0.0012947699 0.00037964917 -0.0012822305 -0.0019439873 0.0045942925 0.0015412066 -0.0046222853 -0.0029949886 0.0037543157 -0.0010274426 0.00011365251 0.002710492 -0.0014767983 -0.0057061096 -0.0033069076 2.5816556e-05 -0.004023932 0.004164795 -0.0016978787 -0.002149547 0.0038965512 -0.0010105696 0.0031031107 0.0016533324 0.0051155975 -0.000676991 0.0017887842 0.004617494 -0.0022887394 0.0050714277 0.0018575568 -0.0039992644 -0.00025073206 -0.0034109175 0.0007007316 0.0019322941 -0.0056201583
管理 -0.0020641247 -0.0026428679 -0.0011963608 -0.003659875 -0.0003088002 0.0018574385 -0.0037066287 0.005838923 -0.0038724048 -0.0027693808 -0.0027548783 0.0015282669 0.0057993685 -0.0029709418 0.002675898 0.00026443944 0.0019297949 0.0063577225 -0.0011749557 0.0012540327 -0.0019328635 0.003391926 -0.0025651588 -0.0042368253 -0.0022251296 0.0006276351 0.0013895497 -0.0016505101 0.0024322586 -0.0041320324 -0.0032528117 0.0060203117 -0.0011288744 -0.005444453 0.0019846854 -0.0071520265 -5.6635858e-05 0.0050938455 -0.005745998 -0.0012946372 0.00536382 -0.0035727066 -0.005808631 -6.2715015e-05 -0.0012103893 -0.0007611032 -0.0056833504 0.004196663 0.0040900107 -0.002575405 0.0013548128 -0.003211957 0.0018740437 0.0038925537 0.0014071462 -0.00013028985 -0.0016320549 -0.005381813 0.0028481686 -0.0034005623 -0.0030167745 0.0008398258 -0.0014464784 -0.0017666962 0.0064339926 0.004830672 0.0042258184 -0.001158517 -0.0029547685 -0.0024361853 -0.0007418008 -0.0005064925 -0.003049159 -0.006148565 -0.0047555305 0.0014552063 -0.0049384036 -0.0017732246 -0.0030807913 -0.0034535592 -0.0042239404 -0.0013294434 0.0012978154 -0.003596508 -0.0007114937 -8.1379316e-05 0.00019143078 0.0019757836 -0.0004785339 0.0009358506 0.0010499369 0.0038717662 0.0051509957 0.003676517 -0.0018578679 -0.003925472 -0.0017710221 -0.00021511686 0.005995673 -0.004800368
开放 -0.0051455386 -0.0050682668 -0.0013081538 -0.0004064321 -0.0029426669 -0.003216656 -0.0004820953 -0.0011975237 -0.00125902 -0.00375399 0.0018802764 -0.0034824505 0.003089397 -0.0019944108 0.0022806076 -0.0049846177 -0.0026616715 0.0023496493 0.0020164717 -0.0018903387 -0.004326079 -0.0019523684 5.372507e-06 -0.0011105136 0.00032295726 -0.0008041283 0.004426633 0.0034785254 0.0049321917 1.2475034e-05 0.0025931264 0.005541788 0.0024848206 0.0003659058 -0.0023678888 -0.00162602 -0.003654121 -0.0034694136 -0.0038055414 -0.0033290603 0.00029929352 0.0033916235 -0.0009323603 -0.0032453015 0.0037743766 -0.0054763015 -0.0002464491 0.00041126367 -0.0010703086 -0.0011427986 0.0049281796 -0.0015764127 -0.0050351317 0.0056137703 0.005217746 -0.0035585256 -0.0025420105 -0.004203577 -0.0022740655 0.0006632097 -0.0043064775 0.004867124 -0.004676333 -0.0036793412 -8.368189e-05 0.004271016 -0.003592963 0.004486438 0.0021371795 0.0017771143 0.0004373531 -0.0011045873 0.0006109089 -0.0021527966 -0.00420775 -0.0033234616 0.0030607423 -0.0036460098 -0.00481232 0.0022400687 -0.0002981596 0.002310434 0.0013318184 -0.0036912677 -0.0034914135 -0.0016851244 -0.0030866368 -0.0006666479 0.004487785 0.0024034632 0.003297097 -0.0036483342 0.0031330301 -0.00022067384 0.000695224 0.0024137062 0.0026083717 0.0018426976 -0.0015372082 -0.0012727708
平台 0.0006420623 0.00018557343 -0.00051437365 -0.0033102236 0.0050356714 -0.0003126716 0.0017663118 0.0019983675 0.0013928225 -0.0013995086 0.0003381167 0.0028561382 0.0033900351 0.00030143408 0.0023076127 0.0014330369 0.004180654 -0.0028613256 -0.0032729222 0.0007952755 0.0006071786 -0.0020064488 0.0016069885 -0.0015950219 0.00080179033 -0.00019901087 0.0012192926 0.00062869844 -0.0005090314 0.0048886715 0.0002489812 -0.0015377854 -0.00437988 -0.003853121 0.00036725344 -0.005162151 0.0010311475 0.0013560686 -0.0048317886 0.0030063111 0.0058246637 -0.003616019 -0.0033483258 0.003166791 0.0018632184 -0.00087434467 0.0033804283 -0.005131728 0.0036593524 -0.005190732 0.004977084 0.0013147574 0.00023149965 0.0032323957 -0.0007911335 0.00010016833 -0.0023498668 -0.0038021337 0.0056346697 0.004311891 -0.0025599697 0.00566314 -0.0004524054 -0.0042757317 0.00445659 0.006029862 -0.002867681 0.0008940025 -0.0032224052 -0.0023877637 0.001156918 -0.0035680747 -0.0009425373 -0.0024619296 0.0031086253 0.0035603568 0.0017413741 -0.0005366703 0.0025816127 0.00012717982 -0.0009957389 0.003691358 -0.0034488037 0.0036831694 -0.0025202162 0.0025088228 -0.0039364244 0.004825851 -0.003878151 0.0035854634 0.004379337 0.0037571066 -0.0032421548 -0.0003258845 0.002499635 -0.0048098876 -0.0017682617 -0.0018892994 0.0009924272 -0.005546791
国家 -0.0049208635 -0.0010941831 -0.0008871436 -0.004334099 0.0028263459 0.002681436 0.00400296 0.0026944473 0.0039054437 -0.0031084993 0.0040590693 -0.0024253908 -0.0024793209 -0.006450972 -0.0022686345 -0.00086821674 0.00492634 0.0059582167 0.001090629 0.0041738083 0.0036361483 0.0014815908 -0.002891977 -0.0035285517 -0.0037093856 -0.00432335 -0.004498636 -0.005424815 0.0033449712 -0.0039257575 -4.834973e-06 -0.0018707499 -0.00040812136 -0.00073435745 0.0002496252 -0.0032306155 0.0019410449 -0.0027681582 0.0023898236 -0.0059814993 0.0030395247 0.0016131238 0.0019772039 -0.00440829 -0.0006839193 -0.0040364135 -0.005963758 -0.005028162 -0.00498361 0.001438939 0.0038187595 0.003745415 -0.004327553 -0.00271944 0.0056632985 -0.0012252503 0.0022574486 -0.002911272 -0.0034036743 -0.0015540929 0.0021605706 0.0018380927 -0.0030451019 0.0016769059 0.0040815426 0.00051761523 0.0057699275 0.0012681235 -0.0002776922 0.004395365 -0.0065348907 -0.0036889147 0.00080050767 -0.0069685914 -0.002449291 -0.0005571453 -0.006364392 -0.0036961026 -0.0018798647 -0.001129934 -0.0012546116 -0.0037165692 0.0014914932 0.000520256 0.0015622777 -0.0004174566 0.0033539871 -0.0021234693 -0.0027810084 0.00391998 0.005745179 -0.0037124227 0.0050205383 0.0009933516 -0.0049815015 -0.0027248724 -0.0037420238 -0.004430426 0.0021710785 -0.0032719737
部门 -0.0028969615 -0.0009476441 -0.0024533288 0.0036931783 0.002621313 0.002564057 -0.0022070312 0.0008094372 -0.0037482043 -0.0020393177 0.0033259294 -0.0033162704 0.0038551828 -0.005019792 -0.0017602373 0.0023216156 -0.0013961719 0.0026800623 -0.0030197431 -0.0010030052 0.0033213282 -0.000583715 -0.0042069573 -0.0040121325 -0.0014043667 -0.0008211517 0.0042454978 0.0037408818 0.0026481026 -0.00019036738 0.0033997425 -0.0031743124 -0.002455818 -0.0024099452 0.0056377444 -0.0007302601 0.0049484135 -0.0015469004 -0.0039541675 -0.0016155036 0.0006828485 0.0020191192 0.0019824372 0.0032581717 -0.0031155923 0.0036870353 0.0036717881 -0.0039358605 0.003980329 -0.0011408624 -0.0005165035 -0.0017947945 -0.0008823145 0.0009313945 0.00194831 0.0029000444 0.00172064 0.0032328488 -0.0006501307 -0.0008839372 0.002526632 0.0024649613 0.0031163553 0.00088765397 0.0017227491 0.00547236 0.0018949059 0.0032402808 -0.0025307676 -0.001561767 0.0006739206 -0.00013726058 0.0018008644 0.0028837651 -0.0058632847 -0.0035262033 -0.0011588252 -0.0010987865 0.0037979134 0.0045962064 -0.001877242 0.0003321662 0.0047179717 -0.0011369677 0.0032203016 0.0016414119 0.0043406505 0.0003413253 0.0041376418 -0.0033987102 0.00048692475 0.0042891246 0.0023683847 -0.0012775166 -0.0005273209 0.0016551359 -0.0008528734 0.0006754626 -0.0025284209 0.0027074004
制定 -0.0037380594 0.0025258244 0.00028094588 -0.003708881 -0.0012748851 0.004998007 -0.0051612495 0.0046181316 0.0049128137 0.003912924 0.0055451766 0.0014867986 0.0017293126 0.0032438824 0.0033592728 -0.003382155 0.0042331596 0.0045503727 -0.0019079106 0.0010362758 3.586308e-05 0.0045024683 9.325048e-05 -0.0006312302 0.00039878974 6.269508e-05 0.0010508084 -0.0042907987 0.004182301 -0.0010818683 0.0013125108 0.00045479907 -0.004801172 0.0013927328 0.003150138 -0.0025807219 -0.003498449 0.0038254578 -0.0019903416 -0.0009278918 -0.0032434918 -0.0025295354 0.0005319089 0.004347821 -0.0026884682 -0.003978176 0.00048687405 0.0033062065 -0.002574255 -0.0031956653 -0.0018072813 0.0021259505 -0.002383332 0.0043288604 -0.0027672844 -0.00097095955 0.0033406776 0.004412468 0.0030110157 0.0019637735 0.0006812238 0.0022123626 -0.0002248035 0.004090805 0.004600925 -0.000984032 0.004606844 0.003333839 0.0027845418 0.0010330782 -0.00056247716 -0.00027452386 0.0036794133 -0.006109834 0.00329032 -0.0045272675 -0.0037682024 0.0013354528 -0.0035390407 -0.0033775822 0.00088336633 -0.0025774583 0.0038059147 -0.003261663 0.00086800725 -0.00059720594 -0.0049507353 0.001349871 -0.003571482 0.0041973754 -0.0042672497 -0.00038915043 0.00048044964 0.0018478133 -0.0037045088 -0.0024903172 -0.004745099 -0.0055948594 0.0023153254 0.0019305709
相关 -0.0006961263 0.0025317592 0.0032093232 -2.5789353e-05 0.0034063067 0.0025362845 0.0011373184 0.0041918955 0.0011546867 -0.0038546622 -0.002393359 -0.004671542 0.0015390593 -0.0043096463 0.0047855107 0.0017146248 -0.0015304816 0.007114129 -0.00033541172 0.00096076896 0.00469289 0.0021986305 -0.004166514 0.0016461733 0.004013613 -0.0020318371 -0.005040515 -0.0016521172 0.0012996012 0.002387921 0.0011685773 0.0058627324 -0.0030002128 0.003749796 0.004016589 -0.005437893 0.0013499357 -0.0005181597 -0.0022434506 -0.0063236794 0.0052396515 0.0015881493 -0.00469365 0.0043595936 0.0021693814 -0.004413225 -0.002370961 -0.003732066 -0.0022320396 0.0017312556 0.0031124374 0.0033763673 -0.00012682198 0.0005953396 -0.0038091943 0.004507672 0.0016977555 0.0019200941 0.00081170246 -0.003997449 -0.002241837 0.0055419332 -0.0024437362 -0.0012048627 -8.430449e-05 -0.002760271 -0.002113155 0.0031479795 -0.004006004 0.0011417553 -0.003668252 -0.0028054793 -0.004498085 -0.0041956846 -6.742643e-05 -0.0034929288 -0.0032332412 0.004378154 -0.0015914498 -0.0010023525 0.0044735326 -0.0033137884 0.0020781728 0.0013222555 0.0056009176 0.0037384254 0.00092055555 0.0015418542 0.0012728674 0.0008414482 0.0055374196 -0.0013360841 -0.00022420308 0.0018663126 0.0029412745 0.0027792186 0.0011195943 0.0014490904 0.005754318 0.003125495
研究 0.003561986 -0.0013159113 0.004077333 -0.001385773 0.0012442233 0.0046861917 -0.0048893644 -0.0007735286 0.0038641319 -7.6156095e-05 0.00023230922 -0.0040532285 0.0014610766 0.00012646713 0.003358586 -0.004554155 -0.0036218367 0.004238654 -0.0007492417 0.0058805845 -0.0009639708 0.0012740048 -0.0021187302 0.002218863 -0.0019055619 -0.005064749 0.0008851268 -0.003875443 0.0015117353 0.0021489048 -0.0041238116 -0.00048398666 -0.0021672994 0.0035696065 0.0009560699 0.0004764399 0.0009381472 0.0008276134 -0.0031556382 0.0010121156 0.00053011725 0.0018618238 -0.00087612635 0.0016929196 0.0021971022 -0.002954517 -9.765358e-05 -0.00038462182 0.00052361726 0.0017041025 0.0009199318 0.00026623788 0.0020608862 -0.003770545 -0.002771114 -0.0021051595 0.002118899 0.0008790828 0.0012125181 0.004708201 0.0029031557 0.005309279 0.0042296727 0.003772787 0.0056458353 0.0057234922 -0.00410942 0.002160689 -0.0021307853 -0.0014075773 -0.0012095586 -0.0028881722 -0.0008660859 -0.0027998977 -0.0029448664 -0.0025975583 -0.004814963 -0.002480387 -0.005076008 -0.0050228857 0.0007970498 -0.001594759 -0.0029130566 0.0044942405 0.0008132876 0.0020290194 0.0005531837 0.005714526 -0.004110763 -0.00094645936 -0.0035519276 -0.0040131086 0.0025897834 0.0028514173 -0.0004520132 -0.0018746696 0.0044677183 -0.0041085472 0.0038645803 0.00039340497
系统 0.0007306442 -0.005638872 -0.0018986795 -0.0049948115 -0.0023846924 -0.0021542034 -0.0030613188 0.0054584686 0.0017609554 0.0010581323 -0.0037772676 0.00018399744 -0.0029883652 0.00073876564 0.0046633338 -0.0002851945 0.0055906293 0.0053300634 -0.0001610404 0.0050684484 0.0034278983 -0.0032842765 0.0039285677 -0.001688116 0.0035532662 -0.0029215578 0.0044795186 0.0038814037 -0.0003356291 0.0045148996 -0.0007851051 0.0006734498 -0.004128641 -0.0033882365 0.005148462 -0.0028813316 0.0038167555 0.0048702424 0.0013851019 -0.0035853765 -0.0025102235 -0.00039902807 0.0037400194 -0.00065602094 -0.0022466881 -0.00092658534 0.0019619258 -0.00075400044 -0.0033881054 -0.00635834 0.004344883 0.0045808926 -0.0010233937 0.0059842323 0.0003591771 0.0006578038 -0.003163788 -0.0043339753 0.0014800782 0.0030951547 0.0021590574 -0.0014793044 -0.0024476042 -0.0050204233 0.0057093734 -0.00088959135 -0.00040130774 -0.0013625227 0.00028206542 -0.0010506726 -0.0029134299 -0.0045193527 -0.003963035 -0.002496287 -0.0030318757 0.0035591465 -0.0024980104 -0.00041399294 -0.0060303914 0.0047969194 0.0014013891 -0.0029643052 0.0042837514 -0.002282116 0.005502511 0.000116544754 0.0015748389 0.0028968037 -0.0013713578 -0.0015704712 0.004068578 -0.0008837242 -0.002881038 -0.0011893314 0.0035606516 -0.001989929 -0.0012452473 -0.0033502122 -0.0018164327 0.0015885516
包括 -0.0049090507 -0.002590517 0.0018175559 0.0018809815 -0.00054716726 0.0028472522 0.004335492 -0.0015059456 -0.0035042171 0.0025600262 0.0051833745 0.0014437896 -0.003535434 0.0036630703 0.0036887515 -0.0016797596 -0.0023262517 -0.0027692202 7.0450085e-05 0.00351478 0.00072022795 0.0023934476 0.0015760394 0.0012181374 0.0036075728 -0.001988693 0.0036220585 -0.0001243985 0.0007156621 0.002384053 0.0014575502 -0.00048254122 -0.0046558576 0.0016729835 -0.0043723728 0.0003684715 0.0023230508 -0.0009876853 0.0014720194 -0.004082082 -0.0017857492 0.0034007987 -0.0037982538 -0.0038665498 -0.0043307124 0.00027111312 -5.605781e-05 0.0032591524 0.0024099774 -0.0061886646 0.0037720648 0.0013492645 -0.0035815162 -0.0028878213 0.0016123268 0.0018073849 0.00041108814 0.0043531926 0.00014291145 0.0036535764 -0.0023636401 0.0038041302 -0.000740286 -0.0034980632 0.003947702 0.00048000904 -0.0041590435 0.0046016285 0.0030355894 -0.0037332883 0.0033086133 -0.0041434933 -0.0008901486 -0.004088511 -0.0032894525 -0.0029963779 -0.005128936 -0.00035389993 -0.005370463 0.0041955006 0.0036196294 -0.0016766075 -0.0009205868 -0.0016220117 0.0027680765 0.0010875063 -0.0018846397 0.004664357 -9.7821314e-05 0.0035039624 0.0034748414 0.00041275437 -0.0014321308 0.005129148 -0.0043353206 -0.00018016317 -0.0041928976 -0.0060827327 -0.0002474214 -0.0048172185
政策 -0.0061668213 -0.0029045 -0.0026246516 0.003620396 0.0019317565 -0.0014870025 -0.0014050177 0.0014644376 -0.0021254858 -0.000546453 0.004931371 -0.0002467682 -8.4742234e-05 -0.0018407525 0.0009147405 -0.0027824135 -0.0026143678 0.0067123133 0.0036208523 -0.0008676371 0.00351738 -0.001933699 0.0008778922 -0.0030942727 0.003404358 -0.0064788642 -0.004180188 0.0020358327 0.0016704343 0.0005373979 -0.0008238846 0.0033109211 -0.0022551704 0.002400533 -0.00361919 -0.00044677712 -0.0017778086 0.0024709292 -0.00092782476 -0.0010006086 0.0013810889 0.0038116276 0.0011451237 -0.0049404576 0.0042753452 -0.003564855 -0.00011953051 -0.0010194563 -0.002888392 -0.0061006704 0.0020863267 -6.212524e-05 -0.0053936755 0.005116715 -0.00041959927 -0.0021462333 0.0035895589 0.0013132673 0.0044145933 -0.0013221657 0.0018858316 0.0036828648 0.0024776182 0.0025725123 0.0036660426 0.0036271133 -0.0011957167 0.003085289 -0.004727919 0.0015074398 0.00023171566 0.0035014732 -0.0032848534 -0.0021047413 -0.00066927506 -0.0026353905 -0.0017050902 0.004500899 0.00021335589 0.0032581333 -0.0043947217 -0.0006051907 0.000651551 -0.0002671316 0.0014361573 -0.0006372729 -0.0022016976 -0.0009294173 0.004375235 0.005267948 0.005125363 0.001471672 -0.0020055417 -0.00401521 0.0027607281 -0.0015038254 0.0034750276 4.9466486e-05 0.0035162508 -0.0053296657
数据开放 -0.0013009119 0.0036189414 -0.00438048 -0.005248594 0.0008988987 0.0028375161 -0.0010725684 0.0061741928 -0.00014150729 -0.00084984564 -0.0008446083 0.0020561665 0.0007312988 -0.0032900092 0.0034791222 -0.0051069763 0.0042027007 0.0062387935 0.00049100065 0.005241725 0.0052021933 -0.0010870032 0.00387002 0.0027711722 -0.0018526885 -0.0026700986 -0.0026049556 -0.0007275245 0.003203184 -0.0043390766 -0.0026306289 -0.0012698144 0.0011668715 0.0015190335 0.005469841 -0.0015110141 0.0015472951 -0.00032916106 -0.004753618 -0.0008891154 0.0028398596 -0.0037791545 -0.0021738356 -0.00233241 0.0050557265 -0.0029605024 0.0038031237 -6.820944e-05 -0.0012450237 -0.004845982 -0.001535856 -0.003170008 0.00071706565 0.006087993 -0.002257536 -0.0036874602 0.0051605776 -0.0029260821 0.004100369 -0.000869015 0.0010901183 -0.00011846871 -0.0020705503 0.0021820606 0.0016111331 -0.00010275607 0.0034079829 0.003102966 -0.00030327679 -0.0027672641 -0.0070613762 0.0009895504 0.00096322806 -0.001998979 -0.0052526407 -0.0036513126 0.0020732686 -0.004179194 -0.004019192 0.0010167982 -0.004619664 -0.0038617263 -0.0027361622 -0.0029099926 -0.0014013655 -0.003410794 0.0045322548 0.00014004714 -0.0037110706 0.0030089193 -0.0031820587 -0.0039325505 0.0032710484 0.0010626725 0.00043110605 0.0009667831 -0.003087609 -0.005894674 0.0019663933 -0.0037817513
建立 -0.006204887 0.0011207061 0.0017748296 -0.004006689 -0.0037845415 0.005203328 -0.001810291 -0.0018447993 0.0016198407 0.0023199515 0.0047285426 0.0031569626 0.0013062725 -0.0035286592 0.0024807884 0.0027506745 0.004401552 0.002930405 -0.0023366432 0.005549998 0.00082904054 -0.003874949 -0.0018682267 -0.0033576093 -0.004100682 -0.003332051 0.0014826105 -0.0050529577 0.00016924186 -0.00399584 0.003450057 0.002560824 -0.0051531876 0.00435116 -0.0020831518 0.00036329147 0.005673192 -0.0005006784 -0.005642923 -0.0025358524 -0.002356385 -0.00058892474 -0.0027782277 0.0034026892 0.0028799598 -0.0045575076 -0.0010335571 0.003874216 -0.0042609167 -0.0023690828 0.001515785 -0.0026038126 -0.00047313506 -0.0017039849 -0.003897228 0.004341998 -3.3537547e-06 0.0032295238 -0.0026270882 -0.0006540323 -0.0003954142 0.002732493 0.0026270074 0.0023612771 0.0037349148 0.0043375245 0.0033063388 0.0005916555 -0.00488515 0.004011795 -0.0014707111 -0.0042596157 0.00511079 0.002171226 -0.0038059517 0.0016676531 0.0017621178 0.00045207405 -0.004554565 0.0043865447 -0.0043469365 -0.0029433249 -0.0034562147 0.0024302932 0.0036888635 -0.0009952702 0.0027207688 -0.0007953994 4.659843e-05 0.0044684177 0.0041803564 -0.0024814517 -0.0031885228 -0.0021935757 -0.0010265321 0.00046332434 -0.00308533 -0.0041791787 0.0038119028 0.003053793
发展 -0.006596132 9.9138066e-05 0.0049108537 -0.002578087 -0.0010846837 0.004065461 0.0028935166 0.0028557493 0.0023770866 0.0033144145 0.0033530407 0.0039831866 0.0053356853 -0.0021071408 0.002967933 -0.0054102475 0.0025892102 -0.0013874277 0.0027433797 0.005094359 0.0055572265 -0.0018068547 0.0013787327 -0.0045951162 0.0019524362 -0.0058448636 0.0042113164 -0.005508422 0.0017811636 -0.0032663422 -0.0015831569 0.0027960592 -0.0025338244 -0.000285813 0.0039345585 -0.0028348423 -0.0015793105 -0.0003276254 -0.0054442277 -0.0052132527 0.005583273 -0.001426963 -0.00015363042 -0.0041293907 0.0021565047 0.00059939275 -0.0035802473 -0.004585227 0.0024626201 -0.004713116 -0.0018079786 0.0026621628 0.0028809328 0.005456802 0.0044684242 0.0014682218 0.00550763 0.0040551377 0.00066551095 -0.0026013858 0.003605648 0.0013432164 0.0027727128 0.0036349187 0.0035225044 -7.432826e-05 0.0004121715 0.0022252777 0.0020181253 0.00083356246 -0.002274138 -0.0046824478 0.0046401382 -0.003235729 0.0019530755 -0.0040524593 -0.002969984 0.002893953 -0.0021072188 0.0001306352 0.0006883399 0.0009291255 -0.0020970106 -0.0004645377 0.0012466557 0.0011718748 -0.0027774326 -0.00085971697 -0.0032760329 0.002124716 0.0050477525 0.00080567447 0.004862902 0.0059077777 -0.002694168 -0.0031425005 -0.00035038346 -0.0017488402 0.005761607 -0.0049501094
推进 0.0036571464 0.00013395317 -0.0013556805 0.0010058923 -0.0026377435 0.0032930234 0.003124059 0.0010641732 -0.00022612595 0.0010099353 0.0003710466 -0.0045829173 0.00040816903 -0.0026717356 0.0011528273 -0.003049496 0.0018194626 0.0017073008 -6.295901e-05 0.002532428 0.0012292691 -0.0015413705 0.00097080506 0.0024062844 0.0016174585 -0.0036576507 0.0027831388 0.004026445 0.005865028 -0.0013822463 0.005053704 0.003757335 -0.0029449582 0.0031692602 0.0034756607 -0.0040958393 0.003664233 -0.0020980877 0.0025446725 0.0024073059 0.0026171906 0.004209413 0.0026681267 -0.0021272139 -0.00042480513 -0.0010001172 0.0008519031 -0.0027538452 -0.0004001849 -0.0042545116 0.003954494 0.0014187894 0.0017989349 0.0048430637 -0.00017460399 0.0022523075 -0.001741428 -0.0004349494 -0.003476111 0.0017731132 0.00038874088 0.0055983714 -0.0044222325 -0.0049874773 0.00385068 0.0046935435 -0.0034837457 -0.003022094 -0.0029440997 -0.0010475388 0.0019137167 0.0014967696 -0.0024088228 0.0035599137 -0.0002983032 0.0014811506 -0.0015780304 0.0021660668 9.655739e-05 -0.0027507187 0.00040048148 -0.003938668 -0.0012793819 0.0019002301 -0.002751636 0.00041733557 0.0007308992 -0.0038747927 0.0043259165 0.0039341375 0.004748519 0.0052825087 0.0020951496 0.0028078677 0.0033531578 0.0015397418 -0.0027953594 -0.0054352586 0.004099467 0.0010886793
提出 0.003564652 -0.005323353 0.0032001706 -0.00014141777 0.0035922101 0.0035519174 -0.002974961 0.0053894003 0.005373427 -0.0016786407 -0.0027706076 0.002560989 0.0026643504 -0.0017915047 0.0035691913 -0.00125499 -0.0023525944 0.0041434336 0.001222205 0.0032854716 0.002370982 -0.0047428156 -0.0030731566 -0.00021320704 0.0014643557 -0.00077246607 0.00083548593 0.0011304085 0.0066827014 0.0041502863 -0.0015103207 0.0044245766 0.0041222773 -0.003636538 -0.0028191363 -0.00016206033 0.0017280871 -0.0048432145 0.00015694153 -0.0028510506 0.0053471723 -0.0016616936 0.0041044103 -0.0039164103 0.0041273287 0.0039165304 -0.0011537938 0.0005932 -0.001735743 0.0023435464 -0.001863431 0.0015677449 -0.00225134 0.00510841 0.0033266162 0.0038129285 -0.0017050739 0.0029032514 0.0025396484 -0.0015691152 0.0014814963 0.005038812 0.0046207034 -0.001095551 -0.0037400052 -0.0016677383 0.0020206873 0.0044335388 -0.0011139053 -0.0032947038 -0.0057946756 0.004829186 -0.0022295937 -0.0010438529 -0.0007115731 0.0016533303 0.0018943053 -0.0008813716 -0.0003425039 0.0030180458 -0.00494443 -0.0047556194 -0.0035528087 -0.0041190414 0.0006037798 -0.0038416514 -0.0022961872 -0.0020863255 0.0032296053 0.0008227723 0.0039522424 0.005379999 0.0045845686 0.0031297575 0.0026416727 -0.0007464739 -0.004341369 -0.004406866 0.0022532279 0.001091811
建设 -0.0049273185 -0.0032990982 -0.0032533046 0.0018560049 0.005048877 -0.002781627 0.0043642423 0.0042551407 0.003459307 -0.0015020517 0.0009380522 0.0013955402 -0.0025153446 0.002818873 0.003815346 -0.0052407286 0.0039260164 0.004355064 -0.0031074497 -0.0031311275 0.0013251335 1.6909094e-05 -0.0044004587 0.0029210374 -0.0025725437 -0.003270209 -0.0048849266 -0.0028412512 0.0021978922 0.002223307 0.0032484422 0.0037289325 -0.0016665808 -0.0001857137 0.0033534665 -0.00044136064 -0.0014921513 -0.004319395 -0.0018926115 0.0022737428 -0.0024946749 -0.0013959692 -0.0011527279 -0.0036623206 0.0011204749 2.5860083e-05 0.0012174869 -0.0020842312 -0.0046232864 0.0030557094 -0.0010424486 0.0039696502 -0.0029412415 0.0021241254 -0.0022537147 0.001886996 -0.0006956354 -0.004463198 -0.0003994243 0.0024065569 0.0018209423 -0.0004204323 -0.0038638324 -0.0025748962 0.0007719023 0.0026596058 0.0023533031 0.0012338045 -0.0016239181 0.0013474433 -0.0017243561 0.0050365375 0.0044788662 -0.0009774534 0.0023315316 -0.0017393075 0.0015563709 -0.0041826013 0.0032749912 -0.0006389486 -0.0008090505 0.0035104493 0.00015499884 0.0025673383 -0.00065334997 -0.0018572501 -0.0012231391 -0.0022951493 -0.004501243 -0.0034821148 0.0007802881 0.004912328 -0.0013338333 -0.0014168336 0.0028448228 -0.002041574 -0.0019072356 0.0038409946 0.0049211546 -0.003550307
大数据 -0.0047706543 -0.005641551 -0.00041261505 0.0015749307 -0.002190143 -0.00077488885 0.0004518058 -0.003944756 0.0033138888 0.0014890684 0.00034247918 -0.0011569791 0.0055510635 -0.0058843647 0.003950515 -0.004383881 0.00043970536 -0.00027920696 0.0034930517 -0.00017126297 0.00039480426 -0.0015958004 0.0004886615 0.0030304727 -0.00527771 0.0030919092 -0.004339132 -0.0055483915 0.005662227 -0.0014465672 -0.0034018718 0.006052672 0.0018634098 -0.0018606888 8.7538574e-05 -0.0056003975 0.0011976307 0.0042431443 -0.0043470464 -0.0060946196 0.003293211 0.0005627051 0.003474212 0.0038706006 -5.3841763e-05 -0.005198053 -0.0009735025 -0.0013799928 0.0033491552 -0.004720341 -0.0048564663 0.0025720047 -0.0054848557 -0.0012446627 0.0015019816 0.003589899 0.0020708125 -0.004618362 1.2878323e-05 -4.5343582e-05 0.00011603579 -0.0035728533 -0.004272044 0.004009181 0.0026450723 -0.000121781006 0.00074795383 0.0018990642 0.003263592 -0.00020224054 -0.005986675 0.0016003076 0.0006063516 -0.0027801464 0.0014720099 0.00043175922 -0.0007597897 -0.0020958006 0.0007249939 0.0036124326 -0.0010672829 0.00011577525 0.004510034 0.003820555 -0.003248564 0.0012210015 1.2089899e-05 -0.0015892184 -0.0011579506 -6.991103e-05 -0.0010916147 -0.00048206787 -0.0016131419 0.0009306616 0.0034851984 -0.00157577 -0.0018280442 -0.0029328894 0.0041619544 0.00406299
技术 0.0010789124 0.002091253 0.0021348011 -0.0053666634 -0.003264863 0.002012232 0.0015599501 0.00525473 0.00442703 0.00193392 0.0044089654 -0.0010529123 0.0036126259 -0.0022912284 0.004926876 0.0016805468 -0.003818853 -0.0018218809 0.0030990012 0.0051360815 0.00038434658 -0.0020142642 0.00017873006 -0.0008071637 -0.0026191557 -0.0029955427 0.0016145417 -0.00036782052 0.0036332775 0.0021707271 0.0021560728 -0.0023853255 -0.00019573678 -0.0049565434 0.0019092957 -0.0027768484 -0.002102566 0.00032115786 0.0023988304 -0.0013775355 0.0049708015 0.0025487768 -0.0011511482 0.00096808386 -0.004815931 -0.003310704 -0.0048161275 -0.005177578 0.002309469 -0.006246217 0.0007856662 0.0030645113 -0.0056851436 0.004539731 -0.0035835302 -0.0013071697 0.005092745 -0.003010065 0.00038549516 0.00042216512 0.0005418767 0.006332838 -0.0044919755 -0.00200793 -0.0008376673 0.0022988808 0.005657124 0.006046479 0.0006342094 -0.0014841092 -0.0047842558 0.004194317 0.0042487676 -0.006992459 0.0017297057 0.0025851256 -0.005724278 0.0013220046 -0.0011062402 -0.0009490944 0.004426485 -0.0046686204 -0.0027565667 0.0024469162 -0.00053593057 0.0030775236 -0.002408284 0.0030250484 -0.0011440079 -0.002349235 -0.00062707375 0.002092169 0.0017227406 -0.0037953395 0.002071678 -0.0023139042 -0.0032338859 -0.004505017 -0.0024706165 -0.0054745576
工作 -0.0015046527 0.00071481825 -0.0015029223 -0.00089330284 0.004957595 0.00488307 -0.003948988 -5.1972645e-05 -0.0009507848 -0.0052727344 0.0012398455 0.0034193364 0.0028449045 -0.00066790916 -0.0022561697 -0.005223809 0.00048182844 -0.001525336 0.0010777768 -0.0037519375 0.0011176551 0.0015286423 0.001026805 0.0007932552 -0.005119498 -0.0015163687 0.0035638553 -0.0010623954 -0.003087058 0.0011579058 -0.0032295936 7.283892e-06 0.0007117881 0.0017263052 -0.0044373255 -0.0022261352 0.0009828389 0.0008669784 -0.004809165 -0.001612645 -0.0030953994 -0.0029174683 -0.002674097 -0.0053369044 0.0040052948 0.0039696246 -0.004385506 0.00378102 -0.0036370577 0.0033235056 -0.0021663136 0.003982647 0.0031108905 0.0003913096 -0.0037660324 -0.0014704062 -0.0015417406 -0.002500809 0.0022492327 -0.0012488342 0.005087835 -0.0019079872 0.0021456245 0.00092811236 0.0042332355 -0.00023023739 -5.568994e-05 0.0011028305 0.003525514 0.0037035919 -0.0029020875 0.0032438512 0.0031266252 -0.004675758 -0.00026582403 -0.0020431497 -0.0058867703 -0.00050154695 0.0020662842 0.0024512706 0.0020431194 4.101763e-05 0.0018341145 -0.0037687388 -0.004161094 -0.0027538124 0.0016262331 0.0016870574 0.0040382626 0.00321735 0.0044797035 -0.0014019775 -0.00024150244 0.00511807 0.003525252 0.0028988037 -0.0012947399 0.002719934 -0.002440071 0.0027132344
开放数据 0.0017592149 0.00079701847 -0.0028738042 -0.001991736 -0.003294912 0.004887922 0.0029931676 0.0027527977 -0.003730645 -0.0053188163 -0.004059786 -0.002065306 0.0005059596 0.00077524537 0.0019652138 -0.0010288922 0.003046481 -6.8727044e-05 0.0019616727 0.005678833 0.00036718114 -0.00025378805 -0.0025283156 0.0012876615 0.004522462 -0.0059855906 0.0017738572 -0.0040662973 0.003952406 0.004347872 0.0034378297 0.0017616284 -0.0018916855 -0.0023644806 -0.0010562114 -0.00439222 -0.00031452294 0.0026284463 -0.0034192328 -0.0053483066 -0.0020591728 0.003428353 -0.0019967903 -3.5182413e-05 0.001711231 0.0030749084 0.00024636724 0.0039652577 -0.004204081 -0.005847835 -0.0029418105 -0.00024091499 0.0007229882 0.0015453594 0.003073069 -0.0022605006 -0.003906635 0.0030830076 0.004534825 0.0020204557 0.003551509 0.0005126365 0.003546167 -0.00015035665 0.0038192568 0.0037841378 0.0030735245 -0.0019116607 -0.004035475 0.00043859187 -0.0027877355 0.0025632381 -0.0032750894 0.0016023605 -0.00093420094 -0.0010491158 0.0012423884 0.001507463 0.0036711374 -0.0022220507 0.003516333 0.0032436263 -0.00016840683 0.00033760414 0.0017089915 -0.00024774196 0.0018971796 0.0042823562 -0.004733376 0.003851001 -0.0033712368 0.005259209 0.00503014 0.0033609855 -0.0024848492 -0.0039871885 -0.005176673 0.0030443307 -0.0036920125 0.0029175528
统一 0.002853129 -0.0055836313 0.0048627844 -0.0030693535 -0.0032234362 0.003009127 0.00081274833 2.0017582e-05 -0.0014240872 -0.0039262157 0.0049533094 -0.005101399 0.00048759228 -0.000838427 0.0036003601 -0.0050245277 0.0019654976 0.0006512717 -0.0040092184 0.0025376612 -0.0017815292 -0.0026092024 -0.0018873768 -0.0052362727 -0.00094648794 -0.0008235933 -0.0045610084 -0.003714216 0.001559481 -0.004266226 -0.0023814922 0.0051634475 -0.0044190446 -0.003420424 0.003087308 -0.0058236173 0.0038369163 0.0036217133 -0.004559623 0.00025518585 -0.0033716448 0.0008481981 -0.0031995077 -0.0011164912 -0.0032202627 -0.0042330376 -0.0032624933 -0.0023210316 0.0042544305 -0.006057803 -0.003984298 -0.0019316551 -0.001297862 0.0011936652 -0.0020002488 0.004309392 -0.0009470966 0.0001658483 -0.003939861 -0.002482886 -0.0041158004 -0.001228311 -0.004354191 0.003525747 0.002875457 -0.0032894951 0.0014128793 -0.0014631867 0.0023627083 0.0028457495 -0.0012403728 0.002896993 0.0015759346 -0.0048143677 -0.005257594 -0.0058473772 0.0010807929 0.00028412795 0.002016278 0.0006167605 -0.0025853836 -0.0027389815 -0.00015430432 0.0052848095 0.0034355402 -0.0027576685 0.00067971466 0.0033826989 0.0011141743 0.0060708593 -0.004205195 -0.0024005985 0.0020463462 0.0025781621 0.0012958 0.00077625224 -0.0024638306 -0.0021450913 0.0015042287 -0.004733067
过程 -0.0011150128 0.00023852836 0.0015070186 -0.0003252334 0.0005089658 0.0012099278 -0.0024497905 -0.00027195193 0.002878869 0.0009986355 0.004678621 -0.0032565338 -0.0012265529 0.0016545118 -0.00028493762 -0.002143077 -0.0003701876 0.004381111 0.0008613013 0.00055425905 -0.0031571833 0.0038797818 -0.0010609856 -0.00021927344 -0.0036671374 -0.0044588433 -0.0042713745 0.0010512251 0.0041831336 0.0014802894 -0.00085883396 0.0058712284 -0.0029224204 -0.0022594645 -0.00040482805 -0.0013162554 -0.0012942734 0.00029781344 -0.002322706 -0.0014424478 -0.0012260091 -0.0032496909 -0.0030374883 0.0014105694 0.0005959511 0.0007464492 0.0014898737 0.0034053128 9.166275e-05 0.0008965661 0.004935754 -0.00063867134 0.0040970114 0.0002145692 -0.0012011748 0.0045435685 0.0008002497 0.002245203 -0.0027660336 -0.0048156017 0.0043283356 -0.002675498 0.0029917934 0.0022962105 0.0037288945 0.00307021 0.002261525 0.004578174 0.0002635523 -0.0021957827 -0.006695654 0.0009942319 0.00016900407 -0.0029602833 0.00021427526 0.0019573257 -0.0040765 -0.0032377744 0.0037231813 -0.0013122741 -0.0025583021 -0.0021064053 -0.0045574643 -0.002678266 -0.002649982 -0.0036866732 0.0045115803 0.0019299521 -0.0042763897 -0.0004617779 -0.0019414144 0.004408101 -0.00019118343 0.001526164 -0.00601746 -0.0019552868 -0.003838863 0.0013482377 -0.002410044 -0.00418631
推动 -0.0012466569 0.0028854397 -0.001865604 -0.0036394554 0.005410231 -0.0014974636 0.00025494647 0.0014533337 0.0040591946 0.0034876652 -0.0011165575 0.00078305457 0.0028522846 -0.0023823418 0.0009748328 -0.0035026965 0.0035044204 0.0019108505 -0.0038766754 -0.0019169338 0.0028929517 -0.0036300349 0.0029704492 -1.0016196e-05 0.004205399 0.001320351 0.0015599171 0.0022680494 0.0023132632 0.0008395412 -0.0027686984 0.004453391 0.00024319474 0.0023683493 0.0021890616 -0.004045911 0.00031756144 0.0017469429 -0.003203715 -0.0032823985 0.0053768437 0.0026650603 5.538333e-05 -0.001321003 -0.0046553416 0.0030112152 -0.004848069 -0.0049221823 -0.003936725 -0.003206529 -0.0011761348 -0.004659009 -0.004300443 0.005071531 0.0031545325 0.0041902037 0.0017453679 0.0043913117 0.0048235105 0.0048633935 -0.0037880507 -0.0012330286 0.0033537573 0.0009332682 0.0009536385 0.0035380556 -0.00052708614 -0.0016771201 -0.003577106 -0.0020532212 -0.004568409 0.002547294 -0.0002612539 -0.0028138228 -0.0037011246 0.0004119965 0.0021453544 0.0047801244 -0.0009927895 -0.00055749033 -0.0013878541 -0.00091622194 -0.0028845777 0.004369178 0.0029275005 7.9049525e-05 0.001805724 -0.004369633 0.0020384719 0.005575619 0.0031776687 0.0040136585 -0.00032422313 0.004399984 -0.00406318 -0.0007524727 -0.0032429742 -0.00084944227 0.004187153 -0.0047266507
社会 -0.002901843 0.0030319863 0.0045880545 -0.004613927 0.0054218927 -0.0018687462 -0.002572823 -1.6384962e-05 0.0030177329 -0.0014281526 0.0013455437 -0.0050224746 0.0031553595 -0.0035732698 0.00095411093 -0.0051984335 -0.00221994 0.005643101 -0.002484946 0.00036468514 0.004432051 0.0013023528 -0.00041364747 0.0016444757 -0.00452412 0.0023329738 0.00037550152 -0.004489756 0.004693844 0.0038183436 0.0021932665 -0.0013188387 -0.002597694 0.0011162458 0.0006325527 -0.0034191634 0.004298502 0.0035990644 0.0015264732 -0.00015057514 -0.002965489 0.0034724025 0.0032093169 0.000935693 -0.0007493352 0.003210255 0.0031758 0.00031325125 0.002492442 0.0036400156 -0.004493349 -0.004768523 -0.004063494 0.00197233 0.0049062 -0.0017286016 0.0030450542 -0.0019639528 0.0025697672 -0.0024077503 0.0011766619 -0.0027030155 0.0010639342 -0.0024270618 0.0013417945 0.0005151138 0.0056131203 0.0029972452 -0.0028031238 -0.0041607814 0.0014701068 0.0038859786 -0.003908419 -0.004989312 -0.0010100796 -0.001847657 0.0015495571 0.0008283407 -0.00093136803 -0.0016762755 -0.0015466792 -0.0016001688 -0.00035556688 -0.0010339548 -0.0033316617 0.0034746325 -0.0010622995 -0.0014107652 -0.0007019615 0.004288552 2.0234002e-05 0.0034409964 -2.8180479e-05 -0.0034555998 0.0018217801 0.004232553 -0.0048686885 -0.0059624957 0.0015348824 0.0025196648
英国 -0.0010298596 -0.0016086728 -0.00015377333 6.184323e-05 -0.00048768672 -0.0006305634 -0.0014391295 0.002329118 -0.0034938587 -0.0003710863 -0.0025410675 0.0016335045 -0.002248016 -0.00042458114 -0.00045946953 0.0032928854 -0.0013518757 0.005162126 -0.0032771064 -0.00050974544 -0.0014142815 -0.003725227 -0.004736166 -0.0042112647 -0.0012236141 -0.004822833 0.003189486 0.00052908756 0.006251147 0.0013148616 -0.0024045976 0.0037758262 -0.002864578 -0.0021160266 0.0016303596 -0.0040353513 0.002866345 -0.004776819 0.0011743512 0.0007222147 -0.0039494457 0.0018108105 -0.003883566 0.0027841544 -0.0013766938 -0.005510902 -0.001033687 0.0005030358 0.0024518599 0.0007278501 0.0023375426 -0.0040816343 -0.005030187 0.00069871306 -0.00084143964 0.0018804603 0.0031799714 0.002959982 -0.0043867994 -0.0030893655 6.680946e-05 0.0027846172 0.0023766116 0.00034572626 -0.0029576384 0.003147724 -0.0017399206 0.00061183923 -0.00064935186 -0.0016737968 0.0018797277 0.0029391747 0.00023565615 -1.688324e-05 0.0020518908 -0.0016397751 0.002256973 0.0046613687 0.0030882617 0.0017458283 -0.0003220253 0.00026700346 -0.00031049745 0.0022944605 0.0012974922 0.0016018711 0.0028566539 0.003324644 -0.0017423333 0.0050286427 0.004964828 -0.0019041534 0.00482913 0.0035903696 0.0020059259 -0.0029110776 -0.00057970884 -0.0022046752 0.0021522178 -0.0018061147
利用 0.001696566 0.003761701 -0.0026643693 -0.0015895374 -0.0005998629 0.0053981487 0.002889791 -0.0019671717 0.003286416 -0.0037472022 -0.0020748174 0.0028345538 -0.0020002488 0.0020315612 -0.003280777 -0.000258943 -0.00064063986 -0.0021269065 -0.004410119 -0.003736717 0.003263088 -0.0032680703 0.0048447624 0.000115505514 -0.003504596 -0.005895768 -0.0017524384 -0.0045950958 0.002036522 0.0035609074 0.004362516 0.0054354668 0.0015461221 -0.0040427735 0.003932363 -0.0004128837 0.0036199964 0.0029507356 -0.004151534 -0.0057912404 0.0040966324 -0.0020854531 -0.0050118584 -0.002975008 -0.00026469587 -0.0044279746 0.004462371 -0.0017125972 0.0037585576 -0.0032755327 0.0025302954 0.0014746282 0.002071022 -0.0031184645 0.0046762484 -0.0032657762 -0.0029551059 -0.002028314 -0.0024190887 -0.0045748805 0.002955839 -0.0011418462 -0.004307214 0.00046254284 0.003619735 -0.00058977894 0.00019331895 0.004825174 0.0005949876 -0.00021155641 -0.00411348 -0.0002992484 -0.0026764597 -0.00088562025 -0.0014478519 -0.004821819 0.0017110233 0.0009750854 -0.00019332161 0.0022364652 0.00023779261 -0.00046419553 0.0017004755 0.0003631221 -0.0014138438 -0.0026757459 0.004857935 -0.00037223354 0.0045585185 -0.0026615337 9.433541e-05 0.0029543808 -0.0030609507 0.0043962873 -0.005406425 -0.0022050955 -0.0007827658 -0.0039171106 -0.004359251 -0.002511564
分析 -0.004323274 0.002061197 0.00293963 0.0028500245 -0.002764275 0.0029034773 0.002698484 0.0019752125 0.0011327388 -0.0046026297 -0.0011692531 -0.0018304638 -0.0019482308 0.0038144607 -0.000710072 -0.00097633904 -0.0009947899 -0.0029514288 0.0005898924 -0.0016242019 -0.0021442422 -0.0021062305 0.002447123 0.003904801 0.003563647 0.0036586765 0.0025991614 -0.005041781 0.0042460742 0.0008647833 -0.0024525234 0.0034819522 0.0022793682 -0.001553096 -0.0041608415 -0.004524551 0.0011602226 0.002349417 0.0011648312 0.0017258029 0.00013492757 -0.004101096 0.0017601923 -0.0030218163 -0.002355452 -0.0010790777 -0.0038133613 -0.0011500423 4.0750907e-05 -0.0051333234 -0.0045959316 -0.0022645253 -0.004513886 0.0038978886 8.59878e-06 -0.0018444632 -0.0032611317 -0.00070374 -0.0008621166 0.00047789913 0.0032617403 0.001364254 0.0029876656 -0.0052497825 0.003073666 -0.0028013878 0.0035278953 0.0055257324 -6.5236536e-06 -0.0006015635 -0.0038920254 0.0021748736 -0.0033534043 2.785536e-05 -0.00033183148 -0.00319138 -0.0047332053 -0.0026768693 -0.00082054146 0.001242578 0.0023601619 0.002480286 -0.0013798089 -0.0019591139 -0.0007289274 0.0005056158 0.0026054813 -0.00058944704 -0.004257029 0.0016857 -0.0043120617 -0.002651177 0.002743667 0.0018671069 0.002451815 0.003312842 -0.004309706 0.0011219374 -0.000523376 0.0024345673
美国 9.348326e-05 -0.0021851056 0.0044549196 -0.0044513196 0.00019234093 0.003182225 -0.0038377068 0.001678854 0.0051741074 0.0019396985 -0.0039189844 -0.0040873773 -0.00027219063 -0.00076573266 -0.0044422057 0.00015674517 0.0032135549 0.0065050414 -0.004930306 0.0022954855 0.0022815913 0.00057084224 -0.0034887525 0.0033513599 0.002921158 -0.001449819 0.0035721306 0.00116914 0.005082539 0.0040111975 0.0031415469 0.0040593836 -0.005473004 0.0037293492 0.0028324416 -0.0033404448 -0.0032683904 0.0033039567 -0.005461139 -0.00367074 2.2918437e-05 0.00046678277 -0.0042449697 -0.005529813 -0.0029429584 0.00045746865 -0.004670831 -0.0040473384 0.002934775 0.0021725034 0.0023508233 -0.0043917214 -0.0038067019 0.002253006 0.0018813865 0.0008501899 -0.004034157 -0.0014353552 -0.0014848365 -0.0041761273 0.002373714 0.004171687 -0.0014310125 -3.445142e-05 0.0049617044 0.0025965553 0.0044540423 -0.0032052714 0.003861128 0.004153095 -0.0044778395 -0.0036514394 0.003317628 -0.0008496049 -0.0011038833 0.0024763267 0.0021800662 0.0037444162 -0.005344767 0.0034759901 0.0030350974 -0.0018680447 -0.0017903751 0.0025963031 0.005228757 -0.004959248 -0.0032034663 0.004681595 -0.004093746 -0.00090924 -0.00021312856 0.0040419973 0.005007175 0.0018175808 -0.0016854155 -0.00058272114 -0.002759153 -0.00613056 -0.0029214488 -0.00022437406
提供 0.0010429121 -0.0035399722 -0.0038640185 0.003606027 0.0011598674 0.005474859 -0.0040377597 -0.003719403 0.002739499 0.0022265133 0.005082049 -0.0009906319 -0.0008279912 -0.002449319 -0.0010684722 -0.00037923479 0.0047729597 0.0027017016 -3.1107913e-05 0.0030856426 -0.0026678524 0.0020182154 0.002215858 -0.0022324894 -0.0011445393 -0.005294894 0.0041639386 0.0037640734 0.006570404 0.005023464 0.0013011872 0.00043723139 0.0040375968 0.0044301865 -0.0014337171 -0.004452074 -0.0019863558 -0.0016197372 -0.00064102904 -0.004392678 0.005707154 -0.003938657 -0.0016431159 -0.001988194 0.0004101343 -0.0011024176 0.0009724999 -0.0022839645 -0.00034285823 -0.003490263 -0.0030877972 0.0025328118 0.00024706064 0.004965695 -0.003937871 -0.0007568102 0.0027368094 0.0042368546 -0.0009229367 -0.0009324033 -0.0009436025 0.004892895 0.0045539993 0.0036573627 -0.0010331413 0.004274082 -0.001044349 0.0059946924 -0.0002964462 0.00090614666 -0.004090975 -0.00097225595 -0.00054867775 -0.0027298888 -0.00029055966 0.0024320704 -0.0024117664 -0.0034846752 -0.0035342446 -0.0035084423 -0.00042275264 -0.0050991387 -0.0014344413 -0.0004419516 -0.0036910537 -0.004662196 -0.0025727886 0.0004910179 0.0023269567 0.0026180744 0.0011649778 0.0039997674 0.0038856545 0.0018415579 -0.0018034835 -0.0029642708 0.0033545194 -0.0047129355 -0.0017924141 0.00073072786
标准 -0.0050624534 -0.0041706646 0.00053665414 -0.002643985 -0.0017300613 0.0039175963 -1.7363218e-05 0.0041643516 -0.0025991793 -0.0014830297 0.0025167326 0.0017525669 -0.002863732 0.002202875 -0.0035763688 -0.0053460835 0.0019485987 0.0052971444 -0.0038030797 -0.0008310151 0.0008369841 0.0011081756 -0.0011265458 -0.00066732394 0.003341669 0.0030062138 0.003417857 -0.0029537969 0.005591699 0.0018512467 -6.8922265e-05 -0.0038200011 -0.0043308903 0.0038135233 -0.003657664 -0.0022250542 0.003070804 -0.0030777236 -0.0040451107 0.002309036 0.004629861 -0.005161673 0.0025177652 0.00036368845 -0.0032004986 -0.0026625884 0.0016527199 0.002638842 0.0037261597 -0.004327698 0.0008147269 0.00022559607 -0.0035241467 -0.0011478548 -0.0038045042 -0.004717727 0.002757608 -0.0022014566 -0.0023844638 -0.0019411772 0.002002532 0.0058560916 0.0028730603 0.0010882801 0.0025453265 -0.00048604608 0.00093148556 0.002474208 -0.001089933 0.0035712677 -0.0060609295 0.0010204745 0.0022314107 0.0034232964 -0.0023878408 -0.00038755112 -0.0032210576 0.0003219775 0.0029898384 -0.0039983387 -0.005080277 -0.0044597858 -0.0024578518 0.0012934938 0.005681729 0.0022381456 0.00074657163 -0.0030929218 0.0014309824 -0.0028571086 -0.0042536617 0.0016196801 0.0056697153 -0.002889265 -0.002570876 -0.0045306664 -0.0021575294 -0.0048417724 0.0013471066 0.0012406697
缺乏 0.0029897825 0.00091715436 -0.0021526269 -7.572352e-05 0.0017767907 -0.0009802494 -0.0012274384 0.003056926 -0.0036546595 0.0020986374 0.00076717994 0.002581176 0.0029922735 0.00020267953 -0.0027670073 0.0015631304 -0.0038686295 0.0016996318 0.003908899 -0.0005754701 0.0048403284 0.003099713 0.0040897154 0.0010514926 -7.860416e-05 0.0015717322 -0.0038629968 -0.004243218 0.00491748 -0.0015919937 0.0019219351 0.0007423518 0.00048540134 -0.00030746765 -0.0018210429 -0.0025030668 0.00073774066 0.0039687245 0.0006643406 -0.0006978761 0.0034998406 0.0040478855 -0.005150071 -0.0039801723 -0.0005265466 0.00056317024 0.0037880393 0.00095021236 0.00318268 -0.0017185278 -0.0045308652 -0.003700974 -0.005560596 0.0019269914 -0.0028250827 -0.0008404628 -0.0008888097 0.0008097422 0.00021508231 -0.0037492558 0.0053170826 -0.0029278335 0.0049672695 -0.0031581249 0.00025987055 0.00034529096 0.0008933339 0.0027663538 0.0010501121 -0.001446128 0.0029845485 0.00050352653 0.00033924106 -0.004112401 0.0037073032 -0.0011440723 0.0036896265 -0.0026466385 0.0012599034 0.003112222 -0.0037892594 -0.0044076727 0.004782557 0.0042180666 0.0031309777 0.0020292744 0.0031356448 -0.0012129599 0.0025293715 -0.0028711013 0.0012960157 0.000118549404 -0.0023393913 0.0013990983 0.0035179632 -1.2890804e-05 0.0030256468 0.00230139 0.0053872657 -0.00064332504
保护 0.0036570353 -0.00406461 0.0006096692 -0.0004621775 0.0040550595 0.0052517406 5.646422e-05 -0.0032320481 0.0025510404 -0.0015206862 0.0036542986 -0.00489301 0.00046299136 0.0035252108 0.002068038 0.003070343 0.0037084967 0.0032733844 -0.00059881306 0.004763246 -0.00012357718 0.0044648866 -0.0013403785 -0.0042446195 -0.003561844 -0.0057869772 -0.0045606126 -0.0028734633 0.0003909728 0.005149688 0.005385065 0.0039276984 -0.0049667484 -0.004630204 -0.00083543034 -0.0018763995 -0.004313682 0.0029851329 -0.004554866 0.0019689943 0.0015459964 0.0011183985 0.0006374758 -0.004311561 -0.0019419484 -0.0021298937 0.0032875712 0.0019041243 0.0030040357 -0.0033554086 0.004748617 0.0023032296 0.0034131492 -0.0013917055 0.004562178 -0.0028685555 -0.00370935 -0.0050262613 -0.0026981747 -0.002429403 0.002346362 -0.00057906227 0.0035856576 -0.0004930461 -0.003150724 0.003952666 0.001174524 -0.00047375 0.0043703695 0.0007299007 -0.0033862966 -0.00041277733 0.0016394345 0.0008390923 0.0041143186 0.003645789 0.003403906 0.0016674221 -0.0046202205 0.0015197041 0.0034804689 -0.0039897272 -0.0014435538 0.00030851748 0.0045219655 -0.00399075 9.222657e-05 0.0052938107 0.0044083954 0.0024353205 -0.004319542 -0.001699103 -0.0010664572 -0.00050313136 -0.0006151307 0.0035562248 0.0028793928 0.0011738745 0.0039365496 0.002147381
服务 -0.0017628614 -0.0057796733 0.0048720194 -0.0030942103 -0.0013588923 -0.0023828188 -0.0014875435 -0.0009199826 -0.0010171178 0.0036872604 -0.0030516095 -0.0052462425 -0.0020676323 0.00072394457 -0.0013431871 0.0038918597 0.0016922432 -0.0023703831 -0.0021018162 0.004812521 -0.0039782375 0.004862335 0.0012182458 -0.0010386768 -0.00014906265 -0.0027836026 0.0011284822 0.0020673573 0.0026655325 0.00048871746 0.0038891872 -0.0013122386 -0.003561883 -0.0047893776 0.000904403 -0.0059028813 0.0052862135 -0.001867698 -0.0055958577 -0.00026670934 -0.003701987 0.0006204186 -0.0006063487 -0.0014660428 -0.002848533 0.0016145989 -0.004055929 -0.00074218883 -0.0055200527 -0.001968039 -0.0027289789 -0.004875089 -0.0043366035 0.0035745825 -0.0021234301 -0.0038610068 -0.0028961762 -0.0038016306 0.0013747911 -0.0019629947 0.0046301396 0.005759125 -0.0029005073 0.0024759586 0.0063013043 0.0013041492 -0.002930704 -0.0023100504 -0.0044712727 -0.002413637 -0.002275723 -0.0044256784 -0.0008362661 -0.0024373368 -0.0059361695 0.0023123922 -0.0020612648 -0.003445034 -0.0058148163 -0.002899694 -0.001112757 -0.0026157042 -0.0005178647 -0.0028353524 0.0021513845 -0.0024230771 -0.00014246348 0.0010330792 -0.0022225385 0.0062989434 -0.0020752675 -0.0023551246 0.00052283646 0.0036005683 -0.004232626 -0.004121413 0.0014767625 0.0022578791 0.0044209277 0.0012262459
组织 -0.0036105535 0.00017774665 0.0028247626 -0.0030024475 0.005085953 -0.0023036906 0.00066719385 -0.0017097412 -0.0024365194 -0.0045782416 0.0009790139 -0.0024799753 -0.00046652503 -0.0025668188 0.0031412474 -0.00042052646 0.004402583 0.0065468634 0.0028762154 0.0020529784 0.0010319904 -0.00032518888 0.0014181882 0.00019614119 0.0011514219 -0.0027332448 0.0007576283 0.002654993 0.0040235827 -0.0031111576 -0.0024952502 0.0060488046 -0.0053245383 0.0011767247 0.0053739715 -0.004622564 -0.0024880648 0.00036566512 -0.0042761983 0.0006278692 0.0056664376 -0.003861826 -0.0053041726 0.0013297014 0.0017063826 -0.0056330212 0.004157596 0.0005586708 0.00087573205 -0.006148213 0.0016757096 -0.00067002507 -0.001775583 -0.0022822858 0.004288818 -0.004667856 -0.0012766754 0.0014608628 0.0055103875 0.0010654246 -0.003706449 -0.0006977173 -0.0035068153 0.0025472404 0.0032730761 0.0036785475 0.004565957 0.0048615844 -0.0006832886 -0.0014675498 -0.0024330572 -0.0017540475 -0.0034571514 -0.0022400508 0.0031673172 0.00019250945 0.00014155854 -5.3262163e-05 0.003333233 0.004602026 0.000417814 0.0016304542 -0.0014052185 0.0013230277 0.0058316635 0.0012690794 -0.00071647833 -0.003126911 -0.0028091525 -0.0034345696 0.0021052063 -0.0025807058 0.003274763 0.0026108676 0.0013629878 0.0046963063 0.0025013876 -0.0039886013 0.0011142531 0.0023070374
带来 -0.0056850817 0.0021325608 -0.004318189 -0.0034400197 0.0025458082 -0.0038648807 -0.0024963713 0.004908195 0.0053388667 -0.0029333434 0.004109885 -0.0033934694 0.00014529345 -0.00367782 0.0021773565 -0.0028104966 -0.00094195246 0.0052415594 0.0016808204 7.41005e-06 0.0048209 -0.0002494281 0.00133867 0.0039661005 0.0010557816 -0.0041227858 0.0006596223 0.0024581165 -0.00023988314 -0.00017308304 0.0036462343 0.005057511 -0.0040270737 0.0005652849 -0.001146034 -0.003646874 0.0039316793 -0.0040584225 -0.004031143 -0.003300816 0.005176466 -0.0027644697 -0.0043617394 -0.004302321 0.0044462145 0.00042207065 0.0021501381 0.0009992275 0.002452994 0.001132079 -0.0019985803 -0.0021449474 0.0031936585 -0.0032497765 -0.00020005662 0.004800845 0.0050086104 -0.0039109043 0.0030998667 0.0048418534 0.0042603067 0.0042297416 -0.0035656593 0.003124467 0.0016073749 -0.0020849998 0.00045545772 -0.0025960007 0.0033766248 -0.0009428983 -0.0027584496 0.0039448407 0.004050235 -0.0027988555 -0.00021571516 0.0013628758 -0.0025106282 -9.61285e-05 0.0021473304 0.0045752125 0.0046150307 -0.003187753 -0.0004127268 0.00132247 9.271529e-05 -0.0002769691 -0.004922265 0.002898055 0.0004889071 -0.0037117742 -0.0016672661 -0.0043831347 0.002089404 -0.003411782 0.0014696601 -0.0018929178 0.0020827749 0.0019116276 -0.0036553002 -0.0006890436
提高 -0.0025485337 -0.0044039004 -0.0036920386 -0.0030207415 0.0028029948 -0.0034065165 -0.0014274778 -0.0011098048 0.0009648726 -0.00031081133 -0.00058827386 -0.0046981205 0.00029889238 -0.0006785966 0.00455563 0.002723938 0.0019401655 -0.00013625233 -0.00018184086 0.0037698504 0.00067335746 0.0051245387 -0.0016643521 -0.0044899457 -0.005015747 -0.0011061756 0.0021767768 -0.002963604 0.0042810743 0.0029570127 0.004345495 0.0015067072 -0.005043759 0.00054062525 0.002166145 -0.005383969 0.004330928 0.0024460384 -0.0012814155 0.0021330973 0.005328411 -0.0051546074 0.0022838733 -0.0014007307 -0.002684049 -0.0037239422 -0.0006073384 0.0016365296 0.0027059813 -0.0031516878 -0.0019528868 0.0004935875 0.0021969648 0.002380172 -0.0038285218 0.0043662125 0.0005940362 0.0002854246 -0.000100579426 0.0004011574 -0.0029972044 0.0039093303 -0.00438113 -0.0053146537 -0.0038102749 0.0017352729 -0.0041566957 -0.003672212 0.00051172054 -0.0006111427 -0.0021284116 0.002324539 0.0004510459 -0.004871764 -0.0053316974 -0.0045942687 0.0024981073 -2.4803754e-05 -0.00056206627 0.00025804457 0.0044884067 -0.0042926054 0.0039629536 0.0010950697 -0.0033509932 -0.0036157812 0.0022187394 0.0017241355 -5.248573e-06 -0.0012945969 0.003704415 0.0042030187 0.0031378896 0.002714076 -0.0020363934 0.0009671375 0.0027815832 -0.0048806057 -0.0030079102 0.0012548972
数据安全 -0.0022778865 0.0021786122 0.0033911923 -0.0038191483 0.005766321 0.0034127252 -0.0012546658 -0.00049243966 0.0020812396 0.0033939944 -0.0002724006 -0.0050074225 0.005985044 0.0017218362 -2.2366119e-05 -0.0022035814 -0.000527417 0.00097524864 -0.0061142305 0.0017385238 0.0013675946 -0.0015687968 0.0025049676 -0.001738567 0.0024697238 -0.0014848327 0.0014227123 -0.0020555565 -0.0013978843 -0.0027164312 0.0026234025 -0.00038547927 -0.0019792656 -0.0055104364 -0.0033292635 0.0020078502 0.0008522084 0.00027247376 -0.00477541 -0.006843914 0.0051052743 0.00047278794 -0.0044246945 -0.0028298474 0.0009633532 -0.0006321997 0.0022281576 -0.00016537691 -0.0050028306 -0.006865279 0.004993427 -0.0034890133 -0.004218279 0.00010588163 -0.0018950511 0.0015996821 0.0041195774 -0.004004499 0.0029626524 -0.0020794724 -0.004223507 0.0021993406 -0.0006178262 0.0019923963 0.0031551246 0.0021596316 -0.0010083857 0.0059858346 -0.0046128375 -0.0026797075 0.0023760637 0.0018922029 -0.00392272 -0.00489691 0.0017315604 0.0004249826 -0.004583138 0.0031545884 -0.0028921736 -0.0042540994 0.0003804932 -0.005767057 0.004264225 0.005008178 0.0018264898 0.001134021 -0.0037303236 -0.0013266874 -0.00014802323 -0.00092766754 -0.0008937147 -0.0005434486 0.0047022933 0.00013861572 -0.0011269656 0.0017914753 -0.001409688 -0.006113285 0.0043009953 -0.00442452
政务 0.0007701578 -0.0041933507 -0.0014280796 -0.00016134858 -0.00024739024 -0.00038691072 0.0041717896 -0.0037974112 0.005184067 -0.003736512 -0.00012673195 0.0016328775 -0.0028215153 0.004242931 -0.0043653776 0.002495406 -0.004317025 0.0046869046 -0.0025495396 0.00503674 -0.0010278936 0.001894871 -0.0007123691 -0.004536011 0.0041656233 4.6677756e-05 0.0024315543 -0.004423425 -0.003239244 0.00038734238 0.0042690756 0.0055902433 0.003954503 -0.003564961 0.0024837388 -0.0030571616 -0.00412614 -0.0008836654 -0.0015726268 -0.0043038367 -0.00064946903 -0.0021336211 -0.0009261014 -0.0033326175 0.0029948982 -0.0036849799 0.002836449 -0.001204527 -0.00018962477 0.00024894057 -0.0015233486 0.0005639141 -0.0015806768 0.0012197243 0.004528508 0.0022449733 -0.004177599 -0.0039546974 -7.376437e-05 -0.0010097554 -0.0029336954 0.0005756613 -0.001015664 -0.0013581122 0.0011556625 0.0003175183 0.00036068048 0.0012810159 0.00408594 0.0038372683 0.001059361 -1.1255825e-06 0.0034490752 -0.005829131 0.0029371385 -6.191113e-05 0.0024209726 0.0012839721 0.0022061884 -0.0047803824 -0.0038250813 -0.00492995 -0.0028131208 0.0038626725 -0.0029455167 0.0044780835 -0.002504417 0.005169058 -1.0133178e-05 0.0006240142 0.0012734422 0.003739261 0.0027756402 0.0009062102 -0.003047074 -0.004353323 -0.003915262 -0.0018580612 -0.0008733428 -0.0009647358
计算机网络 0.00013746486 0.0028213826 -0.0009885109 -0.00018133753 0.0012289182 0.0032536886 -0.0013321681 0.0014964523 -0.0020815523 -0.0021355187 -0.00012291882 0.0004209879 -0.001262896 0.0017947428 0.0019531592 0.0036805589 0.0030379198 0.0018769938 -0.0041927304 0.004043799 0.0029592225 0.00019698405 0.0039006954 0.0027148745 0.003725982 -0.0034360639 -0.0025818713 -1.9047361e-06 -0.0014835751 -0.0034662532 0.004093685 -0.0019696786 0.00033399733 0.0012571067 0.0026677703 -0.00535858 -0.0028221938 -0.0046391655 -0.002454972 0.0007723095 -0.00079918787 -0.0050934623 -0.0017785612 0.0033640931 0.0022773182 -0.0048739063 -0.004040972 -0.0043671173 -0.0023065654 -0.0064543895 -0.0045892126 -0.0032987595 -0.001236811 0.0010801683 0.004566088 0.0034850254 0.0046937293 -0.0012655606 -0.00063314533 0.0045904247 -0.003426393 0.006236018 -0.0034351898 -0.0030441093 -0.0011519877 0.003962449 0.000981311 0.0033466194 -0.0029239778 0.0020615966 -0.0036276449 -0.0018530835 0.0036738347 -0.001872229 -0.00044759465 0.003351567 0.0004513703 0.0031847206 -0.005859996 0.0018140157 -0.002946466 -0.003123293 0.002484851 -0.0036531137 -0.0008259218 0.0009146774 -0.0037190437 0.001290517 -0.0028554068 0.00080767734 0.0049667773 0.0049997205 0.00019717915 0.00040409324 0.0019000445 -0.0043594893 -0.00037277638 -0.00093448383 0.00022918344 0.0041338294
方式 -0.0028422445 -0.002911871 -0.0033398746 -0.0009695924 0.003854993 0.003942732 -0.00042603273 0.0047054393 0.0009890365 -0.0013850894 0.0007132503 -9.1818976e-05 -0.0018586881 -0.0003202713 -0.00081128493 0.0041054254 -0.0027059691 -0.0022182595 0.0025513277 -0.0008334164 -1.9888268e-05 -0.0036756084 0.0017993287 -0.000115086725 0.0042034364 0.0019577271 0.0025937837 -0.0026635204 0.000719873 0.0029111507 -0.0014489928 -0.0039721862 -0.003880121 0.003367994 0.0013177037 0.0038166337 -0.0032031043 -0.0016963248 -0.00105874 -0.005712869 -0.003916125 -0.0042942795 0.0030590326 -0.00020063018 -0.0018981246 0.003386332 -0.0011982684 0.0036608714 0.0040947413 0.0038926217 0.003927969 0.004607891 -0.0033918892 0.0039841305 -0.00013419797 0.001015265 0.0050017065 -0.0028173584 -0.003028489 -0.004449421 -0.00025751005 -0.0029521873 0.0023377463 -0.0024683964 0.00052061974 0.0040220656 -0.0012545247 -0.002151448 -0.0028090507 0.0031455243 -0.0021505463 0.0015021553 0.0039330022 0.0006196796 0.002283979 -0.0012325664 -0.00517913 -0.0018876906 -0.0044127456 -0.0026093302 -0.0010194492 0.0023176428 0.0016548397 -0.0017890024 -0.0006339059 0.0009752152 -0.00410005 -0.0009871227 -0.0031667678 0.005000115 -0.0038370495 0.0048733307 0.002136539 -0.0006687154 -0.0051945653 0.002016556 0.004430663 -0.005712647 0.0005682622 -0.0012234375
完善 0.0025500718 -0.0016932527 -0.0007646114 0.0033893082 0.004925039 0.003559182 0.0023346492 0.0038116444 -0.00048800802 0.0029967115 0.0025204753 0.0024829304 0.0020807085 -0.0022285064 -0.0029049357 -0.0034020068 -0.002464787 0.0013084653 -0.0007442464 0.0005200036 0.004205618 -0.0010209644 0.004712964 -9.2321265e-05 0.0008027148 -0.0024612618 0.0024628667 0.0032811654 -0.0017011688 -0.0010952158 -0.0038589125 -0.0012844827 0.0010138556 0.0008441177 0.004870412 -0.0043699523 -0.00335767 0.0040974463 -0.002929344 6.727688e-05 -0.0025715972 0.0048831236 0.004432029 -0.0041718837 0.0010967861 0.0006593689 0.0043250285 -0.0012026875 -0.0018361276 -0.00306525 0.0003232585 0.0017006894 -0.00021432714 0.004970984 0.0036705788 0.00015936498 0.0037681211 0.002420151 -0.0032746964 -0.003951036 0.001871053 0.0043317545 -0.0048616533 0.00029799767 -0.0020894976 0.0040063034 0.0012994687 -0.00031291737 0.001958285 0.003267209 -0.0032065818 0.0016465862 -0.00015194812 -0.00425357 -0.0025199847 -0.0019957633 -0.0028165262 0.00053573155 -0.0009173603 0.000690103 -0.00153353 0.0036476036 -0.0029230386 -0.00029123636 0.0047559193 0.0014692036 0.00034566573 0.00072850724 0.0015711443 0.005121313 0.0016898469 -0.0014238753 0.0013650608 0.0016212412 -0.0013943147 0.004424038 0.00078485557 -0.0003697672 -0.0032925417 -0.002324606
提升 0.0014097368 0.0029452913 -0.004024972 -0.0042172587 0.0017106341 0.0032965695 -0.004326267 -0.00021439257 0.0017074628 0.002370605 -0.0009224873 0.0009239711 -0.001943832 -0.0006881048 -0.0024828475 0.0039151246 -0.0006205719 -0.00018770304 -0.0008166414 -0.0023797664 0.0039806594 0.004031031 0.00443076 0.0027500934 0.0034892904 0.0020413261 -0.0049923197 0.00091608637 0.0020923752 -0.0045785154 0.0002071346 0.0011856131 0.0043084077 -0.00015817184 -0.0018286519 0.0029161817 0.0015985059 -0.002578508 0.0002946111 0.00023880253 -0.0015658981 -0.0025628502 -0.0011271846 -0.004275556 0.0022537096 -0.004068937 -0.004671183 0.0034116507 -0.0030216144 -0.0015219036 -0.004032437 0.0047822837 -0.0023819983 0.0012317253 0.00052562286 0.00472963 0.0020809304 -0.004726867 0.0040423456 0.00017913828 0.0003242937 -0.001060992 -0.0036354065 -0.004747736 -0.0013698644 0.0034322059 0.0048052743 0.0011536416 0.0037855986 -0.004465793 0.0014204985 0.0021314279 0.0024851572 -0.0028256753 0.0040083965 0.0022101628 -0.0059569273 -0.0028646244 -0.0031073985 -0.0024304318 -0.0010474112 -0.00089436123 0.004473627 -0.0015367945 0.004934328 0.0045870943 -0.00091074104 0.0044738 -0.0018394132 0.0031152577 0.0030164057 0.0016272811 5.8229438e-05 0.0008829596 -0.00040197116 -0.0012820957 0.0013434829 -0.00047820987 0.002526222 -0.0010738418
保障 -0.0020836217 -0.0030856596 -0.004708618 -0.00054298405 -0.0012539544 -0.0033011907 -0.0026740106 0.000652451 0.0047575915 -0.005307517 0.002330234 -0.00398206 0.0055987765 0.00031616463 0.0034475753 -0.0024715574 0.0006617967 -0.0020643089 -0.005176318 -0.00068914273 -0.00012903714 0.004787837 -0.0022926836 0.0014088266 -0.003163969 -0.005903133 -0.0028190052 -0.0015395823 0.0042055263 -0.00039735698 0.0048967083 0.0056915786 -0.0010390425 0.0018725098 0.004751783 -0.001891676 -0.0031340565 -0.002313799 0.0012546692 0.0028960553 0.0036990345 0.0017548107 -0.0009858926 0.002693267 0.0011491035 -0.0019885811 0.0010550843 0.00010357767 -0.001990736 -0.004974182 -0.0021617871 0.0027974506 -0.004857382 -0.0032828199 -0.0031652832 0.0041239895 -0.0025651185 -0.0046704235 -0.0017766001 0.0009424314 -0.0020518769 -0.003425626 0.0018282449 -0.002133921 -0.0014842476 0.0036987662 -0.004228075 -0.003909504 0.0006240669 -0.0010322668 -0.001239529 0.0047569564 -0.0024935117 -0.00076638133 -0.00321158 -0.0038337295 0.0003842299 0.0010275461 0.0009211346 0.0032697802 -0.00084568653 -0.0017248488 -0.0037597225 -0.0019561348 0.0015658404 -0.00392572 -0.00216707 0.0015931184 -0.0005215551 -0.0032892942 -0.00414637 -0.003925699 0.002797823 -0.0036163554 0.0012125293 -0.00046469056 0.003959725 -0.0039277147 -0.0026695842 -0.0014914077
法律 -0.0056304266 -0.00068380585 0.0021882784 0.0012114253 0.0028168187 -0.002054592 -0.0015210863 -0.0034934422 -0.0001107886 0.0026773394 -0.004221584 0.004036835 0.004340721 -0.0007372749 0.002747967 -0.0018553932 0.0015140318 -0.0006211157 -0.0049901917 0.0007302878 0.0039550727 -0.003768636 -0.0008077705 -0.005146414 -0.003811581 -0.003214433 0.001090591 0.00024533458 0.0037769764 0.0035379648 -0.0017516459 -0.0026417747 0.0038679473 -0.004430163 0.0041686627 -0.00088435254 0.00039441453 0.0035971396 0.0009881516 -0.0031062898 -0.00074337743 -0.004740934 -0.0041593895 -0.0031035321 -0.0021027413 0.0030404227 -0.0035133148 0.0037262947 0.00042363702 -0.0016340101 0.0029011979 -0.0049945205 0.0020340285 0.0045188195 -0.0018980667 0.00014027522 0.0031714858 -0.0012589544 -0.0035885123 0.0033093044 0.0019284653 0.0040220562 -1.2421683e-05 -0.0026801473 -0.00097010663 0.0049520456 -0.002757534 0.0042023063 0.0037044375 -0.0017466076 -0.005030984 -0.0014316847 0.0026945223 -0.0058729737 0.00076238613 0.00023402483 -0.0063916855 0.0025545822 -0.00029458612 -0.0051232115 -0.0024543363 -0.005644244 -0.00034485065 0.0023850908 0.00049224275 -0.0018612618 0.0025968433 0.005326175 0.0015535868 0.0035641838 0.0047460683 0.0046220394 0.00519233 -0.0013653971 2.3654917e-05 -0.0011186765 0.003611713 0.0007972554 0.00010718691 -0.00191066
公民 -0.0036973234 -0.00010962903 -0.0041346853 -0.0045875674 0.005097214 -0.0018031482 -0.0024121704 0.0005047641 0.0018959176 -0.0011104082 0.00084738026 0.0025306512 0.0039658076 -0.0013867615 -0.0037404448 0.00015019932 0.0052951323 -0.0030292792 -0.005025099 0.005096198 0.0028807148 0.003270758 0.0048034703 0.0016999252 -0.005073783 -0.0026965258 0.0017139524 0.003986629 -0.00084664853 0.00028168605 -0.00013292028 -0.0036991285 0.0022767736 0.002647299 -0.000112913134 3.035879e-05 0.0038629402 0.003059021 0.0009689665 -0.005018217 0.0019363613 0.0035706875 -0.004277551 -0.0054369485 -0.0004993942 -0.00079433474 -0.005311393 -0.000273013 -0.00143039 -0.0051080273 -0.0021110277 -0.0009343546 -0.0028567237 -0.002365893 0.0045853304 0.0029163563 -0.0014391085 1.2863737e-05 0.0055862754 -0.00074630015 0.0013004642 0.0009910932 -0.0014065759 -0.0036945594 -0.00090280763 -0.0018744378 -0.0044238977 0.003096764 -0.003832868 0.0034141068 0.00038477167 0.0025669094 -0.0017349998 -0.0003850488 0.002362627 -0.00537084 0.0015620315 0.0031573528 -0.0023926585 0.00031642968 -0.00061552506 -0.00023438958 -0.0012257855 -0.0022704566 -0.00038899214 0.0027002848 -0.0016421605 0.0053598615 0.0039911987 0.0047219153 -0.00069061836 0.003677594 -0.00021582906 0.0002495487 -4.399255e-05 0.004753586 0.0031565612 -0.0012493097 0.0054972707 0.0035405753
政府数据开放平台 -0.00014356634 -0.001334532 0.0026057363 -0.0041379128 -0.0021260343 -0.002114349 -0.0019441935 -0.001395692 0.0017039488 -0.003958082 -0.0028095911 0.0031274878 -0.002523003 -0.005311661 0.001847999 -0.0012684981 0.0023774132 0.0027401953 -0.00053180446 0.0039484366 0.0027720758 -0.003467372 -0.00021979521 -0.0033233897 -0.0051863226 0.0029940724 0.00027077872 0.0041607535 0.005243941 -0.0018572846 0.0012435984 0.004915438 -0.0023719934 -0.00055014645 0.0046951347 -0.004297595 -0.004078679 0.004735429 6.437914e-05 0.0038119792 -0.0035039955 -0.0021394026 0.0038353575 0.0014341203 -0.0009974826 0.0006444789 -0.004158443 0.0016571352 -0.003963149 -0.0047029695 0.0037597562 -0.004290234 -0.0011162725 -0.0032064423 -0.004036473 0.00027640478 0.0039374954 -0.0008236642 -0.0011518489 -0.0022193154 -0.000650922 0.0015868067 -0.004472728 0.0023859213 0.0039512794 0.003110845 0.0040959506 0.00484662 -0.0015173246 0.0013160318 -0.0054899985 -0.0037283916 -0.002028082 -0.00407706 -0.00028582345 -0.0022481706 0.0036836776 -0.0003775047 -0.0023823613 -0.0035605303 -0.0023771394 -0.0010088036 -0.0033832274 0.003494308 0.0042855972 -0.0039549293 0.0013385366 -0.0038411492 -0.0039849496 -0.0036320426 0.005049547 0.0019897877 -0.0033709202 0.0026290899 -0.0005236543 -0.0006298427 -0.0029355846 0.00068668457 -0.0010295889 -0.00066892756
云 -0.0039123734 0.0039566364 -1.50306705e-05 0.0018314586 0.0017180793 -0.0016452129 -0.0031515483 0.005417401 0.0018418857 0.0016934335 0.004854457 0.002048298 0.002159905 -0.0011539563 -0.00031553072 -0.0033175442 -0.001834397 0.0058140163 0.00060069776 0.0042929216 -0.003242161 0.003814224 0.004673422 0.0022204402 0.0044679106 0.0019415986 0.004716973 -0.0020609484 -0.0009380173 -0.0012488964 -0.0011834335 0.0011863096 0.0028777923 -0.0003779589 -0.0044259205 0.0015466241 0.002694258 -0.004471761 -0.002421341 0.00011860313 0.0011208715 -0.0017409041 -0.0033000628 -0.0021145951 6.9434216e-05 -0.0011820227 0.0024952958 -0.0017483738 0.0015526633 -0.0006156585 -0.0031002199 0.0010326817 -0.00383601 0.0032803593 -0.001898976 0.0028155018 -0.0009406184 0.0037762867 -0.0030954073 -0.0037410199 0.0011589103 -0.0002966267 0.0018599968 0.001790113 -0.0008737094 0.0038137462 0.0017429792 0.0047576632 0.0008880377 -0.0046374495 -0.006361202 -0.0033088198 0.0018404104 0.0033221634 -0.005487266 0.00036491724 -0.0019705575 -0.00046564327 -0.0029992817 0.0018310486 -0.0011452242 0.001464182 0.0032427318 0.0046996027 -0.0021739253 -0.0036773612 -0.0006488911 -0.0017028908 -0.0047245473 0.001722395 0.002343219 0.0054399204 0.00080051384 0.00081754185 0.0015581928 -0.0018663201 0.0043786564 -0.0055242036 0.0038723815 0.0018545779
机构 -0.003762885 0.000505517 -0.004735874 -0.0004150604 0.0024153169 0.0033996778 -0.003252185 -0.0013409284 0.0025790003 0.003647055 0.003171786 0.003745314 0.0037776558 0.002044516 0.00327575 -0.0012534607 0.0019669344 0.0054183193 0.00034048792 0.0036693704 0.005235493 -0.004475257 0.00428599 -0.0032016796 0.0015463892 -0.0055510034 0.002023793 0.0020210892 0.0049520293 0.0045285253 0.0018560217 5.9358346e-05 0.0038616217 -6.586836e-05 -0.0010677654 -0.001560027 0.0005360813 0.00083403283 -0.004478832 -0.004635762 -0.002595538 -0.00088462967 -0.0043257293 -0.0011053225 0.0023585449 0.0026172278 -0.0021459204 0.0013650486 0.0042375773 -0.0019345208 0.0033939215 0.0018236439 0.0012137721 0.0056914557 -0.001904589 0.001155191 0.004914248 0.0005433861 -0.0030211883 0.0022773389 0.0016984519 0.004562407 -0.0021056496 0.004107767 -0.0039070835 0.004025525 -0.0036782946 0.003342938 -0.005161246 -0.0043304805 -0.003950381 -0.0040270677 0.0004161778 0.00017698122 -0.0002377852 0.0029299222 0.0013191801 -0.0022996396 -0.0010377562 0.0035681434 0.0013071294 0.0008042707 -0.0019897858 -0.004458229 -0.004126562 -0.004634611 -0.0031946877 0.0041855616 -0.0025327394 0.0049070637 0.0053082583 -0.003124632 0.0024883512 0.0054672337 -0.0019784686 0.0008157643 0.0029165733 -0.0011268223 0.0005284412 -0.0033221557
实施 0.003847294 0.002857553 -0.0007709736 -0.0043730526 0.003035082 0.002916754 0.0035035822 -0.0023466914 0.00044864108 -0.0046433937 -0.0012373648 -0.00022498582 -0.0007002377 0.0021779432 -0.003767714 -0.00066710706 0.0033872002 0.002745774 0.0012103659 0.003877461 -0.0029570367 0.0002540974 0.0035951983 -0.00094210036 -0.00032008498 -0.0010034224 -0.0049143224 0.00126153 0.0037496386 -0.0023171199 0.0031835728 0.0032916388 0.0035102938 -0.0047956277 -0.0009572658 0.0025667413 8.5376996e-05 -0.001623214 0.003594281 -0.0027620643 0.0011109371 -0.0038197963 0.003480293 -0.00047491537 0.0031567067 -0.00533036 -0.0035205162 0.0017907249 -0.0007455175 -0.005362968 0.0037004496 -0.0019857804 -0.0011716431 0.0056605223 -0.001423075 -0.0045354385 1.1713433e-05 0.00021890871 -0.0015580364 0.0033757966 0.00012564621 0.0003772015 -0.0034956895 0.0022227734 -4.3902437e-06 0.0059744725 -0.00033339573 -0.0035673594 -0.0031277088 0.00031754086 -0.0037380366 0.005095701 -0.0008794722 -0.0004162048 -0.0035275244 -0.0015689004 -0.0015039764 -0.0046596304 -0.00033245323 0.0011849044 -0.0009989423 0.0037573422 -0.0031478775 0.0048565064 0.0021222054 0.0039404174 -0.00034177638 0.0022716643 -0.0033884014 0.0021455518 0.0041682017 -0.0013931165 0.0030117687 0.0025570528 0.0033379842 0.003117463 0.0025467628 -0.0056190277 -0.00055964827 0.0036235172
授权 -0.0048785075 -0.0031228461 0.0032053497 0.0018381489 -0.003080297 -0.0008085411 -0.001533686 0.002311153 -0.0043331455 -0.0040561897 -0.00046717512 -0.004492175 0.00081179076 -0.0014257411 -0.0045879 -0.003982903 -0.004376334 0.0040411945 0.00067639194 0.0035884622 0.0047359145 0.0012444125 -0.0019770402 -0.0022109365 -0.004003823 -0.003305947 0.0023419217 0.0021491204 -0.00020776904 -0.0025283496 -0.0010750068 -0.0044792104 0.0023630003 0.0038048825 -0.0022653856 -0.0019363988 -0.0011810359 0.00083232 0.0021082554 0.002934667 -0.0031052309 -0.0048264447 -0.0046576657 0.0007516503 0.0023487736 -0.0018741771 0.0006775411 -0.0016773121 -0.0032532548 0.0014348008 -0.00047737252 0.0043095835 0.001780249 0.002278766 -0.004023028 0.0015862115 0.0045813504 -0.0018358026 -0.003847762 -0.0042364434 0.0024001335 -0.0032426924 0.0018952803 0.0015262804 -0.001421797 0.00358747 -0.0015804853 -0.00058135967 4.1634565e-05 0.0021035033 -0.00041237276 -0.004166034 -0.0039080326 0.0008241824 0.003290118 0.0042471234 0.0034272347 0.0018986412 -0.005243696 0.004339895 0.004742466 -0.00041285472 0.003703132 -0.00040595199 0.0027288473 -0.001520232 -0.003285507 0.0009226474 -0.0027197306 -0.004440257 0.0048013725 0.002465499 0.0025415001 0.0028830378 0.0027758335 0.00044239705 0.002137385 -0.001001319 0.0050776065 -0.005227229
应 -0.00089290104 0.0025011064 0.0032415183 0.0011827628 -0.001336614 0.00089231745 0.001060662 0.0023307644 -0.002175278 -0.0021201281 0.00089223124 -0.00022672355 -0.0007918434 -0.0034431394 0.002180968 0.0037650447 0.0023147757 0.0062955124 -0.0028100086 2.7596183e-05 0.00352866 -0.002847737 0.0036099714 0.003394148 -0.004508272 0.00071927666 0.00035927168 -0.005128096 0.0007380601 0.0015718004 -0.00070427597 0.0040312903 -0.0022856558 0.0019720327 -0.0012183756 1.9881958e-05 0.0031598657 0.001020912 -0.0041746 -0.00010947406 -0.0015703351 0.00044623244 -0.00089224265 -8.004602e-05 0.0015086188 -0.005923587 0.00020955024 -0.001246599 -0.0034931318 -0.0063364496 0.0008639062 0.0021406638 -0.005255212 0.00431653 0.0005840762 0.0012879147 0.0041253525 -0.0021698887 0.002708495 -0.0010863839 0.0024122053 0.004766583 -0.0015399968 -0.0026997745 0.004897713 0.0051148464 0.0054665646 0.0057622707 0.0011546905 0.0009209566 -0.0043255766 -0.0013786841 0.0026146658 -0.0037208062 0.0012582155 -0.0053369 0.0034347698 -0.00063120556 0.00021096846 0.0020371445 0.004316477 -0.0018902753 0.0016637993 -0.003127237 0.0020746652 0.0043462953 0.003647091 0.0020092211 -0.0026345013 -0.0008308413 0.0040983357 -0.002259518 0.0007541985 -0.0035609214 9.207948e-05 -0.0044328817 0.0033880558 0.0012394112 -0.0037322128 -0.00540131
数据共享 0.00037655444 0.002638059 0.002867781 0.0006323869 0.0044299276 0.0036544818 -0.003178932 0.0009693905 -0.0032966093 0.00065599446 0.0020832273 -0.0012089462 0.0004696978 -0.0040328824 -0.003345134 -0.0047576213 0.0018288204 -0.0031585456 -0.0014183675 0.0054193046 0.0051305345 0.0043744305 -0.0005338107 -0.0023527546 0.0009133204 -0.0039215703 0.0015024499 -0.0033153559 0.0049186735 0.0002702919 0.00011952908 0.0051321965 0.0037675302 0.0012900091 0.0023030145 -0.0045164945 -0.0038068574 0.0050825067 0.003765414 0.0034180044 -0.0016858741 0.0012459153 0.0005950675 -0.0046399757 0.0042853374 -0.00022554783 -0.004045415 0.0008141201 -0.00018367842 -0.0034449017 -0.0031902213 -0.004870564 0.0036267717 -0.0005178208 0.004230088 -0.0035209537 0.0007144943 -0.0025470734 0.0043230625 0.003344389 0.004031616 0.005502968 0.0008753034 0.0023130225 -0.0025145882 0.0022468476 0.0017986271 0.0042579966 0.003706605 -0.001971501 -0.0057522207 -0.0038722693 -0.0031646008 -0.0032802846 -0.0010746178 -0.0008890509 0.0024151062 -0.001748577 -0.0020237882 -0.0046884036 0.0022424331 -0.0023427398 -0.00047483586 0.004331735 0.0004515369 0.0031758922 -0.00013979964 -0.0007066868 0.0032295254 -0.0024070467 0.0015322462 0.0027090672 -0.00030484665 -0.0035730668 0.003091037 -0.0036532853 0.00016519857 0.0003694892 0.0010060552 0.004642528
企业 -0.00029866997 0.00087869156 0.0035562168 -0.004449638 -0.00086012296 0.000951578 -0.0015210838 0.0023388546 0.001011029 0.002059934 0.0015034231 0.0044491976 -0.0028781272 0.0006852262 0.0016739727 -0.002927197 0.0043947324 -0.0022856581 -0.0037980806 0.0034468425 0.0037995446 -0.00050470367 -0.0034753126 0.0033756508 -0.00034932187 -0.002040403 0.00025167476 -0.0011197246 -0.00072190043 0.0030136527 5.253546e-05 -0.0037243485 0.0029234793 0.0025543724 -0.0036875524 0.00054866914 0.0008159401 0.0016470371 0.0014671213 0.0029554772 -0.0035041259 0.0007991264 -0.0024461045 -0.0022460916 0.0009614924 0.004315601 -2.2507293e-06 -0.00068507256 -0.0013038178 0.0011198762 0.0016722394 -0.0029707083 -0.000419387 0.0006074189 0.0013169798 -0.00034246314 -0.0042668167 -0.00069375953 0.0049201716 0.00049892225 0.0045864303 -0.001168428 0.00072118465 0.00013673809 0.00202842 0.0019167009 0.0051748627 0.0029894158 -0.003469231 -0.00082379824 0.00040757767 -0.0033475705 0.0034285423 0.0013641154 -0.00040983479 -0.004907674 -0.005460839 -0.0012170374 0.00113142 -0.0031801662 0.0039879573 -0.0043576 -0.0041861064 -0.0043168953 0.0046461346 -0.0034231835 0.00019757575 -0.004323843 0.00085974374 0.00080006855 0.0013296126 0.0037799247 -0.0020460344 -0.0030045742 0.004258468 0.0012021967 0.004454175 -0.0031659696 0.0019729412 -0.00049523707
共享数据 -0.0029800353 -0.0046978532 0.004233914 -0.0029858286 -0.0015172687 0.0023799387 0.0011036862 -0.0019242282 -0.0040356386 0.00033556856 -0.0034987668 0.0048699896 0.0051620523 -0.005338861 0.0046246313 -0.0022799724 0.00081089593 0.002006733 -0.0018807985 -0.0014797691 0.004283859 -0.00016975586 -0.0022994152 0.0033126646 -0.0041384352 -0.002800217 0.0015439577 -0.004260967 -1.6490094e-05 0.0037922377 -5.318659e-05 0.002089361 0.003727411 0.002588868 0.0007368322 0.00065196474 -0.002935974 0.0025032852 -0.0014758487 -0.004497232 0.00036906986 -0.002877275 0.0009943545 -0.00016688959 0.0027124505 -0.001024737 -0.004586064 0.0040844926 -0.0037336377 0.0005377603 0.004463623 0.0010978229 -0.00013839228 0.005109636 -0.0034858868 -0.00225442 -0.0023775632 -0.0022040799 -0.0026226116 0.00048190673 -0.00036359802 -0.0012658268 -0.0007214712 -0.0024610462 -0.0038404425 0.002792976 0.002195427 -0.0014016704 -0.003366531 -0.0019946506 -0.0047416934 0.0039641554 -0.002481089 0.0037974082 -0.0020574876 -0.0039224145 0.002612253 -0.0007229327 0.0010772452 0.0028101036 -0.0042497893 -0.003814916 -0.0030891295 0.0023968655 -0.0025995432 -0.0023926822 0.002407584 0.001001793 -0.001791214 0.0049117855 0.0009832187 -0.00026031706 -0.003980967 0.0015934766 -0.0053208084 -0.0011457225 0.0031835688 -0.00227975 0.0030419298 0.0030608987
政府数据 0.002247075 -0.005160614 -0.0021044197 0.0015444938 0.0006423756 0.0021929531 -0.003088935 -0.0021610886 -0.0035051906 9.431452e-05 -0.0011353621 0.0025440953 -0.0027092695 0.0010634256 0.0043771886 0.001476524 0.0014063243 -0.0017354088 0.003741649 -0.003112576 -0.0039658463 0.003829503 -0.0028207297 -0.0021143535 0.0037173536 -0.00012589438 0.003878758 -0.0012571167 0.0028617817 0.0020844159 0.0037263613 -0.0035230783 -0.0039249063 0.0009021314 0.0025052668 -0.0039190985 -4.588181e-05 0.0019531166 -0.004767653 -0.003668102 0.0047044186 0.003995028 -0.0026465792 -0.0003831459 -0.0020774603 -0.0051731495 0.00032777293 0.0031100514 -0.001275616 0.0037179117 -0.002059472 0.003130561 -0.002298838 0.0011736412 0.0013591972 0.002553836 -0.001421712 -0.0006419925 0.00058794254 -0.0016071779 0.0023146374 4.8817834e-05 0.0044949693 -0.005189872 4.3602016e-05 0.0046199253 0.0040915934 0.0038574715 0.0036397816 0.0011778474 0.00030764777 0.002231305 0.0034228675 0.0033643339 -0.0009435134 -0.0029956987 -0.003953947 -0.0029736594 -0.0047692503 0.0009621824 0.004768085 -0.00023350825 0.0048103794 -0.0044471147 0.003044517 -0.0043938053 0.00035863902 0.0015131827 0.0020928408 0.0047375173 0.003927397 0.0014254724 -0.0038445971 0.004137534 -0.003901016 -0.0018623804 -0.0022095733 -0.003141156 0.0015085505 -0.005196037
科学 0.00012576049 -0.0007806825 0.00056708517 -0.004631008 0.003947266 -0.0028103802 -0.0010416349 0.0008471011 0.00092250126 -0.0029667565 0.00463427 -0.0051719747 0.005217182 0.0014898387 0.0028813235 -0.00404107 -0.00055039744 0.00015306569 -0.0028866532 0.0047792355 0.0035906895 -0.0012809644 0.0051700277 -0.0040337597 0.0039539044 0.0033015609 0.004110542 -0.0046258653 0.0033083782 0.0051879385 0.005478562 0.00319706 -0.0042317305 -0.0015615573 -0.0023529034 -0.003558664 0.005614689 0.0022391928 -0.002562819 -0.00061688427 0.0007605179 -0.001826629 -0.004720249 0.0013777963 0.0025292684 0.0010022416 0.004007209 0.0039934106 0.0037420262 0.0022727596 -0.0020137234 0.0006412044 0.00091197196 -0.0024739522 0.0017429787 -0.0011055145 -0.0006231925 -0.0034231502 -0.0040486096 0.0018857644 0.0010463614 0.005713199 0.0006742051 -0.00044015347 0.0005532874 0.0010898414 0.0021316027 -0.0025837447 0.00019796604 -0.001687901 -0.0023333887 0.0044608815 0.00026230668 -0.0026809287 0.0016573314 -0.00462358 0.0025913846 0.0010103456 0.0014731627 0.0042298925 -0.0025774352 -0.004096889 -0.0027655186 0.003509825 -0.0012754526 0.0036445947 0.002826871 -0.004120778 -0.0023892275 0.0029119237 -0.00043261258 -0.0005755646 0.0032458082 0.0008341132 0.00028481177 -0.00074305834 -0.0045126854 -0.003028446 0.0046300828 -0.0041564787
发布 0.00086602074 -0.0025809244 -0.0034396884 -0.0022783405 0.000722051 0.0015360786 -0.005105865 -0.0010162065 0.0050141774 -0.0022510604 -0.0016214428 0.0041503054 -9.780188e-05 0.00081612734 0.0007918483 -0.0020528252 -0.00074946653 0.0009987977 0.0011026263 -0.0019282418 -0.0032780734 0.0035229889 -0.0023811925 0.0045200167 -0.00091213605 0.0008851025 4.7153775e-05 0.0020115322 0.0026932855 -0.0039523668 -0.0005891383 0.003245648 -0.0024655925 -0.0041538016 0.0019176092 -0.00039627144 -0.0015880733 0.002137605 -0.00084806554 0.0016016597 -0.0035747185 0.00352319 0.0024687601 -0.002333719 -0.0015702153 -0.0015867514 -0.0031442305 -0.0015474913 -0.004500716 0.003951408 0.0034025619 -0.005007888 -0.0023602068 -0.003936989 -0.00063825364 -0.00167769 -0.0021679518 -0.0033780355 -0.001852393 0.0029831629 -0.0014667702 0.0012242902 0.0033920077 -0.002664599 -0.0034496577 0.00093146646 0.004175704 -0.0033116445 0.0027228503 -0.0008065871 -0.005053498 -0.0023208768 -0.0030360308 0.0014238269 -0.00025792123 -0.00065624114 0.0009678089 0.0044506676 -0.0010845506 -0.003290293 0.0016609213 -0.00467099 -0.0020227695 -0.0017133583 0.0019270311 0.0030911271 0.00011076264 0.0023822254 -0.004802674 0.0012186131 0.0018846493 -0.0043981085 0.0035667326 0.0033629432 -0.002687321 0.0034515073 -0.001967725 -0.0055391816 -0.0021893906 -0.0044587874
导致 0.0017952265 -0.005510264 0.0041486775 0.003315631 0.0013427839 0.0058457986 0.0023498274 0.005979193 0.0050332467 0.0035658253 -0.0014965902 -0.00526986 0.0027166666 -0.0052684676 0.0026074634 -0.0014274688 -0.00087991497 0.00065366406 0.0016955956 0.0057120193 -0.0026699065 -0.0030831601 -0.003580996 0.00033201504 -0.0013422478 0.0012707626 0.0046877367 -0.003188099 0.0024829353 -0.0009836789 -0.0040496476 -0.00093518075 0.0031242108 -0.0031987715 0.0027324422 0.0009644795 -0.0013757269 -0.0005588248 -0.0015945254 0.0027781231 -0.0019022773 -0.00436434 -0.0007239608 -8.139238e-05 0.004065086 -0.0007159239 -0.0058780923 0.0013980543 8.641728e-05 0.0008977397 0.003639311 -0.0030862675 -0.004578141 0.006133319 0.0043566413 -0.002685676 0.0012773867 0.0030578 -0.0019312087 -0.0010544324 0.0032444466 -0.0015458923 -0.0030595919 -0.00015150216 0.0021702657 0.0032195833 0.0053404085 0.00530472 -0.0022306961 0.0040854597 -0.0013117257 -0.0043074437 0.0023695768 -0.00654553 0.0025769635 -0.0030449303 -0.0062059388 0.0036554479 0.0020630637 -0.0051044757 0.00011252965 -0.002974813 -0.001199243 0.0021276807 0.0030485413 0.00036111596 0.0017247995 -0.0028214257 0.0032707336 0.0005661008 0.0049367063 0.0020388467 0.0064040762 -0.00361397 -0.0055281534 0.0031755313 -0.0049767494 -0.0017498867 -0.0005693457 -0.0040118764
共享 -0.0045992793 0.0032432098 -0.003786491 -0.00041125005 -0.0025542665 -0.00025377903 -0.0005469815 -0.003914818 0.0019394348 -0.0018651212 0.00052077975 -0.0048144152 0.00012551481 -0.0024116097 -0.0003221738 0.0008127468 0.0043417877 -0.0026173147 0.0040505463 0.0002002187 0.001406488 -0.0038403089 -0.0037775084 -0.0040285354 0.004008929 0.004026778 0.0036802005 -0.0032389653 0.0026368003 0.0017719886 -0.0012499536 0.0048987446 0.0025878225 -0.0038792738 0.004479345 -0.0013948478 0.0013584773 0.001634407 -0.004701444 -0.0013669737 0.0013628171 -0.0008021783 -0.0014486598 -0.0005243246 0.0013029813 0.0038687726 -0.0021992554 0.0046097576 -0.004588207 -0.0029709446 -0.004212571 0.0029659357 0.0025518674 -0.003473164 0.0017627458 -0.0036731132 0.003429376 -0.00045506013 0.0032855903 -0.0031538964 0.002821007 -0.001498889 -0.0006940125 -0.0034151364 0.0027439191 -0.0024381944 -0.00047015687 -0.0007141548 0.0017064221 0.0045644273 0.0036889077 -0.0018123861 0.0045146504 0.0023527893 0.0020128882 0.0017425905 -0.0044294237 -0.00076352165 -0.0022656627 0.00045608447 -0.004939606 0.0028695662 -0.0006013873 -0.00071989 0.0005153808 -0.0025250895 -0.0011818121 0.0029072645 0.00018930908 0.0036729479 -0.004082705 -0.0025436408 0.002704196 -0.0030056883 -0.0018540837 0.0037634443 0.0022624545 0.002878423 -0.0010767197 0.00022808084
报告 -0.003934435 -0.000257551 -0.00030080395 -0.0048419884 -0.0035705077 0.004017871 -0.0038970287 0.0020365333 0.0005501811 -0.0006457481 -0.004193338 -0.0052917087 0.00044787204 0.0002508769 -0.0046073548 -0.0052426923 0.004346716 4.5373617e-05 -0.0017319449 -0.0006693996 -0.0012921973 -0.0025936756 0.0010237057 0.0025582945 -0.001873922 0.0032443334 -0.0016453147 0.0014568435 -0.001366063 0.00036471864 -0.0022238516 0.0020211232 0.0026165857 0.00030111804 0.0019493614 -0.0050362265 0.0019858892 0.0021842928 0.0013580337 0.0030968743 -0.001707918 0.0019398166 0.0019855548 0.002625063 -0.00092376996 -0.0011536644 0.000944939 0.004748344 0.0011410168 -0.0041430676 -0.00097014057 0.00042795198 -0.000797207 0.004256028 0.0013295099 -0.0010802692 0.0022254577 -0.0034822833 -0.0025044587 0.0023820729 0.0030294836 0.0051537165 -0.0021973513 -0.0017591827 0.004849136 -0.0011151163 0.0007089415 -0.0022938314 0.003782056 0.0010847443 0.003616349 0.0028215714 -0.0033333458 0.0017109263 0.0016985759 0.002724573 -8.700256e-05 0.00020018822 -0.0033272714 -0.00038101987 -0.0032344372 -0.0008984488 -0.0016585306 -0.0031707932 0.005183475 0.0042837486 0.00400725 0.00030555532 -0.0030247318 0.0014894647 0.0027736966 0.0001446085 -0.0017369313 -0.003387631 -0.005262674 -0.0034694576 0.0031100872 -0.0047857943 0.0030661188 -0.0053263023
单位 -0.004424461 -0.0054638362 0.0006841091 -0.0037289534 -0.0035877638 -0.00064422586 0.002161225 -0.0016978728 0.0043618893 -0.0038199294 0.0018822579 0.0002902611 -0.00060684665 5.469527e-05 0.004765558 0.0019496969 0.0012120929 -9.49777e-06 0.00010707835 0.0056849997 0.0043928022 -0.0041102925 -0.0011877518 0.001191433 -0.005028916 -0.0069136764 -0.0011807844 -0.0056160465 0.0014801333 -0.0018375253 -0.001941671 -0.0031031522 -0.005794781 -0.0053053168 -0.0016112111 -0.002531315 0.002805355 -0.0023441596 0.00096302124 -0.0050509614 -0.0005804137 -0.005319287 -0.0034018343 -0.0006282611 0.0038768896 -0.0010272539 -0.00022561334 -0.004774062 -0.0040113972 0.0017351165 0.0025348584 -0.0018424699 0.0033543352 0.0015271686 -0.0032583084 -0.00035772036 0.0029205664 -0.00051907205 0.0013078235 0.0013462141 0.0021772669 0.0011209744 0.0036554337 0.0034144493 0.0040818546 0.0056522014 0.0040253825 -0.00047567862 0.0032517037 0.0017627979 -0.0038961244 0.002163037 -0.0005181077 -0.0061836825 -0.0018490298 0.00037608072 -0.0062243207 0.0017278424 0.0021441958 0.0042389818 -0.004754332 0.0013368427 -0.00050041033 -0.0022864004 -0.0026772255 0.0009860753 0.004577729 0.0018669912 -0.004851035 0.005227354 0.0011584898 0.0056542265 0.00057146786 -0.0017903224 -0.004089604 -0.004654202 -0.0040315245 -0.006564204 0.0053556794 0.00022194492
价值 -0.004607774 0.0031627314 -0.0042691813 -0.003127332 -0.0001989435 0.002712012 -0.0048624747 -0.0033132785 -0.0020649573 -0.0048550996 -0.002224841 0.0043617254 -0.00046756348 0.0031208897 0.0038507313 -0.004404116 -0.003465458 0.0035738924 -0.0019619113 0.0035748258 -0.0047737956 0.004315715 0.0002816305 0.0005121516 -0.0011384747 -0.0010197347 -0.0042222543 -0.0006824438 0.0021904209 -0.0011722234 0.004284527 -0.003387412 0.0022695085 -0.0034096376 0.004483457 0.0036540362 0.0005838482 -0.004661578 -0.0021511717 0.002270254 0.00030369902 0.0024003587 0.003036297 -0.002583898 -0.00042030122 -0.004453904 0.002096019 0.004166624 0.0016686742 -0.0036777377 -0.0040767295 0.0008868123 0.004378961 -1.0982177e-05 0.00335334 0.0046269763 0.0018536855 -0.0008765447 0.0041007865 1.5524956e-05 0.001340505 -0.00073873793 0.0032414196 -0.001454931 0.0033045341 0.0042968546 0.004508249 0.0003822211 -0.0039252127 -0.00041816675 0.0026151862 0.0043299454 0.0019295239 0.001139997 -0.0021395565 0.002016802 -0.002870821 -0.0044406904 -0.0049350616 -0.003935308 0.0006087594 0.00081496796 -0.003909218 0.00013022385 -0.0019026034 -0.0035121564 2.4812023e-05 0.005125421 -0.001337973 0.004859529 -0.003629538 -0.0005410817 0.0005931922 7.228956e-05 0.0021660675 -0.0011283996 0.002036417 0.00023229615 -0.0007681714 0.0020770873
加快 8.704336e-05 0.0011183647 -0.003384534 -0.00013701484 -0.00035774757 0.001266202 -0.0039221384 -0.0005803057 -0.0017185765 -0.003073072 0.0044042193 0.0020979058 0.002747859 -0.005415034 -0.0031062176 -0.0027646704 0.0016630759 0.004096645 -0.00014916518 0.0013297126 0.0016644931 -0.0043386025 0.004401495 0.0012805429 -0.004659701 0.00022331029 -0.0050673 0.0046343957 0.00058383413 0.0017495302 -0.00086590013 0.0015717425 -0.0044523324 0.0007447913 0.0021403101 0.0009757392 7.28056e-05 -0.0027915987 -0.0052920505 -0.00430652 -0.0010081846 -0.0038266918 0.0010454662 0.0030722893 0.0013398526 -0.005203837 0.0014504223 -0.0002822499 0.0029696396 0.00094499835 0.00026569757 -0.0004905473 0.0035422689 -0.0022575816 0.005038955 -0.000671585 0.00017734485 -0.0031666704 0.002557296 -0.004322777 0.0021466075 0.0049592378 0.0015422669 -0.0010930845 -0.001240795 0.004429541 0.0017508501 0.0015379991 -5.0901734e-05 -0.0017356257 0.000346393 -0.0011533517 0.0015730304 -0.0022215594 -0.0050401343 -0.003705846 -0.0001443245 0.0037500437 0.0003395099 -0.0023997608 0.00064239296 -0.0043731737 -0.004157152 -0.0005875283 -0.004269136 -0.0016739788 -0.004788303 -0.0023393699 -0.0010025665 -0.0041285227 0.0025934468 0.0014877814 -0.0035663482 0.00029642455 -0.003471431 0.0034956231 0.0016544466 0.0019404357 -0.0016883541 0.00069289474
地方 -0.0045134937 -0.0032658698 -0.003890015 -0.0034618885 0.0005933599 -0.0032582998 -0.001158511 0.005198765 -0.00014547155 -0.00037504424 -0.0032375264 0.0010610053 0.0021464392 -0.00031850947 -0.0024702025 -0.00498507 0.0053792717 0.005627784 -0.0043733595 0.0030057014 0.0004307682 -0.0019565101 0.0018500705 0.0034814896 -0.0025174972 0.0032705336 -0.0036165603 0.0022741763 0.003904538 0.0015075206 0.0010897203 -0.0019783627 -0.003252015 0.0028189619 0.0025604719 -0.0014394305 0.0022897818 -0.0045539746 0.0026210614 0.0025542371 -0.0018149704 0.0045447233 -0.0033405325 -0.00026563753 0.0020037666 -0.0051509654 0.0014544083 0.0016444603 -0.001582167 -0.0046966826 -0.0042604473 -0.0043947008 -0.0008038209 -0.002077383 -0.0028747194 -0.0007888616 -0.0023370646 0.00023189196 6.660393e-05 0.0026695302 0.0011115787 0.004716158 -0.003540704 -0.004525287 0.0014871046 0.005740687 0.0012312987 0.0040490944 -0.0012050642 0.00056052307 -0.000859033 -0.0016919457 -2.922157e-05 0.0025132736 -0.00527648 -0.0054729865 -0.0026482332 0.00085905154 -0.0027964795 -0.00208529 0.0040682596 0.0001638179 0.0035701587 -0.003077158 0.003302848 -0.005076632 -0.004178124 -0.0010531388 0.0013328347 -0.0040425085 0.00014088239 -0.002196391 0.0029074156 -0.0037917655 -0.0041152905 0.0026037777 -0.0034019472 -0.0053968024 -0.004386066 -0.0017462522
压力 0.00021861028 0.0024402847 0.0008314343 -0.00027953455 0.0031691098 0.0041822004 -0.0033525573 -0.0022853534 0.0050424673 -0.0053733005 -0.0034733105 -0.0004005196 -0.00096755574 -0.0031664039 0.0013204163 -0.0027247267 -0.00029727974 0.00055003894 -0.0014375774 -0.0025907923 0.0038269167 -0.0035553342 0.003836889 1.1951955e-05 0.002954287 0.0013131027 0.0032842415 -0.00477226 0.005909006 0.0013685406 0.0020558534 3.871511e-05 0.00015643322 0.0018496972 -0.0033001865 0.0038479327 0.002461534 0.0038003926 0.0018505291 0.0020113434 -0.0012890097 0.0012853321 0.004173301 0.000109151784 0.0038604392 -0.0043966672 -0.0035129597 0.004485072 -0.0042086146 0.004027842 -0.0019231596 0.0038225905 -0.0022907932 -0.0018602111 -0.0043449714 -0.0022323006 -0.0015985784 -4.5864537e-05 0.004424218 0.0016755472 -0.0010159777 -0.0026234167 0.0041046287 -0.0021203565 0.0018808534 0.0013200516 -0.0037228004 0.0012219166 -0.0029973488 0.003305942 -0.0039808066 -0.0028758338 -0.0027154903 0.0029780418 -0.005237845 -0.0017116922 -0.0056153364 0.0013913718 -0.0022646887 0.0014037207 -0.0023449552 0.0028979664 0.0013243242 0.0033897543 0.0037538859 -0.0026112637 0.001541762 -0.00125326 0.0037921052 0.0031777464 -0.0015557869 0.00030535966 -0.0030828756 -0.0025869615 -0.001739305 -9.286756e-05 0.0028827712 -0.005590824 -0.003739642 -1.1246913e-05
整合 0.003143875 0.003107112 0.0028156892 0.003994434 -0.0018804274 0.0020359235 -0.003628549 0.0018725453 0.0031349617 0.0019697363 0.0038849006 0.0034441992 -0.0044180118 0.0040345434 0.00086358027 0.0029065954 -0.0021942542 0.0042334576 0.0020337908 0.004752612 0.0023285989 -0.002516285 -0.0010193744 -0.0029258684 0.003200146 0.00392886 0.0046199467 0.004393687 0.005494145 -0.00405173 -0.00084252306 -0.00057495886 -0.00030574456 -0.0010666429 0.0016456723 0.0029972785 -0.0043248343 5.5231278e-05 -0.000847376 0.000505358 0.0016886578 0.0043209167 0.0022892652 -0.0012939418 -0.0049362476 -0.0045548542 -0.0016296585 0.0027974953 -0.0035907554 -0.0030228319 0.0028074088 -3.961123e-05 0.00297469 -0.00025493154 -0.0026294237 -0.0010958302 2.4517318e-05 0.00024278194 0.0015484084 0.0029321313 -0.0032025056 0.0016421744 -0.0021679197 -0.0041363346 0.0051191226 0.00096652936 -0.0013108324 0.0042550084 -0.0046470426 -0.0048668943 0.002691699 0.0016136131 -0.00024110767 -0.0025538236 0.0018326199 -0.0025976226 0.00201284 -0.0025060745 0.00076642557 -0.0027178312 -0.0018715655 -0.0023792584 -0.003534223 0.002198893 0.0020757827 0.00051220844 0.00042109273 0.002025639 0.00021636927 -0.00038798634 -0.0029982203 0.0037143817 -0.00034932353 -0.00019790989 0.0006911554 0.00019390015 0.0041136444 0.0018068381 -0.0039025235 0.00069521647
风险 0.0016687615 -0.00025408372 -0.001996045 0.00090656977 0.00037759315 0.0040266355 -0.0042630634 0.0034917148 -0.00048247742 0.0029922079 -0.0032241035 -0.0009492917 -0.002145607 0.0022103856 -0.0022905206 0.0033465605 0.00080578076 0.005783591 -0.00029185158 -0.00042749828 0.005100191 0.0014510745 0.0010319565 -0.0010827613 -0.0010047498 0.0021633073 -0.0019031435 -0.005509186 -0.0011515394 0.00045385782 -0.0032152152 -0.0020763893 -0.0051557263 -0.00088879437 0.005240949 -0.00070457114 -0.0033501189 -0.0018577627 -0.0053849085 -0.0058033234 0.004549669 -0.0040611248 1.7836206e-05 -0.0010940022 0.0023442276 -0.004833163 0.0018765806 0.0014884798 0.0027097971 -0.0032012763 0.00025538442 -0.0028185213 -0.0021079406 0.00055963633 -0.0002387966 -0.0041085663 0.0015801962 -0.004193742 0.0014388487 0.0037453095 -0.00058594364 -0.002778481 -0.004407754 9.328141e-05 0.0038569234 -0.0028338295 0.0040022237 0.004131928 -0.0049345857 -0.0041666087 0.0033204777 -0.00027448416 -0.0042663105 -0.00017019623 -0.002872228 0.0017762636 -0.0026741093 0.001615868 0.0002594202 0.00012805937 0.0006791821 -0.003619572 0.0045420406 0.0048200274 0.002116128 0.004623967 0.0045725196 0.003551626 -0.0017966275 0.0026889148 -0.0028398668 0.000162571 -0.0008422959 6.684383e-05 -0.0032698838 -0.00017301166 0.00054025766 -0.0035841856 0.0051642368 0.002936339
